3227 100
I 0.46203026 -0.58912647 -0.41713321 0.66288596 -0.7142067 -0.059140671 0.35750169 0.0081880931 -0.16789863 -0.50829732 -0.13961366 0.26889861 0.38637164 -0.21845384 -0.12089726 0.2332595 0.1470972 0.0036830469 -0.082765386 0.058976851 -0.067238405 0.14231561 0.56465536 -0.058402333 -0.30447656 0.28115714 -0.15475148 -0.17086399 0.10258418 0.11036103 -0.21212633 -0.24178466 0.023832016 0.65728593 -0.38467774 0.67836517 -0.4034636 -0.50369495 -0.10669179 -0.061883647 0.21749684 -0.45130557 -0.00092417677 0.46620023 -0.21254466 0.2050681 -0.19692972 -0.32803628 -0.16065553 0.11961644 -0.26556557 -0.01036771 -0.0829328 0.17302853 -0.13946152 0.084387906 -0.23141453 -0.47924256 0.19051214 0.057189804 0.034729786 -0.15165667 -0.17122114 -0.046211179 -0.17843482 -0.012001781 -0.0058740964 -0.21773219 -0.65047801 -0.17251106 0.11728909 0.18311773 0.26860896 -0.53667271 -0.14622416 -0.13528977 0.068342566 0.0026695516 0.12861791 -0.036141861 0.087330893 0.0083339373 0.52302444 0.13642609 -0.26053262 -0.15540749 0.23155591 0.72109127 -0.053304955 0.37763736 -0.32961819 0.38251472 -0.1623448 0.50626189 0.19698985 0.16039649 -0.15787143 0.37267676 -0.15956633 0.01461324
prince 0.42392081 -0.62783605 -0.44013634 0.69380975 -0.71897531 -0.077133544 0.36033586 -0.035461694 -0.066874266 -0.52515924 -0.10121187 0.24504241 0.28626072 -0.2348846 -0.041145951 0.24016435 0.16134445 0.059991423 -0.1121244 -0.029363766 -0.024151333 0.15822472 0.53999966 -0.17237508 -0.22734147 0.30424085 -0.11278148 -0.16634691 0.075662106 0.13934034 -0.07668706 -0.24187052 0.020033155 0.52631742 -0.42492035 0.59655434 -0.35985115 -0.41584653 -0.21200854 -0.043886818 0.22518812 -0.41750157 -0.059659991 0.45966768 -0.19399184 0.27380681 -0.17176864 -0.31511503 -0.099551283 0.053928856 -0.27123109 -0.0081849312 -0.11174963 0.18208599 -0.017461613 0.12893717 -0.29492375 -0.52188212 0.31389007 -0.098021999 0.031095931 -0.17614886 -0.21651481 0.032747246 -0.1441903 0.019320654 -0.013829867 -0.23442103 -0.64339733 -0.18674026 0.14388928 0.10760147 0.21256886 -0.47829339 -0.13931879 -0.20069256 0.098692127 0.086227454 0.18430218 0.099441431 0.055604339 -0.069413386 0.46744344 0.10623442 -0.2508918 -0.11684547 0.18145293 0.70872533 -0.072484285 0.35051849 -0.29808703 0.38363013 -0.23463728 0.43438482 0.17989522 0.17884314 -0.23275326 0.3370795 -0.15004358 0.046662431
said 0.44474453 -0.61972088 -0.42269436 0.70296049 -0.69648015 -0.085976847 0.34837121 -0.055638753 -0.08613088 -0.53895503 -0.13549492 0.23513775 0.29453069 -0.2188722 -0.066900671 0.22161497 0.15706436 0.040665437 -0.13571556 -0.0076517086 -0.0075916988 0.17060527 0.55813223 -0.19052026 -0.23836194 0.28030843 -0.1260975 -0.18032138 0.087179467 0.13403364 -0.10398587 -0.24324593 0.017531805 0.52874082 -0.40081218 0.59986562 -0.35861897 -0.42483824 -0.1676579 -0.064701214 0.21936367 -0.44053569 -0.047165513 0.46254483 -0.20383617 0.26621512 -0.16969213 -0.31556112 -0.11678437 0.058178775 -0.26635686 -0.019337613 -0.098788999 0.17670484 -0.020368019 0.12544979 -0.30281454 -0.48146263 0.29279551 -0.062589437 0.047176234 -0.16419929 -0.19817825 0.0026207955 -0.12847608 0.031119306 -0.013992538 -0.2272875 -0.6386109 -0.17999788 0.15251328 0.12579301 0.22835977 -0.45509645 -0.13290034 -0.1749194 0.06023014 0.065617315 0.17005804 0.058008369 0.070206098 -0.05486257 0.45596376 0.10772071 -0.24967864 -0.10713071 0.19983061 0.71447742 -0.071092553 0.36917147 -0.29070836 0.40467343 -0.22959979 0.45061937 0.18359441 0.18255439 -0.22281323 0.36222848 -0.14397262 0.043249328
He 0.48611668 -0.70357347 -0.47700024 0.7560814 -0.78071845 -0.084197313 0.41871476 -0.042801622 -0.091210298 -0.60283488 -0.11327165 0.27480161 0.30613902 -0.25959814 -0.03517944 0.25941086 0.18032147 0.054280605 -0.14089215 -0.054827396 0.0052144974 0.16110511 0.60756576 -0.20716538 -0.2414591 0.33029738 -0.11422639 -0.16320686 0.068396591 0.12923077 -0.067585021 -0.26825869 0.020790063 0.57051849 -0.49198666 0.66186285 -0.4097957 -0.46307573 -0.22648191 -0.037128933 0.22643717 -0.48693854 -0.058339171 0.52079511 -0.1991307 0.28685066 -0.17368464 -0.35520759 -0.099781856 0.056821831 -0.31868222 -0.0078377659 -0.13655223 0.19480728 -0.0021756322 0.13873878 -0.34466869 -0.5703938 0.34521171 -0.1117442 0.033285718 -0.18437032 -0.24457619 0.029186286 -0.15172772 0.022498835 0.0056049735 -0.26043391 -0.71310794 -0.21347798 0.17670128 0.096371368 0.23021327 -0.54630154 -0.15343454 -0.22235453 0.10725989 0.11079228 0.2057303 0.10093217 0.073908269 -0.074255884 0.49449447 0.1187833 -0.2754041 -0.12453801 0.21814568 0.78903288 -0.10532596 0.38890964 -0.349987 0.46361062 -0.25979614 0.52010721 0.19573094 0.20196398 -0.26722574 0.38046613 -0.1695894 0.058526807
The 0.49723709 -0.73649842 -0.48173043 0.78826505 -0.79432946 -0.091676451 0.42550063 -0.047706969 -0.079395443 -0.61289525 -0.1216329 0.27470747 0.29626694 -0.25226983 -0.034491807 0.24950218 0.18678293 0.079972051 -0.1612031 -0.068700448 0.012401139 0.15161256 0.60424632 -0.24062613 -0.22334735 0.33961961 -0.12418301 -0.18672599 0.076221973 0.13093697 -0.046591528 -0.27439874 0.0055885315 0.54545802 -0.49405813 0.65463406 -0.39437041 -0.45792657 -0.24243625 -0.049152978 0.22535411 -0.48917419 -0.059550487 0.53742796 -0.18470117 0.2964105 -0.16924031 -0.36828345 -0.093035646 0.045254759 -0.33619887 0.00052946463 -0.13547476 0.18932508 0.039487574 0.13389495 -0.36826348 -0.56854457 0.36433646 -0.13922511 0.023438999 -0.17657948 -0.25143075 0.030682921 -0.1407198 0.030721417 0.010710239 -0.25847331 -0.73913258 -0.22326662 0.18199387 0.11321308 0.23595364 -0.54907703 -0.13960135 -0.22238991 0.1030397 0.12828872 0.21130675 0.10876689 0.082426012 -0.090655334 0.49513212 0.11541718 -0.27263054 -0.12401256 0.21246088 0.79871249 -0.1125619 0.40252236 -0.35485312 0.48939207 -0.26577428 0.53433347 0.20432904 0.21296468 -0.28076962 0.37726969 -0.17034206 0.059082229
know 0.42262635 -0.56399298 -0.39382237 0.6388821 -0.66070044 -0.067113683 0.33935603 -0.016434142 -0.12329473 -0.48843303 -0.11866303 0.22963998 0.33324769 -0.20048961 -0.083176255 0.22602005 0.14367148 0.013382451 -0.10066625 0.030447811 -0.051359851 0.14070888 0.52187914 -0.10435304 -0.25598082 0.2549125 -0.12812361 -0.16931228 0.076810449 0.097620144 -0.15096506 -0.23303837 0.01548191 0.55026108 -0.35819086 0.58877486 -0.36141554 -0.43243238 -0.132792 -0.054075137 0.20901158 -0.41120017 -0.018129751 0.43877989 -0.19379637 0.23293401 -0.16342446 -0.29854438 -0.134408 0.090898827 -0.23940727 0.0064620557 -0.089903541 0.17310971 -0.057112169 0.091840565 -0.24098851 -0.44528022 0.21586584 0.0032293915 0.05895124 -0.14489372 -0.16932373 -0.02412794 -0.13934499 0.00017155675 -0.01344419 -0.21017514 -0.59892285 -0.18297744 0.12609071 0.14412524 0.23833326 -0.46757641 -0.13931026 -0.15274163 0.066854216 0.031215152 0.13221478 0.014187544 0.071770877 -0.021303188 0.46271214 0.11113175 -0.22888295 -0.13786216 0.20019737 0.66547889 -0.040229257 0.34081328 -0.29406309 0.36516485 -0.16939037 0.4497762 0.16964735 0.14999658 -0.17797367 0.34876993 -0.14593871 0.039255749
one 0.46012059 -0.65999269 -0.43161684 0.68773907 -0.71611094 -0.076695457 0.3874138 -0.015078151 -0.10019527 -0.55846274 -0.11177222 0.2562004 0.30289042 -0.23744138 -0.053301297 0.24059547 0.1712115 0.051469486 -0.13072531 -0.037895229 -0.016646536 0.14443663 0.54899418 -0.16791049 -0.22454235 0.29433167 -0.12287743 -0.1643347 0.076001376 0.11298624 -0.083087534 -0.24127816 0.0044617336 0.55550122 -0.42960867 0.6193136 -0.38044626 -0.45238331 -0.19204825 -0.043066602 0.2129613 -0.45349023 -0.039774984 0.48878658 -0.18281186 0.24498023 -0.15508777 -0.33107609 -0.097924262 0.054456003 -0.28066218 -0.002877061 -0.13007769 0.18903068 -0.0082086409 0.12332223 -0.29065537 -0.5209356 0.29203653 -0.07723362 0.028169077 -0.16270304 -0.2057106 0.0197316 -0.13727635 0.012261633 0.010629487 -0.2453315 -0.66262823 -0.18990985 0.1635738 0.099305935 0.22666952 -0.51334661 -0.14226514 -0.18601263 0.11189359 0.077449948 0.18399452 0.066887319 0.07633049 -0.05990494 0.47987095 0.10355956 -0.25288612 -0.13679719 0.21536937 0.7360658 -0.090006441 0.36225808 -0.33958787 0.43614438 -0.22393799 0.50227362 0.18980795 0.17194949 -0.23346776 0.35152265 -0.16387542 0.051774066
would 0.44783223 -0.65410221 -0.43746242 0.69709933 -0.72439736 -0.07091023 0.38534713 -0.021217799 -0.10442769 -0.55044657 -0.11368896 0.26355466 0.30604941 -0.22489826 -0.058372878 0.24134566 0.15843032 0.037501361 -0.12497733 -0.028862678 -0.0055373232 0.13993381 0.55260527 -0.16300628 -0.23515819 0.30004752 -0.12496653 -0.16076082 0.070221223 0.11467243 -0.092272066 -0.2532402 0.0047981814 0.5622533 -0.42419934 0.62825996 -0.38190877 -0.44375029 -0.19232348 -0.05002591 0.2194045 -0.44502324 -0.042592335 0.48208243 -0.19288942 0.24170657 -0.15721525 -0.33155218 -0.10879 0.061106171 -0.28889778 -0.0060333218 -0.12955311 0.19309498 -0.025934929 0.11597853 -0.29510525 -0.50968581 0.28565648 -0.061841112 0.037599985 -0.16417365 -0.20719159 0.0052529238 -0.13951834 0.0099038128 -0.0049529499 -0.2373316 -0.66473025 -0.19328982 0.1510973 0.11004736 0.22869468 -0.49842799 -0.14090428 -0.18138246 0.091674767 0.079858854 0.17186873 0.06508036 0.077047475 -0.056599699 0.48363489 0.11166371 -0.25448447 -0.14107911 0.21170154 0.72612441 -0.082882009 0.36540425 -0.32845706 0.42283812 -0.21339566 0.48960662 0.17967787 0.1720497 -0.23166858 0.35273847 -0.15665647 0.035982307
You 0.47422048 -0.65807068 -0.45617238 0.7288022 -0.76708657 -0.077665426 0.38931242 -0.03061796 -0.11319672 -0.56835335 -0.13005884 0.27347597 0.35089347 -0.2451423 -0.078249708 0.24200317 0.1674947 0.028678833 -0.12810919 -0.0073457295 -0.032970909 0.15158401 0.5901823 -0.15175852 -0.27385795 0.30426705 -0.13518734 -0.17487364 0.086015821 0.13719687 -0.12207375 -0.26413527 0.020254988 0.61246741 -0.4434894 0.66313219 -0.40824187 -0.4734138 -0.18547326 -0.057341617 0.22831823 -0.46845517 -0.039888937 0.49731874 -0.21229713 0.25898853 -0.18338823 -0.33806625 -0.13371892 0.071225151 -0.30140802 -0.016105972 -0.1156536 0.1850135 -0.055412374 0.12145308 -0.29919717 -0.53566784 0.28717813 -0.043160908 0.029043218 -0.17283846 -0.22372717 0.0017939564 -0.1686244 0.01973182 -0.0080296881 -0.25541118 -0.69178396 -0.19788679 0.16397516 0.1444481 0.25423896 -0.52029288 -0.14085072 -0.17694274 0.08246965 0.068088844 0.17070168 0.04300819 0.082518362 -0.04216864 0.51047951 0.1195342 -0.26699576 -0.13256468 0.22169152 0.76623267 -0.08749716 0.39517477 -0.33127195 0.421235 -0.21570493 0.51112211 0.20016745 0.18044661 -0.22271401 0.37687325 -0.17063135 0.031461917
could 0.46853545 -0.68087977 -0.44687501 0.734649 -0.7566554 -0.07841029 0.39251134 -0.032789655 -0.10131472 -0.56692731 -0.1121699 0.26366597 0.32392493 -0.24846038 -0.050782312 0.25666896 0.17406766 0.047499202 -0.13094562 -0.031396385 -0.016049286 0.1556391 0.5837608 -0.18079028 -0.25128797 0.30946133 -0.13227962 -0.16647807 0.070389517 0.13152796 -0.088978611 -0.25604942 0.010966181 0.58111805 -0.44839749 0.64786589 -0.39170694 -0.46204472 -0.1918283 -0.046963457 0.22853631 -0.46792009 -0.038880762 0.50399619 -0.20301463 0.26631027 -0.16620278 -0.34813741 -0.11481716 0.062480923 -0.29022163 -0.0072631249 -0.12757666 0.19816315 -0.013106295 0.12597845 -0.30886334 -0.54365063 0.30225864 -0.074887335 0.036208332 -0.16459681 -0.21199581 0.0060440497 -0.15101041 0.014925302 -0.0085858572 -0.25082427 -0.69081765 -0.20313966 0.1591818 0.11347464 0.23673666 -0.52946383 -0.14187647 -0.19075267 0.1013445 0.080511771 0.18730073 0.078491941 0.084916562 -0.061186064 0.50393355 0.11651137 -0.26844162 -0.13342158 0.21974874 0.77073395 -0.084452078 0.38411042 -0.33606195 0.44592237 -0.22752787 0.50712138 0.19355536 0.18793485 -0.23807481 0.37085649 -0.16382152 0.040449157
like 0.46380112 -0.65810227 -0.44196489 0.70001119 -0.73643219 -0.067307629 0.38702896 -0.02490885 -0.10169134 -0.55706227 -0.11545609 0.24912041 0.31627426 -0.22696565 -0.064591281 0.24980757 0.16495232 0.039044399 -0.12760879 -0.01267357 -0.028293945 0.1526368 0.56801832 -0.15536989 -0.2495264 0.29119799 -0.12936145 -0.17579783 0.077375859 0.11693932 -0.11412809 -0.24939224 0.012893707 0.56099093 -0.42688808 0.6378352 -0.39188915 -0.45819983 -0.19139236 -0.045723516 0.20682663 -0.44820669 -0.045079995 0.49188983 -0.19284374 0.25029024 -0.16721363 -0.32467863 -0.12224277 0.069728054 -0.28429583 -0.010411052 -0.11301063 0.19873072 -0.025693681 0.12111582 -0.28960949 -0.52099663 0.28820497 -0.048114493 0.042957153 -0.16580099 -0.20493987 0.0048480956 -0.14053082 0.016719623 -0.004270093 -0.23517254 -0.65860689 -0.19091657 0.15716062 0.12151491 0.23364557 -0.51413071 -0.14643866 -0.17770499 0.087682649 0.065298207 0.18115579 0.055857655 0.067333192 -0.04485077 0.48654452 0.11649906 -0.25158051 -0.13506725 0.21043146 0.74470288 -0.07551685 0.37186739 -0.32860109 0.42671159 -0.2229543 0.49642804 0.18676631 0.18175657 -0.21708141 0.36130384 -0.165774 0.047487766
It 0.47300947 -0.70955276 -0.47934416 0.75590801 -0.77390975 -0.092037648 0.4170059 -0.029945992 -0.10176042 -0.59794027 -0.1204801 0.27085835 0.32401359 -0.24466991 -0.05416625 0.25695747 0.17120686 0.043173213 -0.14317918 -0.046816122 -0.014072487 0.16397204 0.60856932 -0.20095745 -0.24839193 0.32554731 -0.11730985 -0.16957566 0.086637564 0.13559437 -0.077774011 -0.26356465 0.020187274 0.57768768 -0.48293671 0.66765094 -0.41366836 -0.47046831 -0.22027545 -0.046109512 0.22039457 -0.47266963 -0.054250043 0.51155287 -0.21192965 0.27200106 -0.18094881 -0.35819829 -0.11209158 0.068546146 -0.31675604 -0.013221221 -0.12644689 0.20153995 -0.0051448038 0.14209944 -0.3255837 -0.55730313 0.32544526 -0.079032838 0.033337753 -0.17255163 -0.24090092 0.014595767 -0.15682732 0.029414633 0.0030666478 -0.26264629 -0.71432555 -0.20302822 0.16749331 0.11466746 0.24143958 -0.54001588 -0.14772043 -0.20439495 0.092541069 0.095875233 0.18816134 0.076862983 0.074420623 -0.068952784 0.50338054 0.1097357 -0.26863095 -0.14055093 0.21711941 0.77871925 -0.10329406 0.39379862 -0.34604135 0.45900717 -0.25122967 0.51454133 0.1925116 0.19439054 -0.24637149 0.38538828 -0.17864005 0.050347399
see 0.44157448 -0.62048018 -0.41998032 0.68263006 -0.70464259 -0.082197323 0.36936745 -0.025369685 -0.11322222 -0.52803516 -0.12839049 0.23988517 0.32470408 -0.22969641 -0.063662931 0.23408665 0.16354549 0.033654217 -0.11634489 0.0048388341 -0.032978628 0.14758873 0.54852974 -0.14314292 -0.25472158 0.27779844 -0.11980016 -0.17141503 0.078969553 0.11763146 -0.12944284 -0.23853648 0.020261893 0.56606525 -0.39797497 0.62079686 -0.38432392 -0.44688791 -0.16456662 -0.059842002 0.21622303 -0.43030128 -0.031462766 0.47598225 -0.1879341 0.24184552 -0.16743432 -0.31580657 -0.12253869 0.075102687 -0.26068616 -0.0039181565 -0.10223317 0.18065234 -0.05127224 0.11872771 -0.27869815 -0.49766332 0.25563204 -0.03129182 0.046478581 -0.15829118 -0.20009023 -0.010324295 -0.14149377 0.0063953479 -0.0056450241 -0.22866978 -0.63971293 -0.19126959 0.145079 0.13638555 0.24504232 -0.48420548 -0.14031218 -0.16778871 0.073130645 0.052767817 0.15197793 0.038482759 0.085206278 -0.032096978 0.47660866 0.11704835 -0.24352905 -0.13727282 0.19760969 0.70865536 -0.062047075 0.35834193 -0.31310692 0.40218121 -0.20084502 0.48327368 0.18717293 0.16978003 -0.20268938 0.36122155 -0.15121989 0.041827235
But 0.47768313 -0.67506021 -0.46467525 0.73670304 -0.7586261 -0.08195468 0.39934799 -0.033120297 -0.098587535 -0.5832848 -0.13355128 0.26196107 0.32553852 -0.2411335 -0.053149752 0.24270089 0.16778532 0.035488058 -0.1393977 -0.027773373 -0.013689646 0.16666497 0.59837908 -0.1880478 -0.25969639 0.3143352 -0.12712926 -0.17601515 0.083296023 0.13315137 -0.091734223 -0.26620325 0.015340409 0.57374668 -0.45239013 0.65881854 -0.40683517 -0.46434546 -0.1940446 -0.05215269 0.2275795 -0.47031051 -0.037894197 0.50564289 -0.20052461 0.27750078 -0.17522284 -0.34162465 -0.12318695 0.066722214 -0.30049813 -0.0041323053 -0.11890049 0.19562571 -0.029576542 0.12218831 -0.31978744 -0.54025507 0.30797994 -0.069660991 0.040415339 -0.16893657 -0.21463317 0.0020401806 -0.14794882 0.022148469 -0.0037879911 -0.25959298 -0.69242847 -0.20229097 0.15617585 0.1312791 0.24645254 -0.52172524 -0.14655428 -0.19642162 0.091992877 0.077668726 0.18207218 0.072018601 0.081482515 -0.052212588 0.5028246 0.11580395 -0.26882523 -0.12860112 0.21716307 0.76843858 -0.078020774 0.395762 -0.3383829 0.43539909 -0.24371913 0.5020957 0.19216816 0.18979584 -0.24211459 0.38509509 -0.16308287 0.039943308
man 0.48316523 -0.68746144 -0.44853196 0.72482061 -0.76034915 -0.085592471 0.39324766 -0.012570901 -0.092115752 -0.58178431 -0.096533172 0.25920665 0.32204539 -0.237445 -0.052100144 0.2450017 0.16909203 0.062686697 -0.13843304 -0.049491428 -0.015663218 0.14618233 0.58102781 -0.17027925 -0.24130441 0.30941099 -0.11231315 -0.17255926 0.069911383 0.12168656 -0.082070403 -0.26453328 -0.0019584994 0.56467199 -0.46437615 0.63818878 -0.40537229 -0.46508342 -0.22798014 -0.056072824 0.20481145 -0.47964481 -0.057150621 0.51680607 -0.19107629 0.25950828 -0.16566657 -0.34434232 -0.091883339 0.060025275 -0.29433426 0.0025357555 -0.14159845 0.19735572 0.011311237 0.12923944 -0.30992708 -0.55123168 0.32410696 -0.095821925 0.042877238 -0.15255056 -0.22134571 0.023587968 -0.14617249 0.012573926 0.00046032335 -0.26062486 -0.68842232 -0.20702031 0.17617148 0.11136947 0.24065048 -0.53906745 -0.15135014 -0.19715327 0.11135531 0.089973889 0.1931453 0.089431301 0.07517571 -0.060541973 0.49544308 0.10241442 -0.27116764 -0.14000998 0.21975787 0.75379097 -0.10646055 0.37148544 -0.34564137 0.4494676 -0.22716838 0.51714659 0.1791769 0.18805455 -0.25001356 0.37695375 -0.16286439 0.047861919
Aglaya 0.457378 -0.66193736 -0.46698529 0.73244852 -0.75822794 -0.097795695 0.37885219 -0.052394897 -0.078839481 -0.56103593 -0.12485683 0.2529619 0.3140277 -0.24901871 -0.027133288 0.23411584 0.17145668 0.046852119 -0.13409062 -0.030265016 -0.011569736 0.17171012 0.58750713 -0.18749787 -0.25378504 0.32281598 -0.10868 -0.16396667 0.074822605 0.14119823 -0.065912321 -0.25368151 0.022910286 0.54537797 -0.46291062 0.63705629 -0.39781362 -0.44340017 -0.21086021 -0.039542593 0.23086537 -0.45951089 -0.044426113 0.50347495 -0.1910302 0.2835688 -0.18064496 -0.33672813 -0.10311458 0.048202321 -0.30867106 -0.014729189 -0.11972586 0.179019 -0.015158026 0.12493746 -0.32252765 -0.543423 0.32975709 -0.089836322 0.036314406 -0.19187747 -0.22951514 0.017209377 -0.15047728 0.027138291 -0.0043619466 -0.25800395 -0.69437486 -0.20350443 0.15780757 0.10914754 0.2356523 -0.5110898 -0.15597178 -0.21550107 0.077398919 0.090828978 0.18275897 0.091871344 0.061120901 -0.061213899 0.49164385 0.11903062 -0.25735617 -0.12792246 0.19919457 0.75749069 -0.088084757 0.38804877 -0.31059763 0.43260941 -0.24655025 0.47408172 0.1913787 0.193408 -0.24339731 0.36813793 -0.16162015 0.037680916
say 0.44184849 -0.5958271 -0.41460252 0.66544795 -0.68895227 -0.063994579 0.35350037 -0.012972327 -0.11586225 -0.51684123 -0.13155375 0.24086627 0.32988897 -0.2222636 -0.086985581 0.22649141 0.15054223 0.021817636 -0.11159446 0.018834997 -0.04172622 0.15130898 0.53796858 -0.12939803 -0.24963108 0.26364374 -0.13672613 -0.17401031 0.082736969 0.11878509 -0.13200948 -0.23374787 0.013629727 0.56634855 -0.38194111 0.60929418 -0.3681657 -0.44614053 -0.1491335 -0.050633121 0.22120261 -0.43610582 -0.021227116 0.4634141 -0.20355432 0.24259423 -0.16096291 -0.31559286 -0.12804922 0.085007943 -0.26039147 0.0011504657 -0.093511656 0.17581069 -0.052033603 0.099969238 -0.26665142 -0.46705458 0.24374299 -0.010623468 0.039977368 -0.15143967 -0.18509209 -0.014252624 -0.15714553 0.016709533 -0.010272666 -0.23446088 -0.61815912 -0.17865556 0.12996966 0.1283012 0.24033117 -0.47505608 -0.13644207 -0.15498023 0.070086196 0.041053738 0.14348723 0.021569468 0.075888112 -0.035863142 0.48015362 0.11443245 -0.24612762 -0.13858876 0.21574691 0.69581205 -0.053047352 0.35438412 -0.31217945 0.38399136 -0.1893184 0.47368225 0.18328494 0.16726209 -0.19906825 0.35823146 -0.15195829 0.027231991
She 0.47614774 -0.69121766 -0.46693522 0.74888587 -0.76767445 -0.094255425 0.41037139 -0.04136394 -0.092892803 -0.58788413 -0.12334471 0.26934236 0.31736407 -0.24814288 -0.040998429 0.25362834 0.18328494 0.038778592 -0.14147621 -0.051306941 -0.013478919 0.1650465 0.60129631 -0.19541095 -0.2473703 0.32933009 -0.11851668 -0.1696167 0.077723756 0.130459 -0.081135087 -0.26452297 0.012426058 0.57235038 -0.46994364 0.65756214 -0.41000929 -0.4626562 -0.21184599 -0.044120263 0.21755134 -0.47726363 -0.04470415 0.51234138 -0.19756259 0.27706441 -0.1717076 -0.35154185 -0.095759653 0.06121299 -0.30925626 -0.0076745157 -0.13986228 0.19453324 -0.010531987 0.13697945 -0.33572784 -0.56478095 0.32958117 -0.090192497 0.033832464 -0.18116444 -0.23956677 0.013074419 -0.15438329 0.01698702 0.0026203897 -0.25731319 -0.69945401 -0.20524652 0.17209941 0.11073165 0.24256933 -0.53235161 -0.15323091 -0.21350302 0.10250434 0.099410564 0.19760485 0.090309016 0.070087463 -0.07273069 0.49313641 0.1151884 -0.27059171 -0.13632698 0.21161234 0.7764836 -0.097674757 0.39384642 -0.33582035 0.44689178 -0.24903813 0.51665998 0.19595224 0.19077803 -0.26152647 0.38925603 -0.16619018 0.046068981
time 0.44271588 -0.64832252 -0.42680171 0.69372976 -0.71469396 -0.080765396 0.39100108 -0.014733686 -0.09533643 -0.54785949 -0.12200369 0.25131419 0.3117303 -0.2332482 -0.051401597 0.2378775 0.15726963 0.053807706 -0.12472106 -0.027825497 -0.0065066074 0.14169115 0.56595802 -0.16730221 -0.23258179 0.28938907 -0.12172832 -0.17173041 0.080834083 0.117172 -0.084337823 -0.2442243 0.0046952055 0.54202485 -0.42396209 0.6183688 -0.38678744 -0.443901 -0.19648515 -0.043142065 0.21519065 -0.44524235 -0.04160865 0.48862275 -0.17402829 0.25382605 -0.15301464 -0.33624905 -0.11158849 0.061514489 -0.28028777 0.0053277612 -0.12874003 0.17927738 -0.01466588 0.11310536 -0.30361411 -0.51785028 0.29265103 -0.075924285 0.039355762 -0.16460922 -0.20250936 0.0023124299 -0.13577086 0.011683025 0.001400144 -0.23677115 -0.65056419 -0.1893502 0.15992545 0.11008246 0.23040046 -0.50775403 -0.1468731 -0.18230793 0.098929718 0.082987063 0.17815751 0.063109919 0.067938909 -0.058188859 0.477164 0.11816686 -0.24773091 -0.13468327 0.19827925 0.72221273 -0.083817154 0.35903919 -0.32909027 0.42710352 -0.2177691 0.48971108 0.18427497 0.18943034 -0.22160429 0.3502149 -0.15395404 0.04905019
general 0.44382694 -0.6593141 -0.4473874 0.72413695 -0.74360704 -0.082803383 0.38647422 -0.032104827 -0.069256596 -0.54934371 -0.11810621 0.25324681 0.29575196 -0.23772226 -0.038255494 0.25114876 0.16778879 0.047460597 -0.13247046 -0.04718991 -0.0042014648 0.16068573 0.57826853 -0.18878001 -0.23949757 0.31663674 -0.11715522 -0.16685668 0.072817013 0.1379983 -0.058152255 -0.25184381 0.016588662 0.53876334 -0.45320243 0.61974454 -0.37304467 -0.44436076 -0.21867315 -0.049825873 0.22373426 -0.44504699 -0.062655054 0.49041051 -0.19154298 0.2820653 -0.16716224 -0.33143306 -0.096991919 0.051551506 -0.29342693 -0.015178531 -0.12188928 0.18519124 0.00056263921 0.1302696 -0.32358339 -0.54233646 0.33225968 -0.11205487 0.040550169 -0.1796695 -0.22378735 0.034627806 -0.14305395 0.02810929 -0.013410184 -0.2488699 -0.67769897 -0.20360707 0.16266364 0.10068125 0.2165744 -0.50516897 -0.14659531 -0.21719797 0.10301925 0.093543589 0.19833086 0.10179839 0.057615366 -0.067967564 0.47867051 0.10373189 -0.26375818 -0.12511176 0.19419281 0.73866272 -0.083255477 0.36878532 -0.32295009 0.41922262 -0.24949616 0.4631272 0.17973642 0.19522692 -0.24403572 0.35429734 -0.15139334 0.053633321
Nastasia 0.37689483 -0.66662306 -0.46730816 0.88115543 -0.85033816 -0.13755524 0.47946194 -0.14093141 -0.10966831 -0.46385974 -0.20215783 0.18378779 0.28595307 -0.30946448 0.026259458 0.25243968 0.24544197 -0.043391731 -0.17944098 -0.14241202 0.059524141 0.29954377 0.71279764 -0.22164087 -0.38102245 0.43366057 -0.12902363 -0.15389302 0.19520186 0.084168926 0.06233504 -0.2042715 0.041513473 0.5269953 -0.56830347 0.59572899 -0.28718662 -0.51269156 -0.23677215 -0.12866336 0.14439376 -0.38036847 -0.010967056 0.37033796 -0.17003837 0.34936568 -0.29352987 -0.27210191 -0.030512501 0.14236626 -0.39121681 -0.15733424 -0.12016223 0.075934663 -0.011866977 0.2422412 -0.3781164 -0.59965736 0.30656618 -0.1525216 0.06550654 -0.31069595 -0.37719408 0.0080154538 -0.1337112 0.04043036 -0.050373282 -0.11139917 -0.83676833 -0.27161688 0.16103753 0.23338491 0.18268017 -0.55089003 -0.14722311 -0.36560941 -0.03658513 0.13471033 0.24221452 0.10201018 -0.059509616 -0.096285157 0.5039413 0.20714834 -0.2781488 -0.081103139 0.077344812 0.82231039 -0.15340279 0.42375201 -0.2965968 0.42391074 -0.38608357 0.51203275 0.098066688 0.2859081 -0.33878326 0.45056164 -0.23284614 0.12678191
though 0.47327501 -0.67590564 -0.45110184 0.72441286 -0.74763858 -0.076523751 0.39513558 -0.035145577 -0.10315953 -0.57116312 -0.12908508 0.26044774 0.3180896 -0.24064222 -0.056318108 0.2498626 0.16479246 0.042715643 -0.13630766 -0.028334795 -0.012619664 0.16464151 0.57352388 -0.18504623 -0.25243211 0.314408 -0.12157437 -0.17063934 0.076988913 0.12737089 -0.088600039 -0.2631802 0.019135909 0.55888855 -0.45031151 0.63426369 -0.39681607 -0.45766705 -0.19721133 -0.04514927 0.22821875 -0.46981227 -0.047456954 0.50572044 -0.19963375 0.27112645 -0.16602372 -0.33737022 -0.1017421 0.068856977 -0.28978354 -0.0060587865 -0.12216104 0.18892272 -0.014464977 0.1252905 -0.32456458 -0.54133177 0.30943969 -0.085877866 0.032317996 -0.17690645 -0.21620961 0.018490795 -0.15322231 0.029451638 -0.00033684081 -0.25276095 -0.68977779 -0.20294403 0.16628094 0.11182865 0.23679194 -0.52244872 -0.14596407 -0.20496261 0.091056608 0.087133415 0.179998 0.076574765 0.08181639 -0.057102777 0.49036556 0.1192993 -0.26401848 -0.13319172 0.21601842 0.75666338 -0.083502352 0.3776001 -0.32937792 0.44161716 -0.23388341 0.49837911 0.1901937 0.18909711 -0.24206229 0.37649742 -0.16395238 0.044973567
What 0.47284666 -0.67410237 -0.46160701 0.74712414 -0.7752431 -0.087274142 0.39501989 -0.03116408 -0.095559351 -0.59256321 -0.13533215 0.26153657 0.32927677 -0.25331837 -0.058286276 0.24890086 0.17281136 0.041741606 -0.14086074 -0.029528439 -0.0034140407 0.15871273 0.60874772 -0.17593043 -0.26556116 0.31063354 -0.13937669 -0.17919388 0.071770795 0.13394648 -0.099162497 -0.26193237 0.025667973 0.5978052 -0.46911782 0.66077667 -0.38923869 -0.45632404 -0.20376036 -0.057287551 0.24052773 -0.45997787 -0.053136565 0.50706547 -0.22599344 0.28212056 -0.17454134 -0.33235773 -0.12699437 0.06006154 -0.30475083 -0.011606093 -0.11823127 0.19132915 -0.024746129 0.12253335 -0.31962708 -0.54599118 0.3040134 -0.056561895 0.042181741 -0.17053905 -0.22361641 0.0063916389 -0.15938865 0.028431132 -0.0011149117 -0.24324214 -0.70935577 -0.19277801 0.16076203 0.13414012 0.23870116 -0.50700778 -0.13216418 -0.19652615 0.076354131 0.08691439 0.19095054 0.070747018 0.06177102 -0.053790737 0.5035122 0.1097727 -0.27247483 -0.13279936 0.21908736 0.76474464 -0.094609916 0.38935098 -0.32907408 0.43214729 -0.23704901 0.49380675 0.20535342 0.19074589 -0.24355352 0.39559335 -0.17484047 0.051386178
much 0.45146298 -0.63709694 -0.43541166 0.69924456 -0.71763539 -0.072570726 0.37297645 -0.026861856 -0.10164133 -0.54576248 -0.12103907 0.2569868 0.30835614 -0.23295583 -0.057291601 0.24005432 0.1586411 0.043529142 -0.12168365 -0.025273317 -0.021065563 0.15270305 0.55880737 -0.1723842 -0.24918334 0.29300603 -0.12705074 -0.17186129 0.078348562 0.12909451 -0.099595599 -0.25320762 0.016196379 0.55732644 -0.43008542 0.61651784 -0.3826527 -0.44362184 -0.19525442 -0.044925116 0.21857423 -0.44987434 -0.040215742 0.4905434 -0.19806585 0.26191044 -0.1697963 -0.33003992 -0.11103161 0.066290282 -0.28252575 -6.3402666e-05 -0.1075637 0.18878256 -0.019299923 0.11951131 -0.29056671 -0.51592749 0.29337209 -0.06529171 0.040838454 -0.16427962 -0.21501562 0.011325418 -0.13932638 0.015376881 -0.0058855717 -0.23868814 -0.66101962 -0.19474986 0.15731406 0.11292374 0.22764041 -0.49438071 -0.14675693 -0.18262888 0.088020653 0.069566011 0.17292522 0.066318333 0.072186455 -0.056604329 0.47808161 0.11491777 -0.25367734 -0.13214141 0.20497544 0.72417921 -0.082083389 0.36879849 -0.31776184 0.41829243 -0.21283028 0.47471148 0.18574695 0.1827199 -0.22131562 0.35984316 -0.1607167 0.04244015
come 0.43441838 -0.61806142 -0.40779829 0.66937095 -0.6963793 -0.077148311 0.36596107 -0.031242447 -0.091601297 -0.52517879 -0.11331896 0.2403823 0.30641228 -0.22791943 -0.050693907 0.23102026 0.16346572 0.042125639 -0.11423962 -0.019455906 -0.020204186 0.14234082 0.54175949 -0.16211161 -0.23462075 0.2828584 -0.10891116 -0.16732049 0.07660789 0.11190169 -0.096285515 -0.24080355 0.012595711 0.53844571 -0.40825272 0.60517871 -0.36346075 -0.43367198 -0.18230498 -0.046859894 0.20755754 -0.42780268 -0.043618374 0.46859181 -0.17919831 0.24453345 -0.16617584 -0.31786528 -0.10217903 0.057227992 -0.25910991 -0.015128318 -0.10510389 0.17226863 -0.028487902 0.1217145 -0.28762296 -0.49542674 0.27497056 -0.057872731 0.03682052 -0.15151602 -0.19615684 0.0027297211 -0.13521034 0.012440662 0.00017295024 -0.236543 -0.62337494 -0.18744384 0.1540236 0.10710825 0.22075135 -0.47492045 -0.13459735 -0.16892864 0.089337379 0.062574223 0.15609504 0.060433608 0.079258017 -0.046317261 0.46385443 0.10240135 -0.24556813 -0.12699145 0.2065641 0.70022374 -0.065987937 0.34915566 -0.30983111 0.39574048 -0.20411219 0.4577342 0.18413866 0.17002533 -0.2091427 0.34094915 -0.1445564 0.040113769
Rogojin 0.44129419 -0.64561939 -0.44536087 0.70747107 -0.72810197 -0.091606647 0.37877473 -0.041359521 -0.087011613 -0.55164468 -0.10847735 0.25252795 0.2892572 -0.24123107 -0.039735135 0.24445975 0.17067316 0.043990433 -0.13375475 -0.051267762 -0.0026345518 0.15044403 0.55697209 -0.19114923 -0.22857738 0.30635574 -0.11494692 -0.15363771 0.078282513 0.1274996 -0.073632732 -0.24898031 0.0096421214 0.53954661 -0.44449666 0.61487794 -0.37071562 -0.43064284 -0.20802411 -0.046244718 0.21447791 -0.44527429 -0.045364443 0.48588347 -0.19158034 0.27232853 -0.1674733 -0.33416474 -0.088767022 0.053784661 -0.29073709 -0.012597675 -0.12081863 0.17797609 -0.011081526 0.13119362 -0.31501126 -0.53461093 0.30930713 -0.095434487 0.036115021 -0.16934846 -0.22887804 0.02705485 -0.14868639 0.014346276 -0.0033720068 -0.2432685 -0.66156352 -0.1936381 0.1536842 0.11234225 0.22570091 -0.50373161 -0.14376913 -0.19869761 0.10140214 0.097632706 0.18014638 0.089563295 0.069381602 -0.066447817 0.47092974 0.10987522 -0.24757572 -0.12028583 0.1875097 0.73290831 -0.092690021 0.36278918 -0.31492847 0.41891247 -0.23584309 0.47754765 0.1858248 0.19186622 -0.24634276 0.35617059 -0.16286746 0.046148505
quite 0.44646296 -0.6397472 -0.44274667 0.70669621 -0.72894257 -0.077626482 0.37394539 -0.024832563 -0.11079732 -0.55166614 -0.12391825 0.26112977 0.32411444 -0.22650972 -0.071146801 0.2378173 0.16721046 0.039446458 -0.12891291 -0.012793026 -0.028741337 0.15168373 0.55476445 -0.16037625 -0.24576318 0.29483849 -0.12068521 -0.16323739 0.081057392 0.12361064 -0.10906641 -0.25727752 0.020101985 0.56032014 -0.43489119 0.6297577 -0.38026381 -0.44764924 -0.18768521 -0.053743817 0.21394712 -0.45525932 -0.036543921 0.4908171 -0.19860362 0.2575224 -0.1682225 -0.32685491 -0.10500535 0.075096294 -0.28615019 -0.00084508164 -0.11536644 0.19324301 -0.027179953 0.11963972 -0.30303204 -0.51840931 0.28430593 -0.056508012 0.04046056 -0.16397849 -0.21528631 0.0089998757 -0.14928266 0.01437139 -0.0083194822 -0.244059 -0.65775174 -0.19557199 0.16175549 0.12047338 0.24053019 -0.50144321 -0.13896272 -0.18169561 0.092455722 0.078075312 0.16535489 0.062179852 0.078262612 -0.048173647 0.48261884 0.10964344 -0.248059 -0.1291552 0.21191424 0.73318571 -0.083253063 0.36627758 -0.32632941 0.41767541 -0.21482256 0.48558795 0.18772624 0.17875348 -0.22118936 0.35247535 -0.16576703 0.04311116
must 0.44988653 -0.6407792 -0.43105924 0.70903403 -0.72569871 -0.075042278 0.38584739 -0.024838444 -0.10940338 -0.55189168 -0.12721796 0.26062176 0.33064491 -0.22410561 -0.067734182 0.24044947 0.16573055 0.031395312 -0.12900628 -0.0029689372 -0.024989918 0.14475468 0.57096344 -0.16052377 -0.25260454 0.30122945 -0.13269544 -0.17521782 0.085438676 0.11579543 -0.12500215 -0.24430853 0.010893388 0.57730371 -0.41862711 0.63477457 -0.39364025 -0.45943853 -0.17948368 -0.055254705 0.21917324 -0.45707941 -0.028503923 0.49224383 -0.20356525 0.24703449 -0.16468494 -0.32970977 -0.12002802 0.072241679 -0.27975261 -0.013034633 -0.11192321 0.19371532 -0.044621035 0.11949476 -0.28770718 -0.50777441 0.2773343 -0.046119437 0.045754541 -0.16878538 -0.20638931 -0.0095987478 -0.15241764 0.012302624 -0.011447093 -0.24774909 -0.66899186 -0.18719283 0.15327838 0.13558625 0.24344145 -0.50709808 -0.13838354 -0.18348674 0.088900417 0.065322943 0.17038295 0.043114141 0.075733364 -0.042894389 0.49203297 0.11021459 -0.25180849 -0.14052252 0.20548043 0.7321524 -0.076372303 0.37429053 -0.3282398 0.41482148 -0.22088705 0.49312469 0.18309924 0.17478654 -0.21393579 0.37087232 -0.16199325 0.032982249
Gania 0.47882697 -0.68678951 -0.46634749 0.75156671 -0.7810201 -0.092248417 0.40451896 -0.039997954 -0.083137624 -0.58429569 -0.1189037 0.25721082 0.3125796 -0.25311154 -0.040755399 0.25509459 0.1882062 0.057132825 -0.13467988 -0.040069178 -0.0089143552 0.16459477 0.5875718 -0.19340697 -0.24647993 0.32850701 -0.12459324 -0.16848673 0.084196091 0.13136005 -0.082581706 -0.2549879 0.01690219 0.5767805 -0.48177129 0.64333439 -0.39303145 -0.4569017 -0.22201778 -0.043340735 0.22392401 -0.4602375 -0.059624974 0.50228047 -0.20409709 0.28093719 -0.17218058 -0.34360531 -0.10017924 0.059508968 -0.31115824 -0.013827015 -0.13233642 0.19816807 -0.0085585024 0.13568941 -0.32304993 -0.5613904 0.32955113 -0.10342369 0.038795933 -0.18403016 -0.24457479 0.028952967 -0.15379947 0.017169088 0.0035378758 -0.25607786 -0.70483088 -0.20418859 0.16520829 0.11840054 0.22955772 -0.5332889 -0.14124249 -0.21464725 0.10774435 0.10121558 0.18680005 0.097208872 0.065279327 -0.075455032 0.50339985 0.10219096 -0.2617766 -0.1328914 0.20721227 0.77921152 -0.10395823 0.38752872 -0.33343884 0.4418121 -0.24615823 0.50219613 0.19743875 0.1937781 -0.25208461 0.38531026 -0.1754881 0.053574204
Lebedeff 0.45706588 -0.68190193 -0.45547694 0.74278742 -0.75200313 -0.095431775 0.39800823 -0.039088476 -0.089195676 -0.56441432 -0.12461771 0.26001108 0.30751064 -0.24875011 -0.047745824 0.25007144 0.17804 0.05140632 -0.13719366 -0.04243435 -0.0062899254 0.15875101 0.58717698 -0.19818972 -0.24237379 0.30846533 -0.12277993 -0.16830976 0.072517015 0.12464818 -0.083515972 -0.26156059 0.012352103 0.56038982 -0.46453103 0.63428026 -0.38962501 -0.44648564 -0.21341535 -0.053192176 0.21621875 -0.45568851 -0.049235824 0.50343722 -0.20137917 0.26873499 -0.1759214 -0.34260222 -0.10627099 0.058931485 -0.30569756 -0.0070102066 -0.13040793 0.19186996 -0.004412977 0.13028494 -0.32221875 -0.55351537 0.32124189 -0.087142728 0.029045992 -0.17334498 -0.23101911 0.022251964 -0.14826275 0.013086051 -0.00030198443 -0.25144038 -0.68546981 -0.20536649 0.16509156 0.11672358 0.23998505 -0.51773041 -0.1413691 -0.20396334 0.094296306 0.094490707 0.18216042 0.079460889 0.061394922 -0.072812378 0.48931611 0.10534899 -0.26154974 -0.13259728 0.19791083 0.76864481 -0.088142969 0.38101715 -0.33399853 0.43356526 -0.23759122 0.49499831 0.18165119 0.1846257 -0.252296 0.37435326 -0.16837329 0.04916301
Oh 0.47574091 -0.67631215 -0.45440713 0.73111415 -0.76085663 -0.078383826 0.39471132 -0.034699667 -0.12916842 -0.57588601 -0.1272857 0.26603997 0.35091564 -0.23192036 -0.068714522 0.25151938 0.15920442 0.04093162 -0.12360796 -0.00038509956 -0.036552057 0.15442736 0.59827703 -0.16244659 -0.25736979 0.30700472 -0.13784938 -0.1790977 0.075133249 0.12903067 -0.12852944 -0.26928589 0.014933565 0.60553664 -0.44582766 0.66251171 -0.40676856 -0.47723299 -0.19115824 -0.0583423 0.2366083 -0.46475574 -0.040929597 0.50518286 -0.21694234 0.26322368 -0.18613949 -0.34210402 -0.13427116 0.080029018 -0.29778543 -0.0061153499 -0.10718989 0.19366428 -0.040355317 0.11751772 -0.31420085 -0.53144938 0.28163067 -0.045419276 0.039554477 -0.17139758 -0.21927294 0.00066780031 -0.15867673 0.01579739 -0.0023023784 -0.26383922 -0.6946519 -0.20255546 0.16106106 0.14308876 0.25561112 -0.52594697 -0.14591868 -0.18247689 0.088814981 0.063032702 0.16517019 0.052616384 0.079874724 -0.043805104 0.51256907 0.1131321 -0.26282609 -0.13485274 0.21861087 0.76768947 -0.084765345 0.38748395 -0.33857596 0.42841318 -0.21862338 0.51660228 0.19039674 0.1812515 -0.2322693 0.38884524 -0.17399941 0.046341121
little 0.48119354 -0.70059174 -0.46940082 0.75150657 -0.77677894 -0.078294702 0.41377783 -0.021689489 -0.099275559 -0.59007174 -0.11535146 0.26042381 0.32017341 -0.24602231 -0.054440368 0.25506496 0.17885351 0.046429548 -0.14433521 -0.036672935 -0.017034769 0.15660729 0.59776795 -0.18333682 -0.25239921 0.32252297 -0.12340052 -0.17650743 0.073546968 0.13469696 -0.087239206 -0.26610285 0.014791117 0.57994372 -0.47934926 0.66331702 -0.40614802 -0.47714549 -0.22199337 -0.049033333 0.21692808 -0.47697127 -0.047226939 0.52089244 -0.19359635 0.27268758 -0.16562535 -0.36145818 -0.11048753 0.063560285 -0.30967191 -0.0032955387 -0.12939194 0.20616841 -0.011064847 0.13431399 -0.32216409 -0.55098838 0.32469812 -0.083879717 0.037515908 -0.16404402 -0.23460114 0.021482753 -0.14350371 0.016185276 0.0049908278 -0.26359522 -0.70822358 -0.19966181 0.17491439 0.11829914 0.24697241 -0.54078102 -0.15193163 -0.20849027 0.10673127 0.09077853 0.19831434 0.08769203 0.070639268 -0.067351922 0.50371939 0.10790221 -0.26848277 -0.13895135 0.21810646 0.78347647 -0.10232179 0.38480461 -0.34838513 0.45841625 -0.23279397 0.52156359 0.19680904 0.19237497 -0.25408289 0.38181004 -0.16504727 0.052609198
think 0.42124245 -0.58126295 -0.40015242 0.64179975 -0.66104519 -0.063698076 0.34884006 -0.017187893 -0.11124478 -0.50266862 -0.12247374 0.23256128 0.31794259 -0.20930132 -0.075869463 0.21354419 0.14146227 0.025952172 -0.10298894 0.0078750625 -0.036162775 0.14255442 0.5195694 -0.12910353 -0.247192 0.26257858 -0.12994277 -0.16297434 0.078587174 0.11087162 -0.13286535 -0.23239832 0.018726939 0.54609549 -0.37294734 0.59270859 -0.35993743 -0.42976582 -0.15238133 -0.046446327 0.2048876 -0.41912621 -0.026880156 0.45570347 -0.18609345 0.23621914 -0.15885587 -0.29681018 -0.11856163 0.082788236 -0.25107127 -0.0029900849 -0.08959797 0.17509444 -0.054051664 0.10152272 -0.25360253 -0.45968181 0.23328087 -0.014575065 0.049925346 -0.14355695 -0.18189898 -0.019687062 -0.13779894 0.0080759497 -0.0039858404 -0.22287492 -0.60061288 -0.17634256 0.13003395 0.13660984 0.23532528 -0.45408535 -0.14287594 -0.15002997 0.06670925 0.050541539 0.13839331 0.020945556 0.077144742 -0.035813633 0.4594287 0.10371627 -0.23046766 -0.12955475 0.19327004 0.66599768 -0.05269653 0.34399408 -0.29846257 0.37538913 -0.17965099 0.44838524 0.16569607 0.15444392 -0.18152349 0.34465408 -0.14969553 0.031665236
thought 0.43200773 -0.62132525 -0.41762775 0.6677534 -0.68298817 -0.066625513 0.36596072 -0.015732422 -0.10435476 -0.51652074 -0.12318093 0.24570301 0.30600622 -0.2175723 -0.061468575 0.22773719 0.15494783 0.036498953 -0.11660931 -0.0061072903 -0.030359052 0.14433558 0.53051126 -0.14415778 -0.2331617 0.27832964 -0.12074619 -0.16477834 0.076328009 0.10857832 -0.11388081 -0.23983647 0.0030922529 0.5339644 -0.39230365 0.59963787 -0.3638956 -0.43209293 -0.17899936 -0.045865249 0.21153259 -0.42795923 -0.037943676 0.4690384 -0.17593826 0.2507025 -0.15519816 -0.31383872 -0.1079702 0.070323512 -0.26068443 0.00518191 -0.10490696 0.1738119 -0.031010555 0.10849396 -0.28117988 -0.48403683 0.26673934 -0.055665348 0.039625432 -0.15214677 -0.20033574 -0.0066319117 -0.13790059 0.012237499 -0.001416159 -0.22650278 -0.63121724 -0.1914176 0.15092294 0.12280852 0.22351781 -0.48475757 -0.14765108 -0.16503206 0.082672633 0.067115985 0.15567158 0.057476655 0.072622605 -0.057402398 0.46177778 0.11480644 -0.24341179 -0.13079555 0.20409878 0.69367635 -0.06405583 0.35350731 -0.30516544 0.39984426 -0.20491721 0.47802609 0.17784268 0.16505906 -0.20434181 0.347808 -0.14790419 0.033413291
last 0.43709648 -0.66581446 -0.44969583 0.72659594 -0.72679764 -0.086448468 0.38859969 -0.029851234 -0.090764105 -0.56193238 -0.11606281 0.25030696 0.30490512 -0.2302559 -0.033310216 0.23538588 0.16601625 0.053935852 -0.12023284 -0.051491193 -0.0011685776 0.15581399 0.58151269 -0.19208311 -0.22698042 0.31492326 -0.11934341 -0.17157631 0.085022397 0.11719105 -0.060717724 -0.24479322 0.0095925778 0.53593493 -0.45829317 0.62610382 -0.39556026 -0.45288876 -0.21119267 -0.051015146 0.20250216 -0.44307128 -0.040083572 0.48997098 -0.18422486 0.2672382 -0.15403332 -0.3402046 -0.096958727 0.056804735 -0.30300868 -0.010735155 -0.13473089 0.18620232 -0.020263162 0.1382312 -0.31512171 -0.5348739 0.30869734 -0.10423033 0.037911739 -0.17975549 -0.22611654 0.0097377701 -0.14582591 0.031631995 0.0073827789 -0.24196637 -0.67052424 -0.20585872 0.15253879 0.11989362 0.22210096 -0.50803185 -0.15486157 -0.20298851 0.10291116 0.097102582 0.1903522 0.080695383 0.063315667 -0.071109116 0.4686304 0.1040112 -0.25010216 -0.1268906 0.19173834 0.7493071 -0.085846186 0.37069908 -0.32665688 0.44581088 -0.24151702 0.48619539 0.18821327 0.20235409 -0.24474822 0.36288977 -0.14450888 0.050913036
go 0.44437397 -0.62724239 -0.41367346 0.67261082 -0.69990695 -0.08944115 0.3802304 -0.044766538 -0.088606663 -0.53965068 -0.11903638 0.25160643 0.31913528 -0.22453415 -0.055935875 0.23305011 0.17506588 0.041090097 -0.12822846 -0.018309493 -0.019864939 0.15897942 0.54037941 -0.15509959 -0.23857185 0.27848217 -0.11011982 -0.17396323 0.076241635 0.11391897 -0.11249703 -0.25081205 0.017840082 0.5644412 -0.40951553 0.62066239 -0.38041395 -0.43361524 -0.16757663 -0.048541453 0.21693146 -0.43024483 -0.0363294 0.4776178 -0.18341219 0.24676083 -0.16158025 -0.32428679 -0.11611717 0.067745566 -0.26010633 -0.012528892 -0.095854744 0.17255734 -0.041730162 0.11397904 -0.28827471 -0.49405739 0.26275739 -0.04475005 0.041876785 -0.15783373 -0.20351778 -0.0045734807 -0.14089482 0.0038018222 -0.001388251 -0.24020185 -0.63919395 -0.17081343 0.14825518 0.12250004 0.24256854 -0.49016595 -0.13856399 -0.16734804 0.079511322 0.054925591 0.16797651 0.049470596 0.079916254 -0.043690145 0.46582514 0.11598314 -0.2464831 -0.12658139 0.20834051 0.70129436 -0.075988285 0.36110923 -0.31165132 0.41103327 -0.20474692 0.47431976 0.1919367 0.15909617 -0.21432284 0.36094043 -0.15431552 0.046372779
cried 0.45531017 -0.6576007 -0.43899059 0.7404381 -0.72791225 -0.10263199 0.36707321 -0.060544498 -0.073867783 -0.5804435 -0.14160049 0.24309231 0.30610377 -0.24158126 -0.057376351 0.23398937 0.15580758 0.036722653 -0.13426876 -0.025559584 0.0054037329 0.18213195 0.58912349 -0.20321593 -0.23960072 0.28780386 -0.11390109 -0.17572016 0.079547569 0.13741614 -0.081436262 -0.2661272 0.026629286 0.54840696 -0.4460904 0.63222873 -0.3801271 -0.43686795 -0.19395694 -0.054800343 0.22859485 -0.44335592 -0.056923404 0.48560113 -0.20859236 0.28035337 -0.16950828 -0.32736313 -0.12624489 0.045591515 -0.28774479 -0.028279224 -0.1114576 0.17967176 -0.0055452157 0.13260759 -0.32955959 -0.52460712 0.32605663 -0.082420431 0.046110101 -0.17008395 -0.21867187 0.0096668499 -0.13136096 0.032486934 0.00026394075 -0.25121379 -0.68169868 -0.1926098 0.17222829 0.13791312 0.24311447 -0.46847826 -0.14061873 -0.18300593 0.064799979 0.089456439 0.18539704 0.089012302 0.067737155 -0.074676119 0.47151908 0.1011358 -0.25457752 -0.10295676 0.20751251 0.74198675 -0.09000729 0.37657648 -0.30760771 0.42035934 -0.25493392 0.46156874 0.19644098 0.19236475 -0.2377333 0.37478039 -0.15092723 0.039119683
And 0.4787735 -0.67745304 -0.45500129 0.73597944 -0.75598007 -0.082555637 0.39666027 -0.020188998 -0.11063101 -0.58178836 -0.12006851 0.27396649 0.33816785 -0.24396163 -0.069404915 0.24485096 0.17218398 0.032435238 -0.1328183 -0.018657617 -0.024693854 0.16102728 0.60086328 -0.16679543 -0.25990903 0.31554565 -0.12640181 -0.17303793 0.077864632 0.12514511 -0.10854162 -0.26523361 0.016660832 0.60161501 -0.45349881 0.66451591 -0.41246709 -0.4815228 -0.19060063 -0.058216449 0.22592643 -0.47637114 -0.03625676 0.521065 -0.20541842 0.2634137 -0.17290622 -0.35534576 -0.11591707 0.076230414 -0.30248305 0.0026374252 -0.12259731 0.19223091 -0.025274444 0.1329806 -0.30579388 -0.54567635 0.29396987 -0.055636138 0.037818477 -0.16440783 -0.22212227 0.00045463472 -0.1479432 0.018207071 -0.0057979492 -0.26063401 -0.70377839 -0.19459845 0.16893147 0.13512512 0.25175038 -0.53744894 -0.14528838 -0.18466176 0.093740091 0.077694669 0.18777674 0.062077474 0.081627816 -0.055649344 0.50373369 0.12036482 -0.26481816 -0.14288582 0.22811083 0.77451706 -0.082464911 0.3950738 -0.33923745 0.45130834 -0.23110677 0.52132887 0.19731162 0.18464576 -0.24409734 0.38568321 -0.16917817 0.044062041
nothing 0.44320047 -0.62590182 -0.44117239 0.68697965 -0.72246414 -0.07595776 0.36082384 -0.017594997 -0.10965825 -0.54378974 -0.11751944 0.25932506 0.32211447 -0.22568439 -0.06005073 0.22945225 0.15987036 0.040271915 -0.11430307 -0.0040925951 -0.032216825 0.14698336 0.55757672 -0.15800379 -0.25484315 0.28694421 -0.12168103 -0.16548541 0.07716991 0.12167324 -0.11632062 -0.25129417 0.010501398 0.56920278 -0.41502973 0.63065374 -0.38406575 -0.44275239 -0.17432533 -0.046134517 0.2133943 -0.43645316 -0.032983407 0.47395819 -0.19720879 0.24809153 -0.16803442 -0.32028574 -0.12167498 0.065848909 -0.27389199 -0.0077449423 -0.11109027 0.17690131 -0.044161718 0.11990118 -0.28556749 -0.51712382 0.27506605 -0.049576167 0.04239263 -0.16259822 -0.20154203 0.0013474636 -0.15087546 0.021331511 -0.0027119198 -0.24018879 -0.65739912 -0.18776135 0.14555572 0.11479943 0.22519875 -0.50161368 -0.13432844 -0.17379363 0.081176899 0.066251613 0.17100181 0.062016182 0.06966164 -0.047049645 0.48710039 0.10691705 -0.24966113 -0.12796544 0.204134 0.73364097 -0.06805703 0.36063218 -0.32582814 0.4064697 -0.21723571 0.48772442 0.1864399 0.17227006 -0.21757239 0.3519595 -0.16065577 0.040874049
moment 0.43715999 -0.6460287 -0.44103041 0.70037448 -0.71389222 -0.089206755 0.37850577 -0.03237208 -0.083386399 -0.55182934 -0.11250392 0.24642998 0.29437289 -0.23206216 -0.040598143 0.23356986 0.16281454 0.048919994 -0.12563579 -0.040706098 -0.0024442342 0.1528455 0.5523603 -0.19199793 -0.23005261 0.30738851 -0.11453404 -0.15298295 0.080376588 0.11458798 -0.063862957 -0.24401411 0.018342854 0.53261036 -0.44455877 0.61175364 -0.37903073 -0.44038197 -0.19834775 -0.041968871 0.20919976 -0.43648788 -0.045972571 0.48440552 -0.17095593 0.26242587 -0.15324484 -0.32083514 -0.093135163 0.053323932 -0.28227919 -0.016169231 -0.13019548 0.17631349 -0.0089405803 0.13241333 -0.30839846 -0.51650405 0.30105296 -0.089148283 0.036005359 -0.16688697 -0.21541893 0.0096333884 -0.1312743 0.023926834 -0.0040668156 -0.24004295 -0.65825188 -0.19322522 0.15818191 0.10767729 0.2165733 -0.48922655 -0.14783077 -0.19985944 0.096937798 0.092069976 0.18790984 0.087118894 0.063810103 -0.067227356 0.46685058 0.10417869 -0.24903031 -0.12493932 0.19246924 0.72538906 -0.084459774 0.36156058 -0.31760406 0.42479905 -0.24193226 0.48717311 0.189794 0.18031853 -0.23803507 0.35503912 -0.14663993 0.047085553
even 0.46839285 -0.67619878 -0.46077877 0.73026866 -0.75332105 -0.077361144 0.3941595 -0.029958054 -0.099665977 -0.571338 -0.12603483 0.25627849 0.3160522 -0.2421622 -0.045004535 0.24762112 0.16344543 0.034441531 -0.12739465 -0.032950111 -0.0030681575 0.15537991 0.5795424 -0.17867732 -0.25163057 0.31232503 -0.11488894 -0.16052085 0.077609807 0.12942888 -0.089979447 -0.2576741 0.014832337 0.57660788 -0.44834286 0.65075433 -0.40408155 -0.46362042 -0.19763055 -0.04413449 0.22667642 -0.46360862 -0.041702151 0.50586313 -0.19745645 0.2701554 -0.15988557 -0.34278905 -0.11160098 0.06736999 -0.30132663 -0.0029008405 -0.12880105 0.19427285 -0.011783695 0.13193403 -0.31915036 -0.54201949 0.3118597 -0.074606478 0.045163333 -0.17523052 -0.21916334 0.0087090973 -0.144923 0.027864985 -0.0044139163 -0.25254819 -0.67974669 -0.19936109 0.16036326 0.11742173 0.2359051 -0.52169907 -0.15173565 -0.2003324 0.092618704 0.091005668 0.19273417 0.080021262 0.074657947 -0.057165727 0.49533841 0.11983678 -0.25808141 -0.13773298 0.206266 0.7605558 -0.083701923 0.37956938 -0.33004472 0.44652489 -0.23156072 0.50272691 0.18690673 0.18799053 -0.24743086 0.36663288 -0.16118748 0.042413712
never 0.44752246 -0.63568556 -0.42679521 0.67138708 -0.70337147 -0.072683617 0.36664715 -0.021661459 -0.11172241 -0.53456384 -0.11333461 0.24875294 0.3090317 -0.22627579 -0.067816429 0.23657361 0.1557354 0.032938085 -0.11411143 -0.013111817 -0.028249079 0.13778076 0.55278808 -0.13706724 -0.24079825 0.28773245 -0.13102913 -0.17082548 0.071933031 0.11232958 -0.11764057 -0.24157202 0.0075339051 0.55309558 -0.40968117 0.62266439 -0.37321064 -0.44920763 -0.17976344 -0.040630054 0.20373116 -0.43200961 -0.039439488 0.4776257 -0.18816923 0.24307023 -0.1670479 -0.32622075 -0.10554506 0.069620132 -0.27660888 -0.0035897754 -0.11185892 0.19064385 -0.038369965 0.11507396 -0.28107077 -0.50174296 0.25943461 -0.048806686 0.041535921 -0.15552466 -0.19909494 -0.0066928817 -0.13726205 0.0078128194 -0.0096586244 -0.23272583 -0.64700711 -0.19124168 0.15337498 0.11907966 0.22908473 -0.49984506 -0.14558795 -0.1782361 0.097364321 0.068879619 0.16465636 0.055973873 0.084214896 -0.042327784 0.48058432 0.10992675 -0.24536286 -0.1378068 0.20944534 0.70762753 -0.074917175 0.35619894 -0.31393969 0.40843639 -0.19799295 0.47641703 0.17810293 0.17152926 -0.20678148 0.35697129 -0.15664512 0.03934703
course 0.471883 -0.66542083 -0.41140565 0.72224808 -0.73138636 -0.1005863 0.35831907 -0.0063636657 -0.16299416 -0.49631062 -0.095388822 0.31514642 0.36177817 -0.26115692 -0.10573017 0.25300613 0.13291393 0.02852859 -0.12812859 0.041379914 -0.087905638 0.14554021 0.59522647 -0.16394484 -0.23008361 0.27552524 -0.10298526 -0.19946387 0.062669434 0.14096573 -0.15903033 -0.25289109 -0.030702353 0.56064528 -0.43438506 0.62668002 -0.37460011 -0.48120749 -0.1931465 0.0060449913 0.23355457 -0.4485386 -0.039498441 0.54249835 -0.23919807 0.26373017 -0.17503826 -0.37386879 -0.12237667 0.10340223 -0.27763778 0.0394825 -0.09096735 0.23135078 -0.081479423 0.14818498 -0.23730861 -0.51142114 0.25377771 -0.050571352 0.012129907 -0.14317317 -0.24249983 -0.01943483 -0.14876851 -0.012645883 -0.042955503 -0.28433856 -0.72223818 -0.20669861 0.17554553 0.10501646 0.19721919 -0.5024175 -0.12766221 -0.17087825 0.14582317 0.089879401 0.12820408 0.026117763 0.11953619 -0.039975088 0.45831326 0.12799983 -0.28450766 -0.16580559 0.20740898 0.78398675 -0.11932622 0.37950388 -0.3105821 0.46467334 -0.21333519 0.50706989 0.20014061 0.21053724 -0.20817953 0.35537329 -0.19022025 0.033259194
house 0.45875514 -0.66078144 -0.44620305 0.72398043 -0.73162878 -0.094787136 0.39381087 -0.043011576 -0.085209765 -0.56240851 -0.11827321 0.24922012 0.30066013 -0.23646456 -0.03889275 0.24368347 0.17231111 0.04311049 -0.14170218 -0.045918733 0.0038758437 0.15405895 0.57479531 -0.19865845 -0.23800109 0.31632489 -0.10826498 -0.15931948 0.073221676 0.1169298 -0.072809987 -0.24493301 0.017676538 0.55328035 -0.44423464 0.63212681 -0.38355944 -0.44428143 -0.2087405 -0.047960229 0.21819392 -0.44601774 -0.042559326 0.4915342 -0.18479219 0.26212054 -0.17071693 -0.34106204 -0.096061289 0.053831771 -0.29286805 -0.009112251 -0.12861027 0.17669484 -0.0133436 0.13171613 -0.32080412 -0.53735727 0.31476378 -0.096224248 0.04256539 -0.18033186 -0.22820286 0.017480064 -0.14061883 0.018745452 -0.003416671 -0.24227236 -0.67231208 -0.18860942 0.17474118 0.11295705 0.23422295 -0.50774813 -0.14967652 -0.20636034 0.10068205 0.094069935 0.19046429 0.080631144 0.078205243 -0.071562752 0.46996227 0.11374207 -0.26247537 -0.12501703 0.19721538 0.74947 -0.087616891 0.36773553 -0.3220388 0.42762718 -0.24125995 0.48705328 0.18576711 0.19112477 -0.2525036 0.36976168 -0.16071959 0.048142102
shall 0.44178244 -0.59464335 -0.39749444 0.65874869 -0.6909318 -0.072981037 0.37750062 -0.020871406 -0.13589473 -0.5129804 -0.12642796 0.24102998 0.35726744 -0.20937826 -0.082125895 0.23720191 0.1590777 0.018539898 -0.10646724 0.028757159 -0.038134139 0.15307981 0.5391376 -0.11866212 -0.26798573 0.26618227 -0.13946466 -0.18511182 0.094622925 0.10152206 -0.17289272 -0.23981757 0.016395532 0.59984303 -0.36534807 0.63569766 -0.3785961 -0.44962186 -0.14191779 -0.069683835 0.21684 -0.43952301 -0.01136871 0.47595131 -0.18419665 0.22545318 -0.1831114 -0.32129237 -0.13520923 0.095098108 -0.25304171 -0.003266742 -0.089580156 0.1831992 -0.08313264 0.1073564 -0.25738549 -0.46434274 0.22174759 -0.00050293095 0.045682672 -0.15317751 -0.18178456 -0.027107848 -0.15185478 -0.0018938419 -0.014345016 -0.2240964 -0.6157046 -0.18023027 0.1299821 0.15013042 0.2565603 -0.50140184 -0.1391366 -0.14753081 0.076206304 0.023165982 0.13596615 -0.012068116 0.082317203 -0.017800437 0.49347535 0.12607077 -0.25228241 -0.14107397 0.20269026 0.6878857 -0.045900609 0.36882991 -0.30268297 0.38411415 -0.17447872 0.48612556 0.18532684 0.16199225 -0.17337988 0.37935928 -0.16024506 0.035094842
good 0.47942472 -0.68905169 -0.46795595 0.74609411 -0.77038032 -0.087148815 0.41012377 -0.016657256 -0.10935166 -0.58085424 -0.12510501 0.27470905 0.34313527 -0.23791718 -0.070177779 0.26171437 0.16681825 0.041560326 -0.13477448 -0.024821866 -0.01424042 0.14797941 0.60034257 -0.17733982 -0.26390207 0.31015041 -0.12868237 -0.17656219 0.068747714 0.11574548 -0.10004803 -0.26386279 0.015637694 0.60248649 -0.45496199 0.66529733 -0.40632471 -0.47501254 -0.20077893 -0.055772219 0.2164598 -0.47302324 -0.043041863 0.52743125 -0.21203981 0.26378602 -0.16607758 -0.35237351 -0.11643805 0.07558392 -0.29571486 -0.010066706 -0.13381959 0.19351985 -0.01796056 0.13665558 -0.31785989 -0.5395658 0.29807699 -0.065002799 0.04843713 -0.16019996 -0.22747676 0.00027544051 -0.14645071 0.01718436 0.0072208885 -0.25607938 -0.69393557 -0.20797874 0.17421876 0.12710688 0.25202265 -0.53205484 -0.15655006 -0.18987662 0.099272989 0.079458825 0.19406295 0.060715716 0.073065437 -0.044243727 0.50578058 0.11480343 -0.2700651 -0.14799824 0.22353847 0.77269673 -0.087522566 0.38095835 -0.34202173 0.44362921 -0.23637712 0.51317132 0.19785935 0.17865407 -0.23226596 0.38358229 -0.1759498 0.042628627
old 0.46471119 -0.702088 -0.47131538 0.72278988 -0.76279539 -0.086313277 0.39240637 -0.017793521 -0.085740469 -0.58589476 -0.099322245 0.26295385 0.30248696 -0.24198432 -0.030272381 0.25861144 0.1794586 0.059329852 -0.12882546 -0.048216671 -0.015384378 0.12921783 0.58932948 -0.18390574 -0.22738096 0.3159638 -0.10993458 -0.17817481 0.071534283 0.11658677 -0.067196637 -0.25110197 0.00034724103 0.55228162 -0.46541724 0.63202864 -0.40114605 -0.45511058 -0.22678743 -0.064930595 0.20527782 -0.47565138 -0.0672305 0.5092532 -0.18276291 0.26685625 -0.16709058 -0.34923097 -0.10748041 0.056089513 -0.31209019 0.0076889112 -0.13611133 0.20292032 0.017135397 0.11772832 -0.3225598 -0.54323298 0.33602807 -0.091509521 0.029396769 -0.15670095 -0.23629628 0.021690205 -0.13548245 0.031095723 0.0085708322 -0.24742001 -0.6812371 -0.19797589 0.17524523 0.11925726 0.23972119 -0.53769726 -0.1425961 -0.19921683 0.11688036 0.093121588 0.21399063 0.08919315 0.073126622 -0.073662825 0.47829354 0.11332169 -0.26821125 -0.13244365 0.21732438 0.76016074 -0.086351462 0.39065826 -0.32958591 0.46737862 -0.25359282 0.48827884 0.19128227 0.19839519 -0.25343296 0.36823347 -0.16812953 0.053399555
came 0.45923755 -0.66521728 -0.44427896 0.72219604 -0.72227293 -0.091002747 0.38700527 -0.041347302 -0.076814234 -0.56403166 -0.12007798 0.24971177 0.30010194 -0.24145374 -0.03638979 0.23946023 0.17837472 0.050987467 -0.132318 -0.044204794 -0.0063177627 0.15031728 0.57149726 -0.19543774 -0.23718664 0.29808632 -0.10696169 -0.16337287 0.071577914 0.11827946 -0.07374914 -0.2525197 0.0090082204 0.54482388 -0.43851092 0.61821604 -0.38263318 -0.44016352 -0.206747 -0.056123793 0.22204569 -0.44985986 -0.043312561 0.48801956 -0.17372161 0.26215097 -0.15709396 -0.33975777 -0.10134669 0.046356335 -0.27948883 -0.0019191928 -0.12966859 0.17493413 -0.0085343905 0.12936421 -0.31465432 -0.52226347 0.31030527 -0.096334316 0.041936569 -0.16420341 -0.2179534 0.013349937 -0.13344377 0.024807276 0.0032923599 -0.24274936 -0.66811854 -0.18875921 0.17228194 0.10403512 0.23019165 -0.50747025 -0.14046958 -0.19023822 0.10131204 0.090410255 0.18412602 0.089846402 0.071070485 -0.066808805 0.46705765 0.10793763 -0.25627705 -0.11572388 0.2078466 0.73779076 -0.087079741 0.36889455 -0.32182887 0.43777615 -0.23333316 0.49223387 0.19073738 0.179088 -0.24670964 0.36027533 -0.14972977 0.054353006
face 0.45626467 -0.66726983 -0.45871931 0.73280919 -0.74103791 -0.083116569 0.39198393 -0.039605021 -0.082704112 -0.56575686 -0.11415873 0.24497904 0.3000381 -0.2513653 -0.032311108 0.25427023 0.17835592 0.050577585 -0.14148918 -0.040841002 0.0048797945 0.15918352 0.5802564 -0.19586809 -0.23930745 0.30834782 -0.10751861 -0.1662719 0.072389908 0.13532434 -0.073662035 -0.25649425 0.0078015621 0.5476256 -0.46179625 0.63320076 -0.38773051 -0.44061878 -0.22339076 -0.039551869 0.22217265 -0.46742657 -0.045788284 0.50320834 -0.19027762 0.27765465 -0.16353825 -0.33936855 -0.092560992 0.046710774 -0.29463339 -0.015599431 -0.13092422 0.18496375 0.0057891929 0.13042144 -0.3301914 -0.54062676 0.32745528 -0.097092271 0.042051107 -0.17561294 -0.22564813 0.021771342 -0.13794856 0.027644355 -0.00032738649 -0.24383684 -0.67520475 -0.1997876 0.17917006 0.099265009 0.23411331 -0.51482964 -0.1510925 -0.20721073 0.098842263 0.11059082 0.20110054 0.089821905 0.075376645 -0.076312453 0.47886452 0.10614023 -0.25196207 -0.12413464 0.20070909 0.74667645 -0.098021351 0.3680051 -0.31869757 0.45144287 -0.24624999 0.49785355 0.18869011 0.18250883 -0.25773758 0.36971876 -0.16769265 0.051020432
well 0.43828738 -0.61614656 -0.41359797 0.67356712 -0.68883276 -0.072458401 0.35465926 -0.024864106 -0.091147386 -0.51697236 -0.12705718 0.24975948 0.31088287 -0.22110419 -0.049719408 0.21982051 0.14766839 0.029093448 -0.11526774 -0.013061862 -0.0092982119 0.15002552 0.53911537 -0.15329701 -0.23762383 0.27973127 -0.11263508 -0.15512843 0.068324484 0.11082073 -0.10051636 -0.24322613 0.016822051 0.54610109 -0.41240644 0.60200769 -0.37017435 -0.4261151 -0.1757959 -0.048153345 0.19804035 -0.42095685 -0.028626576 0.47031397 -0.17738344 0.24095704 -0.15961491 -0.308238 -0.10804252 0.057008542 -0.27810204 -0.0040455568 -0.11457649 0.18258643 -0.021075163 0.12669377 -0.2780354 -0.49758729 0.26045084 -0.059756115 0.04488514 -0.15671474 -0.19685799 0.009600346 -0.13136585 0.025389709 -0.010039465 -0.23143038 -0.62008029 -0.18828963 0.14506507 0.11533135 0.22495459 -0.47262534 -0.13834903 -0.17966712 0.076887704 0.074466847 0.17406113 0.050962571 0.07446865 -0.047385149 0.45854318 0.10912549 -0.23062806 -0.13358021 0.18931837 0.69534099 -0.078570336 0.35999167 -0.3096329 0.40557364 -0.20476982 0.47191039 0.17588259 0.16335705 -0.20708248 0.34649459 -0.15500478 0.034740716
Why 0.44895974 -0.6380291 -0.43856901 0.70411944 -0.72461587 -0.085816808 0.38177082 -0.028402679 -0.10714898 -0.5573023 -0.11605003 0.25254378 0.32133058 -0.23269227 -0.061383873 0.24054497 0.15546198 0.043709423 -0.12341364 -0.024365051 -0.017332938 0.1538226 0.5709216 -0.16104642 -0.25412816 0.30512241 -0.12919955 -0.17015064 0.075942323 0.12402479 -0.095019609 -0.24289103 0.023721503 0.56404513 -0.4333373 0.6281957 -0.3811321 -0.44935244 -0.19218852 -0.056658469 0.22257428 -0.44344461 -0.04141603 0.48364675 -0.19529898 0.25065878 -0.17224444 -0.33040467 -0.10863552 0.063537911 -0.28328151 -0.011216205 -0.11621133 0.18353897 -0.03601566 0.12244383 -0.29360917 -0.5110544 0.28900707 -0.057761956 0.033618826 -0.16850686 -0.2163717 0.0012761073 -0.13805398 0.01008609 -0.010407979 -0.24177419 -0.65899628 -0.19397481 0.15667596 0.12873659 0.22714552 -0.50123376 -0.13684459 -0.18121381 0.081573337 0.077480361 0.17602445 0.06656605 0.063836992 -0.047693823 0.48315239 0.10915735 -0.25294498 -0.13694282 0.21053642 0.73783904 -0.078411661 0.37125045 -0.31062087 0.41101319 -0.22043297 0.4745611 0.18238014 0.17309636 -0.22147623 0.36878327 -0.16037445 0.038766265
upon 0.47322783 -0.70175862 -0.4703137 0.74472815 -0.77455842 -0.084672421 0.41300911 -0.02812745 -0.087881453 -0.59210545 -0.12092983 0.26693687 0.30827767 -0.24643299 -0.046647213 0.25927222 0.17715517 0.055314679 -0.14705685 -0.042933792 0.0017027082 0.15426724 0.59106708 -0.19830333 -0.23744301 0.31820995 -0.11715478 -0.16367476 0.074675024 0.1323207 -0.065727532 -0.25980774 0.0046228012 0.56179869 -0.47571447 0.64715832 -0.40571231 -0.4552525 -0.21647768 -0.043946236 0.22334565 -0.47818312 -0.048960645 0.51875246 -0.18704906 0.27661073 -0.16790195 -0.35793814 -0.095334947 0.054548692 -0.30312896 -0.0090374295 -0.13752982 0.19249599 0.0083384449 0.12853058 -0.32847929 -0.56348521 0.33606094 -0.10509256 0.037157301 -0.17999947 -0.22616976 0.030311879 -0.13867526 0.029990157 -0.0029618584 -0.26144555 -0.69926214 -0.20816238 0.17848691 0.10177065 0.23716748 -0.52604938 -0.15293753 -0.20672302 0.10878468 0.10492718 0.19820267 0.098524317 0.081116453 -0.07840284 0.49595129 0.11091097 -0.2683886 -0.1324075 0.21603112 0.77990329 -0.10081574 0.38591349 -0.33409613 0.45452458 -0.25242504 0.50967211 0.20133325 0.19316106 -0.26253152 0.37773296 -0.16863771 0.055674378
may 0.47246793 -0.67450953 -0.44936681 0.73251206 -0.7605927 -0.077760801 0.40207651 -0.023538716 -0.11202239 -0.57542843 -0.12240232 0.26564318 0.34479275 -0.24527742 -0.075821266 0.24631903 0.17018551 0.038292021 -0.12468611 -0.011593197 -0.024628986 0.14948533 0.58563715 -0.15917572 -0.26489767 0.30814528 -0.12400033 -0.17561173 0.085526444 0.11437693 -0.12100147 -0.26661599 0.0071384283 0.6036194 -0.445131 0.65799719 -0.40530181 -0.47239831 -0.18591173 -0.051886816 0.22219177 -0.47738612 -0.031912841 0.5155099 -0.21044958 0.25322857 -0.18139559 -0.35002115 -0.12145273 0.071325339 -0.28886274 -0.0051253801 -0.12191587 0.20141333 -0.029024083 0.13127527 -0.30546179 -0.53337389 0.28054702 -0.050869014 0.046148151 -0.16911234 -0.20962624 0.0048702308 -0.16125375 0.019883988 0.0006691186 -0.24758281 -0.68367201 -0.20502152 0.16498852 0.13801445 0.2466107 -0.52600551 -0.1464676 -0.19346614 0.099918619 0.062640384 0.17410074 0.049513914 0.08242131 -0.042377006 0.50645185 0.11346968 -0.26447105 -0.15055317 0.21994831 0.7727499 -0.085838996 0.38007221 -0.33895323 0.44503278 -0.21631478 0.52195907 0.20055196 0.17690293 -0.22803748 0.3869676 -0.17685431 0.043846525
away 0.46668833 -0.66051871 -0.44172466 0.71740073 -0.74429464 -0.094489388 0.40530577 -0.046889365 -0.094552621 -0.56764311 -0.10940314 0.25779459 0.31942141 -0.23587491 -0.057429332 0.25442782 0.17495809 0.048969392 -0.12682004 -0.040610522 -0.013592066 0.15532994 0.57482302 -0.18304773 -0.24069795 0.30569959 -0.1174317 -0.17295618 0.08179418 0.12868099 -0.095725521 -0.24436679 0.0057393545 0.57827967 -0.44636175 0.64988065 -0.39362496 -0.45116797 -0.19266109 -0.054482397 0.20931625 -0.46092501 -0.052464169 0.498862 -0.19007029 0.25556922 -0.16462472 -0.34039417 -0.10827201 0.061666854 -0.29300269 -0.011551719 -0.11357467 0.19276772 -0.025492242 0.13456129 -0.31281808 -0.53819537 0.31057942 -0.076726347 0.036696099 -0.17083271 -0.23493907 0.011192796 -0.14763279 0.016241306 0.0054780929 -0.24650979 -0.68008697 -0.19486852 0.17136008 0.10732493 0.23225871 -0.5248428 -0.13781497 -0.19138876 0.10365043 0.091099389 0.19025575 0.061335742 0.088905424 -0.051348668 0.48253429 0.12501127 -0.25542843 -0.13732514 0.20749269 0.74016935 -0.088235453 0.38297892 -0.32965115 0.4264524 -0.22096595 0.49797505 0.18537889 0.18046664 -0.24216802 0.38186991 -0.15726332 0.043901984
day 0.42353204 -0.62495542 -0.41010216 0.67047924 -0.68456435 -0.081325039 0.37234381 -0.012076543 -0.091342464 -0.54208869 -0.097639889 0.23675381 0.28445038 -0.2235726 -0.035776403 0.23465455 0.16796669 0.042286724 -0.1308547 -0.050072223 0.0026673712 0.13422185 0.52713829 -0.17718783 -0.21150281 0.27930614 -0.10575567 -0.15827571 0.069589056 0.1022381 -0.078259282 -0.24058688 0.01278653 0.51483715 -0.41359606 0.60170519 -0.37352988 -0.41869849 -0.19454762 -0.037257574 0.21226092 -0.42298445 -0.042390622 0.46586293 -0.17179386 0.25230816 -0.14721784 -0.32662523 -0.084568374 0.046243779 -0.26547828 0.00057310652 -0.11921117 0.18386358 0.0020168049 0.12294355 -0.30072084 -0.49827537 0.28051847 -0.069544092 0.035185207 -0.14938894 -0.1926149 0.023210945 -0.13066314 0.022705575 0.011904584 -0.22812501 -0.63721716 -0.17474927 0.15969366 0.092956446 0.21129961 -0.4870961 -0.14400704 -0.17811041 0.11051767 0.085499056 0.18161203 0.072175294 0.069102235 -0.044231225 0.45694569 0.11048326 -0.23658769 -0.11397243 0.19411275 0.70536214 -0.068578452 0.35496855 -0.3123737 0.42038551 -0.20384872 0.46650931 0.18131416 0.17143309 -0.22616009 0.34895968 -0.14658551 0.047793392
first 0.45141891 -0.65566212 -0.44565254 0.71899068 -0.72560728 -0.072718345 0.40076286 -0.021896478 -0.089746028 -0.54949462 -0.1150347 0.25570166 0.29607639 -0.22970307 -0.03251097 0.23860934 0.1723395 0.050560087 -0.11605816 -0.046848748 0.0053228717 0.14426893 0.57493061 -0.19058381 -0.22987804 0.32339817 -0.11031993 -0.15743767 0.070319735 0.10949749 -0.057255227 -0.24836789 0.014647888 0.54071486 -0.45735058 0.62140691 -0.38097948 -0.44795075 -0.2044102 -0.043813214 0.20050389 -0.45675832 -0.040290195 0.49489114 -0.16815528 0.2677246 -0.15097684 -0.33804893 -0.089250624 0.047676209 -0.2951912 0.00038744669 -0.13733573 0.18628177 -0.0089419158 0.1204614 -0.31238076 -0.52225929 0.30542946 -0.10921484 0.038856402 -0.17612767 -0.22088522 0.022886375 -0.13461906 0.029939769 0.0033058492 -0.24705552 -0.66482764 -0.19757934 0.15645662 0.11274804 0.22057573 -0.50674444 -0.13880464 -0.21133879 0.11045261 0.098836698 0.19967175 0.09246619 0.060095001 -0.074099474 0.47439259 0.11358752 -0.25001401 -0.13113853 0.19764329 0.73321038 -0.081170253 0.37808433 -0.33016148 0.44385138 -0.24404235 0.49198756 0.18370813 0.18459329 -0.24052088 0.35488033 -0.14766376 0.057869356
eyes 0.49770749 -0.72791857 -0.49049106 0.78428233 -0.81040609 -0.080912858 0.43156904 -0.040190954 -0.099726334 -0.6080479 -0.11903997 0.27107587 0.3219102 -0.26880106 -0.046888195 0.2737211 0.19315849 0.055533789 -0.14261861 -0.049626704 0.0015998267 0.16093446 0.61549878 -0.21826385 -0.25546104 0.34268987 -0.11806601 -0.17055251 0.081385747 0.14310831 -0.072458699 -0.26795241 0.010478161 0.59207302 -0.50255108 0.68504661 -0.42538375 -0.48327821 -0.23100062 -0.046661705 0.23634323 -0.50270766 -0.051581286 0.54610747 -0.20629796 0.29642206 -0.18217675 -0.3707805 -0.10990648 0.059195392 -0.32526135 -0.01829846 -0.13885836 0.19745591 0.008388076 0.14903113 -0.35644639 -0.58098167 0.34365606 -0.098283418 0.034206435 -0.18372799 -0.24606752 0.020412736 -0.14966688 0.022182751 -0.00042348579 -0.26984727 -0.73244989 -0.21641338 0.18628909 0.1056471 0.24341415 -0.56390446 -0.15719147 -0.2165551 0.11457285 0.11649533 0.20307133 0.1015694 0.080040984 -0.075253144 0.5231514 0.12191147 -0.28048956 -0.13262275 0.22152217 0.80604035 -0.096971966 0.41268796 -0.34432605 0.47049904 -0.26917642 0.53293574 0.20297319 0.1988769 -0.27112943 0.39953902 -0.17421435 0.052499924
asked 0.44408867 -0.62557185 -0.42812073 0.71421111 -0.71320593 -0.088112496 0.36888102 -0.048990615 -0.075698532 -0.55259871 -0.13400285 0.23757696 0.29335412 -0.23319073 -0.03981515 0.23795408 0.16984858 0.040453739 -0.13478738 -0.031854678 -0.0022229536 0.16996726 0.56469297 -0.19707841 -0.2385295 0.29485947 -0.12401648 -0.1694199 0.083023548 0.12895977 -0.06749557 -0.24601154 0.029522769 0.5218249 -0.43299553 0.60850412 -0.36326575 -0.42796037 -0.18840742 -0.046981405 0.22473463 -0.42882213 -0.051741343 0.47136903 -0.1886431 0.27973774 -0.17600682 -0.31908008 -0.11297477 0.046594575 -0.29189026 -0.022604216 -0.12051646 0.16727491 -0.005391873 0.12787756 -0.30776557 -0.50452667 0.30537587 -0.07314267 0.037537057 -0.16864057 -0.2128308 0.0028590858 -0.1401328 0.030690392 -0.014908261 -0.22360159 -0.67232305 -0.19636925 0.16366939 0.13089427 0.21721528 -0.47281712 -0.12949997 -0.19382231 0.059522748 0.087616272 0.17114711 0.083231382 0.059183311 -0.066782348 0.46221477 0.108073 -0.25177929 -0.10196906 0.19368729 0.72572076 -0.085498519 0.36373955 -0.29693469 0.41352645 -0.25011888 0.45900667 0.18300396 0.18778574 -0.23981211 0.36389011 -0.15296161 0.050117966
something 0.46226701 -0.67044824 -0.4536429 0.72332668 -0.75238889 -0.079039462 0.39742085 -0.025639823 -0.10959984 -0.57132727 -0.12553388 0.26359582 0.32139423 -0.24290659 -0.056986004 0.24294579 0.17018537 0.049535476 -0.12969573 -0.030475348 -0.016052356 0.15468369 0.56818789 -0.17647611 -0.25209433 0.30592981 -0.12526199 -0.17092992 0.07560046 0.12866826 -0.088163227 -0.25687075 0.0069532106 0.57146025 -0.45416266 0.64647627 -0.39295751 -0.46370688 -0.19941728 -0.042101782 0.21374942 -0.46780968 -0.039238963 0.49908149 -0.19349737 0.26010928 -0.16220666 -0.33498332 -0.11329535 0.065971628 -0.28683189 -0.0059743943 -0.13363172 0.18685718 -0.020751359 0.12084046 -0.30012619 -0.53164899 0.30262187 -0.062091224 0.03417014 -0.163663 -0.21177968 0.0098956106 -0.15144271 0.025878062 -0.0024241386 -0.24172544 -0.67646039 -0.1953111 0.15551175 0.11691473 0.23927146 -0.50904077 -0.13659115 -0.19139564 0.095036343 0.086175591 0.18682812 0.063158631 0.075746804 -0.059365649 0.49258915 0.11367542 -0.25577885 -0.13435595 0.20892492 0.75819522 -0.088434517 0.38081598 -0.32842293 0.43571788 -0.23063794 0.50294715 0.19454238 0.18146229 -0.23683396 0.3645269 -0.15920933 0.037858814
Philipovna 0.46523902 -0.52164859 -0.56945521 0.81232667 -0.66034603 -0.19449617 0.30889124 -0.19364537 0.04546487 -0.67491537 -0.2203877 0.31341663 0.24821807 -0.2662887 0.090581238 0.17644839 0.072489195 -0.055665903 -0.144796 -0.079639703 0.12446115 0.27379408 0.61258048 -0.31881306 -0.20211963 0.29602131 -0.021191413 -0.034825526 0.078549743 0.13761106 0.041891847 -0.27926272 0.15391782 0.45823485 -0.34344071 0.59572262 -0.46962816 -0.29598019 -0.11741578 -2.204884e-05 0.43110713 -0.43605751 0.00093844847 0.5403868 -0.17219792 0.40374336 -0.083226785 -0.26123133 -0.16233049 -0.025453482 -0.31791368 0.0093766162 -0.21315297 0.10853174 -0.058219276 0.055791799 -0.4674297 -0.60452497 0.4342694 -0.18644178 0.14262849 -0.28005004 -0.083257355 -0.048813265 -0.10394681 0.16509396 -0.18098938 -0.36879882 -0.63419664 -0.11915026 0.17051215 0.10287685 0.24593931 -0.34930277 -0.19761966 -0.19824865 -0.0022798327 0.16026483 0.18745802 0.199274 0.13215332 -0.075245522 0.4567329 0.15066773 -0.23077618 -0.076300472 0.080711827 0.72615844 0.060820799 0.49789628 -0.25358051 0.32202616 -0.37237513 0.35007527 0.24414124 0.20809457 -0.34907416 0.36503205 -0.12650695 -0.0091159083
without 0.4843131 -0.72446775 -0.4842959 0.77515435 -0.79915804 -0.087224595 0.42393878 -0.028700206 -0.090894058 -0.61064261 -0.12161601 0.26839781 0.33276364 -0.25300142 -0.048020132 0.26076174 0.17989965 0.051505502 -0.14101046 -0.051114179 -0.0045244545 0.15672073 0.61752969 -0.20146196 -0.25472379 0.32910174 -0.12201961 -0.18537243 0.084690064 0.13160764 -0.08078406 -0.27444103 0.0056881569 0.59583199 -0.4949455 0.68310732 -0.41209343 -0.47890571 -0.21967003 -0.051519722 0.22575808 -0.50110984 -0.048921246 0.54119742 -0.19481693 0.28156501 -0.17402469 -0.37417462 -0.10385734 0.065199547 -0.31620544 -0.005628421 -0.13458058 0.21133238 -0.01542653 0.14598997 -0.33565134 -0.57908183 0.32852665 -0.088754147 0.034792349 -0.18393168 -0.23689118 0.018555401 -0.1540949 0.014365952 -0.00091335474 -0.26456559 -0.72335202 -0.21300332 0.17136723 0.12161016 0.24686308 -0.554187 -0.15916245 -0.21702057 0.10124233 0.10602736 0.20584203 0.086322911 0.081782937 -0.069715351 0.51564348 0.1214681 -0.28141794 -0.14295913 0.21933606 0.80775386 -0.10463589 0.40340689 -0.36143219 0.47333062 -0.24495389 0.52997309 0.19878376 0.19884264 -0.25523543 0.39394414 -0.17469525 0.049218994
Well 0.4608418 -0.65479594 -0.43248621 0.70333546 -0.72845739 -0.075025275 0.3898077 -0.032975331 -0.10753252 -0.55787772 -0.11541335 0.25025603 0.33032376 -0.22847766 -0.055977691 0.24000175 0.16139737 0.04378828 -0.12502643 -0.018159937 -0.025019191 0.14797559 0.56666571 -0.16283655 -0.24547669 0.29625493 -0.1205723 -0.16774833 0.077231616 0.12713027 -0.1110103 -0.25008315 0.014105151 0.56764781 -0.42873898 0.63942945 -0.39074335 -0.45323458 -0.18884951 -0.062304951 0.221545 -0.45696047 -0.035755966 0.48563734 -0.19721088 0.25465018 -0.17159176 -0.32935366 -0.12013921 0.071704619 -0.28664601 -0.00036421837 -0.11401875 0.18621039 -0.031993713 0.11593183 -0.30394751 -0.5186612 0.28303814 -0.051312827 0.036817264 -0.15814194 -0.2172696 0.01114055 -0.15268272 0.020050419 0.00063723064 -0.24542779 -0.6676594 -0.19058895 0.16028057 0.12149761 0.24043186 -0.50396585 -0.14551684 -0.18136963 0.090977505 0.070548713 0.16976044 0.058002423 0.071982838 -0.045741253 0.48821718 0.11690512 -0.2565926 -0.12885591 0.21388952 0.73777241 -0.077496462 0.37707064 -0.32671472 0.42032623 -0.21387027 0.49359393 0.18304826 0.17796643 -0.22036305 0.37238264 -0.16148736 0.041820429
seemed 0.48402554 -0.71728802 -0.47689047 0.77017015 -0.78836614 -0.091392472 0.41584536 -0.033179119 -0.092017874 -0.60784942 -0.12925464 0.27364132 0.31744045 -0.25501367 -0.037042826 0.2564432 0.18421721 0.055704869 -0.15280297 -0.053561915 -0.0021453397 0.16166729 0.60675842 -0.21784672 -0.25258482 0.33659345 -0.1180456 -0.17288727 0.074960642 0.1331494 -0.069424734 -0.26948467 0.0072210361 0.56974888 -0.48863053 0.66746366 -0.40923664 -0.46525028 -0.23212895 -0.04997921 0.22811495 -0.48255375 -0.056668457 0.5300256 -0.19118845 0.29548946 -0.16618305 -0.36440644 -0.10170487 0.060813222 -0.32006225 -0.0060697873 -0.13782534 0.19911189 0.009378979 0.13882589 -0.34935308 -0.57346767 0.34191397 -0.10684734 0.034876157 -0.18315378 -0.23473175 0.024116222 -0.14950374 0.025120305 -0.0082728537 -0.26758939 -0.72248876 -0.21164113 0.18463054 0.11379255 0.23690847 -0.54401326 -0.1497165 -0.217346 0.11113545 0.11103037 0.21059945 0.096049003 0.081356794 -0.07098639 0.50147569 0.11896991 -0.26408264 -0.1296609 0.22022417 0.79881305 -0.096358143 0.39252844 -0.34801835 0.46669415 -0.25493789 0.52008456 0.20481312 0.20341511 -0.26516902 0.38345018 -0.1625448 0.051045384
tell 0.40486583 -0.57397842 -0.39094618 0.63018185 -0.65091562 -0.074249543 0.3475239 -0.016001141 -0.10327796 -0.48849043 -0.11222602 0.22636878 0.30225843 -0.20917268 -0.055713847 0.21720015 0.15644129 0.025327379 -0.10529823 -0.0086127901 -0.028757965 0.13868773 0.5055716 -0.13711946 -0.23213598 0.26643863 -0.11420199 -0.15882754 0.08101245 0.10829806 -0.11583655 -0.21858747 0.015543509 0.51360554 -0.36877808 0.57298058 -0.35682854 -0.41272989 -0.15650715 -0.048975926 0.20016202 -0.40054551 -0.032521356 0.44762146 -0.16992655 0.22237839 -0.15305899 -0.30030441 -0.11885062 0.071397193 -0.25300261 0.0030704211 -0.10248524 0.17645098 -0.031268455 0.1107085 -0.26249775 -0.45046413 0.24928881 -0.036655288 0.034926984 -0.14861812 -0.17449985 -0.005415556 -0.1384712 0.0094008232 0.0027177264 -0.21320423 -0.59268314 -0.16542354 0.13667454 0.12618564 0.21510488 -0.45263949 -0.13665104 -0.15314908 0.082799785 0.053589921 0.15510112 0.042211138 0.068037152 -0.029127672 0.43478087 0.11179277 -0.23020859 -0.12254152 0.19514771 0.64953363 -0.058100671 0.3417747 -0.28888622 0.3812522 -0.18479604 0.44462687 0.16740628 0.15761024 -0.18542525 0.34162885 -0.14065345 0.030219482
Colia 0.45494691 -0.65960783 -0.44303596 0.71165508 -0.73281866 -0.086441636 0.38893968 -0.036284201 -0.086944513 -0.54991513 -0.11966641 0.24808751 0.30315074 -0.24272339 -0.049679555 0.23458564 0.16764173 0.045319334 -0.13087252 -0.040613387 -0.01322418 0.15447195 0.56981134 -0.18367212 -0.23961912 0.31002262 -0.12043101 -0.16621947 0.071129225 0.12597719 -0.069717243 -0.25308776 0.014142636 0.54390752 -0.45381364 0.61487091 -0.38069332 -0.43514094 -0.205456 -0.052926712 0.21101499 -0.44150618 -0.050111596 0.4803744 -0.19546695 0.26208475 -0.17231378 -0.3265627 -0.10320195 0.054916676 -0.29031944 -0.0093349963 -0.12100346 0.17672727 -0.015242668 0.13559887 -0.3078061 -0.52485859 0.30714327 -0.086825646 0.0278922 -0.16501415 -0.22854225 0.019422196 -0.14690444 0.020041872 0.0032557908 -0.24578324 -0.66443121 -0.19528668 0.15779474 0.10920528 0.22575209 -0.49684021 -0.1403949 -0.20142189 0.090818435 0.087062202 0.18187861 0.087223589 0.062932909 -0.0647185 0.47471133 0.11030275 -0.24968174 -0.12774789 0.19485071 0.73899108 -0.088599235 0.37216759 -0.31685793 0.41854501 -0.23104838 0.48075792 0.18134312 0.18801785 -0.24697173 0.35860512 -0.15523548 0.053142034
went 0.4508664 -0.6551373 -0.44684011 0.71661437 -0.73380321 -0.082495533 0.38749203 -0.037697468 -0.082548179 -0.55440909 -0.11307354 0.25458401 0.30531943 -0.23811482 -0.043106902 0.23490056 0.17389801 0.04353869 -0.13191874 -0.03638025 -0.007490207 0.15629803 0.57630283 -0.18907656 -0.23259893 0.30189368 -0.11726022 -0.17103392 0.075311266 0.1217882 -0.073844783 -0.25327349 0.010868522 0.54735672 -0.43615204 0.62717682 -0.39053267 -0.4460111 -0.20515618 -0.055401262 0.22118254 -0.44499132 -0.046931025 0.49281454 -0.1763788 0.26565829 -0.16057488 -0.33816484 -0.10346086 0.053391881 -0.28133214 -0.011770019 -0.12467825 0.18193014 -0.014874121 0.12142549 -0.31966364 -0.52677107 0.30629924 -0.087945998 0.040180627 -0.16992244 -0.2173243 0.0098649124 -0.13202125 0.012804198 -7.1248629e-05 -0.2484667 -0.66533244 -0.1919263 0.16002303 0.10578641 0.23194006 -0.51091498 -0.14335173 -0.19362283 0.10585331 0.087823637 0.18825507 0.084989749 0.079812668 -0.065633297 0.47005466 0.11262275 -0.25984836 -0.12020059 0.21013306 0.74460149 -0.091386557 0.36877441 -0.31544098 0.44040209 -0.23497781 0.48739776 0.190953 0.17979805 -0.24436779 0.36146128 -0.1594532 0.053442139
great 0.47667632 -0.69773889 -0.46901104 0.73620498 -0.77076936 -0.081243433 0.40812397 -0.023768282 -0.089590684 -0.58709192 -0.11587975 0.27220029 0.31153038 -0.24778096 -0.053185634 0.25989595 0.17599271 0.041348279 -0.13976675 -0.040912226 -0.0033537967 0.14656854 0.58642733 -0.19477418 -0.24116118 0.32255051 -0.11998758 -0.16744152 0.065932862 0.12094872 -0.087028742 -0.26080123 0.01551275 0.57407582 -0.46484536 0.64942938 -0.39929274 -0.45711896 -0.21000715 -0.044890948 0.21688701 -0.47306484 -0.055088926 0.52359545 -0.19275226 0.26521716 -0.16375196 -0.34783769 -0.10755267 0.058689997 -0.29630753 -0.0024072223 -0.13823842 0.18917112 -0.0058414731 0.13423368 -0.33012605 -0.55172265 0.31534481 -0.096111894 0.037984077 -0.16923475 -0.22041067 0.012958116 -0.15084036 0.019599352 0.0069332896 -0.25463927 -0.69389158 -0.20153989 0.1703947 0.10787974 0.23170343 -0.52003652 -0.14505954 -0.19767819 0.10767578 0.096714623 0.18802394 0.085253082 0.083260529 -0.057271745 0.4952054 0.11436126 -0.26254225 -0.13133888 0.21430649 0.77334398 -0.093642414 0.38114569 -0.34120214 0.4554683 -0.24288708 0.50110817 0.19988193 0.18624096 -0.25057158 0.37348548 -0.16487305 0.051349852
suddenly 0.46191272 -0.67819732 -0.46509555 0.7501834 -0.76110083 -0.09219671 0.39021847 -0.043202963 -0.089399815 -0.58289248 -0.11363924 0.25555503 0.29782936 -0.23835234 -0.045489412 0.24625596 0.17668451 0.051948756 -0.13524929 -0.046269674 -0.0050356779 0.17041616 0.58392757 -0.20457885 -0.24691111 0.31516472 -0.12200367 -0.16575463 0.078344621 0.13142022 -0.068414301 -0.25430247 0.0093991412 0.55505627 -0.46081689 0.62742198 -0.39716962 -0.43737406 -0.21838377 -0.054318525 0.22566223 -0.45592225 -0.049649451 0.50304216 -0.19163807 0.28592122 -0.17166951 -0.3357397 -0.09396594 0.055718224 -0.30389845 -0.0073808245 -0.12605035 0.18457939 0.00047442334 0.14577946 -0.32830891 -0.54726166 0.33131468 -0.10678127 0.035104189 -0.17115355 -0.23838715 0.018649571 -0.13784529 0.024916103 0.0064410954 -0.25041136 -0.69869339 -0.20869823 0.16766073 0.10996754 0.22065845 -0.50461549 -0.13825499 -0.20754105 0.098761156 0.10580969 0.19688657 0.096615985 0.066167094 -0.065920167 0.47922292 0.11234265 -0.25636286 -0.1257333 0.19656242 0.76084697 -0.10294156 0.3818118 -0.31866983 0.42827883 -0.25847718 0.49099562 0.18701726 0.19260718 -0.25395393 0.37831187 -0.16007261 0.054590691
two 0.45810544 -0.69456798 -0.46036372 0.73952889 -0.74949592 -0.079871982 0.40930948 -0.017612467 -0.084752083 -0.58575165 -0.11035704 0.26592505 0.31003717 -0.24447761 -0.038604286 0.25172016 0.17040023 0.053062338 -0.12804738 -0.050664142 -0.0049992544 0.14095572 0.5888747 -0.19881123 -0.22580944 0.32194015 -0.10513375 -0.17405139 0.09238793 0.12893811 -0.066367023 -0.25223857 0.0051758741 0.55280459 -0.47344705 0.65212232 -0.40937322 -0.46973065 -0.22338529 -0.067060828 0.21958499 -0.4785437 -0.050211512 0.50957072 -0.16815433 0.26144981 -0.16538708 -0.36272445 -0.10042389 0.053580478 -0.31437686 0.010152056 -0.14290291 0.1991498 -0.0011667843 0.11804453 -0.32836735 -0.55486369 0.32821721 -0.098871119 0.023609731 -0.17340939 -0.2287091 0.024709996 -0.14867832 0.02852777 0.0085059693 -0.2616573 -0.69099319 -0.20405005 0.17604995 0.11319729 0.22860481 -0.53216952 -0.1495094 -0.19966283 0.12663114 0.099429294 0.20211101 0.091854014 0.069974951 -0.064797983 0.48667318 0.10039423 -0.27502933 -0.13611452 0.21619724 0.77330059 -0.092239633 0.38269633 -0.34585059 0.4638252 -0.24319969 0.51983196 0.19652845 0.20053467 -0.25234142 0.37768841 -0.16369158 0.046269048
Evgenie 0.41548577 -0.63095224 -0.50851279 0.73980415 -0.76656753 -0.011175754 0.33800223 -0.036813997 -0.11837472 -0.53176367 -0.16365597 0.22330873 0.23981403 -0.20162956 -0.035162199 0.19055435 0.11827441 0.088532798 -0.19675951 0.01172836 -0.051266544 0.15413804 0.6333347 -0.19794391 -0.20481378 0.34237504 -0.15662514 -0.20429489 0.10740862 0.1682554 -0.12785041 -0.24198148 0.079553299 0.49740288 -0.44916928 0.58385599 -0.42489052 -0.48449975 -0.2160681 -0.036139987 0.2489583 -0.42614046 -0.08831232 0.42711669 -0.22941466 0.3315244 -0.18276522 -0.31442115 -0.063978069 0.09845107 -0.3193008 -0.028137347 -0.11136029 0.23855063 -0.050121486 0.14612621 -0.3397308 -0.58691084 0.35554546 -0.082519598 0.062086727 -0.2076484 -0.18407488 -0.0085510081 -0.20460361 -0.015338809 -0.05683697 -0.33157492 -0.74798054 -0.23526211 0.13649121 0.048987538 0.21973059 -0.47144997 -0.12716715 -0.1554659 0.16483255 0.083379418 0.11645698 0.15503629 0.0066008475 -0.027816545 0.53289914 0.086183861 -0.27522293 -0.11456131 0.19385447 0.77187061 -0.030402586 0.38653567 -0.36010525 0.38409746 -0.25563806 0.42599732 0.13872045 0.21268871 -0.28237933 0.38791513 -0.11120814 0.012298685
really 0.45232156 -0.64630115 -0.44195589 0.6982615 -0.72904617 -0.078470625 0.38036221 -0.027440703 -0.1049732 -0.54742843 -0.12825549 0.25367889 0.32279232 -0.23663114 -0.06561514 0.23524153 0.16170019 0.029567754 -0.12279379 -0.019426858 -0.021106128 0.15332806 0.56400889 -0.16642585 -0.25381964 0.29638204 -0.12217651 -0.16509971 0.079431638 0.11894837 -0.10278684 -0.25239781 0.020712825 0.56032705 -0.43603897 0.62551981 -0.39076394 -0.44904891 -0.18893643 -0.048161834 0.21620113 -0.44544166 -0.04302508 0.48599812 -0.20135085 0.25660273 -0.16583405 -0.33293936 -0.11003557 0.063096471 -0.27957648 -0.015143224 -0.10939547 0.19115284 -0.031714682 0.12226538 -0.29581407 -0.51329392 0.27792114 -0.058521729 0.045353767 -0.16660519 -0.21278393 0.0021788604 -0.13930044 0.022740927 -0.010792464 -0.2479566 -0.66533601 -0.19375601 0.15357026 0.13196425 0.23212133 -0.49984837 -0.14050567 -0.18944831 0.082403503 0.067918569 0.1794962 0.060754154 0.072905809 -0.044178732 0.48272899 0.11486913 -0.25488612 -0.13746758 0.20816787 0.74068099 -0.081894524 0.37757546 -0.32115093 0.41952524 -0.21981728 0.47908819 0.18264495 0.17811856 -0.22882071 0.36225167 -0.15709247 0.040478509
made 0.45157474 -0.67825162 -0.45227763 0.71732926 -0.74163353 -0.077382959 0.39696044 -0.027661873 -0.094343014 -0.57336468 -0.11410237 0.25492328 0.30917361 -0.24066199 -0.044908501 0.24177092 0.17002401 0.055546351 -0.14201801 -0.037873566 -0.0085172569 0.15084828 0.57154948 -0.18708254 -0.23928519 0.30896744 -0.11835498 -0.17151222 0.079398207 0.12447371 -0.08606448 -0.25419238 0.0088472972 0.54773217 -0.45449254 0.6315372 -0.38638896 -0.45223638 -0.20543864 -0.052917626 0.21686709 -0.45732492 -0.046720989 0.49776235 -0.18913408 0.27253208 -0.16351444 -0.33959997 -0.10488831 0.050562613 -0.2875517 -0.0045235124 -0.13411936 0.19381033 0.00048779478 0.12381165 -0.31989098 -0.53176099 0.32104957 -0.089134686 0.042877063 -0.16006806 -0.21302986 0.025612062 -0.13581306 0.023009503 0.0053773695 -0.25164306 -0.6780163 -0.19710049 0.16606179 0.10428811 0.23262307 -0.51031965 -0.14609639 -0.19798017 0.11049692 0.088350706 0.19492413 0.093336754 0.079235725 -0.064170346 0.48528442 0.10983084 -0.26247993 -0.12258146 0.21497434 0.74745971 -0.082540944 0.36968216 -0.3320559 0.43811119 -0.23124833 0.49861759 0.18970931 0.18284558 -0.24111766 0.36387941 -0.16082142 0.051596105
room 0.47918099 -0.69013989 -0.46996087 0.74039793 -0.76167136 -0.080195956 0.41016331 -0.032697774 -0.085070938 -0.59027934 -0.10990579 0.2567344 0.30145037 -0.24381544 -0.033508081 0.2500512 0.18814933 0.057044759 -0.13814598 -0.052044298 0.0038752963 0.15992878 0.59594297 -0.21198405 -0.24009839 0.32615238 -0.11883651 -0.1649925 0.067678556 0.13276574 -0.071374029 -0.26323158 0.010730267 0.56674063 -0.4772191 0.65072423 -0.39717513 -0.46488565 -0.22654489 -0.053920276 0.22712067 -0.46178836 -0.058505408 0.51426017 -0.18243633 0.27473688 -0.17286581 -0.34927091 -0.10361048 0.048651781 -0.30322966 -0.011701717 -0.13675357 0.19330089 -0.0056331013 0.1294641 -0.33528087 -0.5571084 0.33495161 -0.097250223 0.034462228 -0.17685886 -0.23492116 0.020643206 -0.14301512 0.014175621 0.0066524991 -0.25789338 -0.69682127 -0.19577588 0.17913429 0.10217185 0.23066844 -0.52866548 -0.14700684 -0.20926687 0.1157472 0.098439321 0.1953574 0.094802521 0.077168196 -0.077409357 0.49090475 0.10985164 -0.25963172 -0.1271555 0.20698734 0.77296597 -0.091725618 0.38296619 -0.34446397 0.44839665 -0.24184987 0.51186728 0.18898603 0.19427012 -0.25539336 0.37724048 -0.16682053 0.05808349
looked 0.43338606 -0.63583434 -0.42278326 0.69083959 -0.70209634 -0.074042633 0.36448488 -0.038910341 -0.081827432 -0.52744985 -0.11731473 0.23223844 0.28330341 -0.23136669 -0.031706925 0.23203637 0.16003577 0.046036351 -0.13052087 -0.045339163 0.0075295833 0.14597631 0.53328806 -0.18514997 -0.22089902 0.29499865 -0.10894834 -0.15022841 0.077715918 0.12658852 -0.059399262 -0.24083003 0.015060998 0.51048869 -0.42703032 0.58272713 -0.36827013 -0.41429085 -0.19860463 -0.042003814 0.21225512 -0.43234828 -0.049002115 0.46189705 -0.16817364 0.26087713 -0.1591621 -0.30948371 -0.091444112 0.048089243 -0.28332329 -0.0085575711 -0.12641925 0.17485398 0.0079014413 0.12128338 -0.31392196 -0.51312196 0.3081342 -0.10038339 0.033742409 -0.15980849 -0.2165527 0.021645594 -0.12806757 0.027765652 -0.011101071 -0.23382799 -0.64969581 -0.19448538 0.16531563 0.10252358 0.21070984 -0.47267005 -0.13606486 -0.19431923 0.091920018 0.096669823 0.18312858 0.09318427 0.06978368 -0.061102167 0.44353041 0.10740306 -0.23355004 -0.11486895 0.18963811 0.70284194 -0.0839848 0.35916328 -0.29437435 0.40576887 -0.2377793 0.46591526 0.18242726 0.17542322 -0.23976691 0.34131262 -0.14560854 0.051262368
people 0.47558296 -0.69542956 -0.45498389 0.73743618 -0.76744032 -0.08701387 0.40310168 -0.019784078 -0.096684068 -0.58225769 -0.12445237 0.2753343 0.33023867 -0.25061721 -0.050379831 0.25550896 0.16819921 0.045218714 -0.12810434 -0.033185691 -0.0086359866 0.14318046 0.59489924 -0.18552451 -0.25208196 0.31187043 -0.11728097 -0.16733009 0.071067467 0.1277473 -0.086802825 -0.25733575 0.012090665 0.5920769 -0.46695977 0.65613532 -0.40991998 -0.47609296 -0.20853055 -0.055765476 0.22296764 -0.48041084 -0.048475031 0.51221699 -0.20554139 0.26408818 -0.17566353 -0.35721523 -0.10642966 0.059597295 -0.30800304 -0.010478389 -0.13261016 0.19666494 -0.017726237 0.12840606 -0.31532279 -0.54900312 0.3116686 -0.075709574 0.038565602 -0.16292992 -0.22161034 0.0071872729 -0.15494353 0.016324878 -0.0056249578 -0.25694922 -0.69684696 -0.20478775 0.16938488 0.1236585 0.24049896 -0.52701783 -0.14285539 -0.19449462 0.1089704 0.090791106 0.19144261 0.078107238 0.077827469 -0.063961692 0.49933514 0.10761806 -0.26847389 -0.14517944 0.21296489 0.76607299 -0.096887976 0.38536018 -0.33614543 0.45071298 -0.24071659 0.51427281 0.19100997 0.18597126 -0.24555676 0.37308791 -0.16240859 0.044702154
word 0.43571311 -0.62369335 -0.41324306 0.66860157 -0.69770563 -0.070161477 0.36535212 -0.02144257 -0.098609708 -0.5349769 -0.11751267 0.2493269 0.29575843 -0.2197485 -0.063245714 0.22365661 0.16089664 0.033370435 -0.11623108 -0.029285911 -0.011551578 0.14586207 0.52967823 -0.15472473 -0.22306943 0.28515074 -0.12046611 -0.15711458 0.084703758 0.11987161 -0.088990144 -0.23980109 0.0075401329 0.53021073 -0.40447026 0.61041588 -0.37902382 -0.42543194 -0.18193585 -0.042441282 0.2086103 -0.42558995 -0.034605645 0.46055418 -0.18730527 0.24170467 -0.15692852 -0.31761223 -0.10551327 0.060520113 -0.27747694 -0.0098627321 -0.11763506 0.18386497 -0.029653441 0.11852573 -0.28655303 -0.48886353 0.27468258 -0.059517715 0.030581718 -0.1586964 -0.19621962 0.0037929518 -0.14782752 0.018185399 -0.005886829 -0.23592407 -0.63052577 -0.17594852 0.14057927 0.10948008 0.22010581 -0.48148945 -0.13471138 -0.17721665 0.097114511 0.067922682 0.16958261 0.06055516 0.063885726 -0.042403139 0.46914688 0.10981596 -0.24063876 -0.12952377 0.19995295 0.7100755 -0.074983031 0.34931225 -0.31445894 0.39974988 -0.20770851 0.46816757 0.17867598 0.17634116 -0.21964507 0.3457852 -0.15211676 0.035327658
Yes 0.42213622 -0.60635132 -0.41122606 0.66435599 -0.68387038 -0.075892746 0.35947937 -0.028454961 -0.099689171 -0.51401925 -0.11297376 0.24147733 0.29177457 -0.21050197 -0.051873494 0.22390205 0.15706356 0.042151958 -0.11435185 -0.021728911 -0.025074756 0.14026569 0.52598947 -0.15677479 -0.22638384 0.27408451 -0.11354823 -0.16324869 0.069537416 0.11063189 -0.099641256 -0.22906682 0.01567453 0.51759583 -0.40164548 0.5831579 -0.3607811 -0.4159539 -0.17855471 -0.042114988 0.20226224 -0.4173173 -0.040479057 0.4542267 -0.18886243 0.24624825 -0.15510814 -0.31264406 -0.10375334 0.058955241 -0.26391312 -0.002125185 -0.11012992 0.17174821 -0.020989329 0.10948472 -0.28599012 -0.48975161 0.26963961 -0.059307497 0.034302741 -0.14800169 -0.19414008 0.013674775 -0.14261708 0.023476729 0.002601275 -0.22975945 -0.61658299 -0.17725635 0.14782545 0.11814668 0.2168224 -0.47222626 -0.13948309 -0.17333193 0.082515843 0.071457706 0.16311878 0.053824313 0.074492209 -0.044294573 0.44368196 0.10647813 -0.23277387 -0.12215937 0.19588402 0.6951533 -0.077473409 0.34430701 -0.30531412 0.39150697 -0.20833571 0.46156377 0.1766537 0.17126597 -0.21492828 0.3447414 -0.15163316 0.037735667
us 0.47470963 -0.69326717 -0.46132818 0.74125457 -0.7646085 -0.088095181 0.4098669 -0.025840318 -0.1045944 -0.5853501 -0.12778668 0.27434421 0.33838007 -0.25253722 -0.064825766 0.24697219 0.17732047 0.051039986 -0.13441087 -0.024559295 -0.020016801 0.15103348 0.5994184 -0.18162973 -0.2544865 0.31456745 -0.1265233 -0.17242561 0.077624157 0.13320664 -0.10271227 -0.26598901 0.011371572 0.58966941 -0.46428767 0.666628 -0.40502554 -0.47404557 -0.20581865 -0.060762025 0.2322195 -0.47132921 -0.040704906 0.52091891 -0.19875422 0.26571989 -0.17035675 -0.3590396 -0.11765054 0.061109457 -0.30576533 -0.013319223 -0.12316243 0.20384645 -0.023426766 0.13279575 -0.3118571 -0.55409479 0.3103435 -0.068513684 0.043989081 -0.16495445 -0.22113559 0.0088250693 -0.15638734 0.016964341 0.0013905526 -0.26249135 -0.70420212 -0.19660094 0.1707447 0.12151077 0.25124615 -0.53086644 -0.14447227 -0.19590007 0.092896573 0.075846724 0.19111055 0.066340491 0.075105421 -0.054787487 0.50877559 0.11193175 -0.26671842 -0.13855153 0.2223843 0.77837598 -0.088855222 0.38822481 -0.34002027 0.45340812 -0.23152739 0.51678896 0.20428815 0.18958293 -0.25058398 0.37865457 -0.1719428 0.04920898
There 0.48859161 -0.70581752 -0.4717797 0.75774014 -0.78362834 -0.083259173 0.41275042 -0.031486262 -0.10453445 -0.59920472 -0.11768903 0.27529722 0.32397878 -0.24607071 -0.057942886 0.2523236 0.17276247 0.046801031 -0.13800021 -0.033559203 -0.014477773 0.1628512 0.60795182 -0.19225399 -0.24817924 0.32874265 -0.12970085 -0.18156525 0.076781675 0.13612591 -0.085957967 -0.25946575 0.011447165 0.58465499 -0.47400036 0.6648491 -0.40576839 -0.47554481 -0.21326768 -0.050502215 0.23219627 -0.4809671 -0.046612781 0.51897264 -0.19970959 0.27278689 -0.17819831 -0.35814038 -0.11109848 0.066869259 -0.30322492 -0.0043331482 -0.13493362 0.19539341 -0.009476685 0.12787494 -0.32796204 -0.55462945 0.31655896 -0.087909721 0.040653042 -0.171156 -0.23171993 0.009047268 -0.1529268 0.025628632 0.0016676672 -0.26953754 -0.71373862 -0.20268019 0.17041917 0.12054353 0.24044439 -0.54148352 -0.14541745 -0.19872187 0.099821635 0.095575497 0.19735005 0.076687314 0.080628149 -0.058688343 0.51091689 0.11894973 -0.26850769 -0.13942638 0.21968429 0.7834965 -0.1000572 0.39663869 -0.34789672 0.46168789 -0.2489852 0.53034568 0.20348075 0.18866503 -0.25912794 0.38609433 -0.17422676 0.048331078
Hippolyte 0.45390671 -0.65085149 -0.44488198 0.7086165 -0.73277897 -0.084874608 0.38523507 -0.038266659 -0.082903884 -0.55441189 -0.11475432 0.25229567 0.30702686 -0.23231423 -0.044538449 0.23869769 0.1704407 0.047102842 -0.12567019 -0.040157665 -0.0140125 0.16039367 0.55916989 -0.18734051 -0.24305406 0.30528331 -0.11224465 -0.16647543 0.074380368 0.13249646 -0.080072299 -0.24688229 0.014700117 0.55072391 -0.4461771 0.62067139 -0.38045785 -0.44157413 -0.20039901 -0.041816607 0.21009463 -0.44428641 -0.047049213 0.48055127 -0.1889379 0.25973114 -0.16928667 -0.32686871 -0.10655102 0.060610645 -0.29177818 -0.011661845 -0.12699544 0.18665838 -0.0082495594 0.12346237 -0.31187636 -0.52584732 0.31142223 -0.084965058 0.026380274 -0.16409244 -0.22844455 0.018277138 -0.14735396 0.016572228 -0.0014010458 -0.24386255 -0.66065276 -0.19689673 0.15619469 0.1126724 0.22537495 -0.49291995 -0.14149106 -0.18894702 0.090934046 0.092899188 0.18096295 0.078230388 0.065590277 -0.066203475 0.47274277 0.1075393 -0.25904721 -0.12664263 0.1974625 0.73824257 -0.093284346 0.36562395 -0.317543 0.42707968 -0.22828595 0.47429901 0.18946579 0.18980184 -0.23922679 0.35716784 -0.15747435 0.047412559
long 0.47260308 -0.68162191 -0.45897627 0.73940289 -0.75517231 -0.080216207 0.39877182 -0.033918548 -0.091728367 -0.57193905 -0.12449589 0.26875621 0.31399021 -0.2424559 -0.043861687 0.24721801 0.16599818 0.042147163 -0.13433367 -0.041849639 -0.0017453452 0.14999808 0.59714925 -0.19327119 -0.2486977 0.31424409 -0.12338501 -0.16975266 0.071722448 0.11922777 -0.086659789 -0.2512199 0.020015124 0.56662583 -0.46076277 0.64301324 -0.40510231 -0.46506202 -0.19890259 -0.04800389 0.21543169 -0.46924239 -0.038192902 0.50901008 -0.19426389 0.2672013 -0.16495235 -0.35253087 -0.10398808 0.058713842 -0.30686659 0.0033557084 -0.13777943 0.18568812 -0.020349555 0.12365002 -0.32064825 -0.54117787 0.31715572 -0.088350959 0.030581033 -0.17583436 -0.227267 0.0098153735 -0.13938698 0.020610217 0.0064827148 -0.257209 -0.68484092 -0.21059696 0.16687854 0.10821977 0.23209055 -0.52408558 -0.15591998 -0.20310265 0.10657866 0.087186649 0.18956876 0.07711152 0.072588295 -0.067492291 0.49326098 0.11491754 -0.26189381 -0.13555859 0.2164831 0.77330422 -0.077915028 0.37888715 -0.33761379 0.45369199 -0.24590789 0.51057714 0.19801022 0.19239764 -0.24836797 0.37976915 -0.15825677 0.050258566
fact 0.45941553 -0.67354292 -0.45585504 0.72864985 -0.7518363 -0.080546275 0.39779258 -0.026015246 -0.097713046 -0.57430649 -0.12515211 0.25739062 0.31485844 -0.24645174 -0.051406451 0.24194278 0.17541277 0.042543262 -0.13126315 -0.03109411 -0.0038879123 0.14932676 0.57903171 -0.18081591 -0.24463034 0.31340909 -0.12111631 -0.16083656 0.07709413 0.12226027 -0.074653439 -0.25448692 0.013031817 0.56613272 -0.45772418 0.64365649 -0.396137 -0.45713878 -0.19939235 -0.0521526 0.22784683 -0.46894959 -0.047855228 0.50731152 -0.18540594 0.27527466 -0.16647539 -0.34143907 -0.10153213 0.057620842 -0.30077145 -0.0012163229 -0.13395676 0.19409733 -0.0083703855 0.122181 -0.32220337 -0.54097861 0.31323391 -0.087391198 0.039601725 -0.17717476 -0.21923935 0.010661487 -0.14714773 0.023249991 -0.0056499639 -0.25617421 -0.68332148 -0.19904651 0.17036231 0.10898189 0.2368907 -0.51209432 -0.14476177 -0.20764203 0.10339661 0.094493657 0.18938155 0.08456932 0.06916327 -0.0671231 0.48911911 0.11822857 -0.25295123 -0.13772684 0.21500929 0.76279026 -0.091672771 0.38528702 -0.33551705 0.44028601 -0.23690532 0.49567851 0.19841248 0.19222133 -0.2463873 0.37170836 -0.15960951 0.050807413
way 0.4608171 -0.67461407 -0.45340815 0.72763056 -0.7451213 -0.079860643 0.39813411 -0.027553272 -0.098542646 -0.56712282 -0.11531157 0.25726449 0.30948728 -0.24014215 -0.05108241 0.24401623 0.16796212 0.042697676 -0.13458551 -0.037401855 -0.015970351 0.15844211 0.57837981 -0.18371205 -0.23661438 0.31524581 -0.1151741 -0.16257186 0.080963105 0.11771613 -0.082506821 -0.25546014 0.011128257 0.56092918 -0.45414403 0.62982696 -0.39429012 -0.44994277 -0.20986344 -0.04565927 0.21312165 -0.46339157 -0.047087293 0.492163 -0.18585828 0.26658213 -0.16603769 -0.33793128 -0.1026653 0.060029529 -0.29104084 -0.0078787077 -0.1251675 0.19059035 -0.0058172843 0.13356987 -0.31070381 -0.53774971 0.31027254 -0.077712111 0.029670149 -0.1721122 -0.22603767 0.0093890838 -0.14543432 0.021711081 0.0027174614 -0.24911857 -0.68052065 -0.19810751 0.15885617 0.11766861 0.23508024 -0.51122099 -0.14181289 -0.20532776 0.099074282 0.094896518 0.19431373 0.079783753 0.079610609 -0.065665297 0.4803085 0.11516337 -0.26407346 -0.13321926 0.21005747 0.75785804 -0.088016488 0.37875763 -0.33067968 0.43689865 -0.23785362 0.50342911 0.1891368 0.18286015 -0.24865519 0.36622918 -0.16579343 0.050396103
look 0.44448534 -0.64177996 -0.42144817 0.68430001 -0.70218003 -0.078916781 0.3750191 -0.031322189 -0.092830345 -0.53836274 -0.11144854 0.23728277 0.2940006 -0.22884394 -0.048754543 0.2368727 0.16148533 0.047234684 -0.12743872 -0.032622751 -0.0070189475 0.14253789 0.5498091 -0.16860022 -0.23219167 0.29748896 -0.11410257 -0.16139539 0.070005283 0.12120795 -0.08800637 -0.24082734 0.0053737485 0.52791482 -0.42921185 0.60208857 -0.36761189 -0.43122682 -0.19506472 -0.049511034 0.21147089 -0.44219136 -0.036432702 0.4736214 -0.18071042 0.2511546 -0.1482894 -0.32499319 -0.10694721 0.052779466 -0.27881092 -0.0097898645 -0.11604493 0.18256548 -0.0051654051 0.12355731 -0.29277784 -0.50643861 0.29109222 -0.07320945 0.033230111 -0.15915874 -0.20930293 0.0092770457 -0.1383348 0.012569067 -0.0019048859 -0.23587947 -0.63747996 -0.18695153 0.15897435 0.10399824 0.22958036 -0.49219224 -0.13766375 -0.17653579 0.094029218 0.088383317 0.17972064 0.076960124 0.07315585 -0.052399483 0.46640369 0.11084024 -0.24018683 -0.12273145 0.20420782 0.70828211 -0.083270364 0.36041448 -0.30846921 0.41865772 -0.22493245 0.47783118 0.18096639 0.1714457 -0.23063704 0.35731342 -0.14592376 0.043025773
