3015 100
человек 0.16141021 0.005498701 0.4684527 -0.38763955 -0.06502058 0.14396642 -0.26511216 -0.1112588 -0.19208941 0.42648274 -0.17413664 -0.15081155 -0.23754178 -0.1498029 0.19108395 -0.08503314 -0.04369207 -0.26669347 0.27851605 -0.2276205 -0.20294239 -0.006705014 0.17496787 -0.24773853 0.4189363 -0.26505607 -0.33731684 0.29964525 -0.1712725 -0.120090306 0.041284747 0.056086484 0.014399438 0.20751232 0.43512326 0.2432703 -0.49719664 -0.40848693 0.39243755 -0.08389224 0.3070719 0.112327226 -0.1385561 0.20074141 0.4961899 0.15361205 -0.0154065415 0.046299104 -0.66426706 0.29136667 -0.063027516 0.01785761 0.044551205 -0.32543957 -0.15053324 0.40669826 -0.22472976 0.072275884 0.12871782 -0.24892065 0.121087216 -0.017420556 -0.20109645 -0.12635197 0.22765993 -0.593539 -0.17775556 -0.004019019 -0.0628451 0.1289557 0.18257692 -0.42033386 0.033570573 0.42243037 -0.11199226 0.05959013 -0.11319691 0.15987441 0.23265855 0.16470727 -0.18631425 0.05073509 0.09770505 0.13346086 -0.1884487 0.1595974 -0.22599193 -0.015413743 -0.27629393 0.24230951 0.11902831 -0.0057117394 0.2849629 -0.05126666 0.14578016 -0.19874577 -0.38096336 0.03803434 -0.05207973 -0.12961967
сообщать 0.4866813 0.018303603 1.4199926 -1.1790866 -0.19440208 0.43261954 -0.79714227 -0.33710214 -0.5888918 1.2943568 -0.5328332 -0.4446493 -0.7275864 -0.45041844 0.5756328 -0.2604243 -0.123521976 -0.8080991 0.84189826 -0.69694066 -0.6150767 -0.019199403 0.5311883 -0.75235504 1.2673053 -0.79814965 -1.0214654 0.91272074 -0.5175921 -0.36848947 0.1264433 0.16632958 0.04021008 0.6347093 1.320052 0.7345657 -1.5045853 -1.2360365 1.1913795 -0.25490195 0.92149615 0.3375771 -0.4200363 0.609084 1.5111464 0.45870864 -0.050978377 0.14076994 -2.0133502 0.88767344 -0.18237922 0.049873877 0.14793187 -0.99081075 -0.4547909 1.2361153 -0.68903846 0.22077891 0.38668275 -0.75302017 0.3683885 -0.050560087 -0.60823864 -0.3886295 0.694241 -1.8013574 -0.5415599 -0.012088166 -0.19008124 0.3881386 0.5553626 -1.2687589 0.10852521 1.2811443 -0.33364978 0.18003662 -0.340165 0.48075965 0.701809 0.50588125 -0.56537426 0.15212251 0.29423997 0.40325454 -0.568027 0.49284476 -0.68325984 -0.05377562 -0.8336372 0.73561907 0.36896023 -0.017797647 0.86757165 -0.1559811 0.4386852 -0.6070213 -1.1519578 0.114237174 -0.15057527 -0.39307058
ураган 0.1208614 0.0053914515 0.34462348 -0.285828 -0.049687553 0.10575041 -0.19195911 -0.08386362 -0.14350133 0.31436896 -0.12883957 -0.1086545 -0.1788941 -0.10949294 0.13868046 -0.06296919 -0.030686323 -0.19852509 0.2059759 -0.17144619 -0.15076038 -0.003714872 0.1265331 -0.18421815 0.3105549 -0.1952612 -0.24654202 0.22236478 -0.12800325 -0.08838103 0.031307362 0.039736886 0.0105919335 0.15354113 0.31939575 0.17906135 -0.3653898 -0.29728374 0.28615355 -0.063522264 0.22407605 0.08088788 -0.09921039 0.14802544 0.36920083 0.11096228 -0.01328281 0.034673035 -0.48971513 0.21724786 -0.045519758 0.014337196 0.0370385 -0.24059744 -0.10821614 0.3025515 -0.1715774 0.05376054 0.09077628 -0.18333547 0.09225079 -0.01453636 -0.14917275 -0.093960695 0.16587348 -0.4392607 -0.12979077 -0.0048060277 -0.04787607 0.09439091 0.13301845 -0.30817628 0.025939219 0.31005818 -0.07827263 0.044075858 -0.08428086 0.11906142 0.17011821 0.12248712 -0.1380786 0.038594753 0.07231412 0.099525176 -0.13900445 0.1202494 -0.16405366 -0.012327186 -0.20116179 0.17829004 0.091183394 -0.0014022044 0.20990074 -0.03877958 0.106836684 -0.14796965 -0.27864215 0.028782992 -0.03526493 -0.096828476
пожар 0.3146086 0.0131091 0.91387004 -0.7576292 -0.12545536 0.28058618 -0.5141739 -0.21795073 -0.37777582 0.83087784 -0.3407092 -0.2894258 -0.46682963 -0.28702575 0.36968172 -0.16584705 -0.081103496 -0.5199977 0.53998256 -0.44638297 -0.3915671 -0.011850035 0.34282568 -0.48287496 0.8147526 -0.5146042 -0.65548337 0.5888463 -0.33122995 -0.2349667 0.083552435 0.10680819 0.02464706 0.4082904 0.8466521 0.47364634 -0.96374965 -0.795551 0.7659653 -0.16289407 0.5924606 0.21384916 -0.2695275 0.39466393 0.9706771 0.29688367 -0.032643728 0.088292636 -1.2932028 0.5712023 -0.1194981 0.031224499 0.09276186 -0.6351026 -0.2945297 0.7921289 -0.44204614 0.14034854 0.24631019 -0.48445073 0.23688442 -0.03273668 -0.39051518 -0.2507253 0.4450919 -1.1574439 -0.34848782 -0.0076858876 -0.12173013 0.2511637 0.35241714 -0.81869453 0.065090254 0.82500285 -0.21312065 0.1131266 -0.22004108 0.3124388 0.45161152 0.32421625 -0.36312568 0.098708354 0.1904317 0.25976056 -0.36667702 0.31600907 -0.43741003 -0.031004418 -0.5346226 0.47081903 0.23447894 -0.0125763165 0.55502206 -0.100507244 0.2838825 -0.38891554 -0.7433019 0.076760516 -0.097549334 -0.25224835
район 0.19348161 0.00822709 0.55810875 -0.4664893 -0.076864146 0.17222884 -0.3145104 -0.13397934 -0.23081754 0.51374257 -0.21327838 -0.17707427 -0.28723714 -0.17663592 0.22869368 -0.10284581 -0.046267357 -0.3188763 0.33113167 -0.27463892 -0.24222517 -0.007958877 0.20921381 -0.29713923 0.50028 -0.3131614 -0.40037367 0.36134294 -0.2046039 -0.14311546 0.04950016 0.06427356 0.013690827 0.2504782 0.5211382 0.29223162 -0.5958287 -0.49173582 0.47107157 -0.10153829 0.36386845 0.13176438 -0.16473418 0.2405822 0.5997147 0.18623354 -0.020665642 0.055304293 -0.7971144 0.34916598 -0.07371643 0.017008668 0.058400717 -0.39030382 -0.17809607 0.48700383 -0.2710331 0.086949065 0.1529866 -0.30041587 0.14552695 -0.020771107 -0.24168271 -0.15127079 0.27725726 -0.7128557 -0.21376355 -0.00623895 -0.07879301 0.15273698 0.21932156 -0.5024681 0.04329075 0.50792223 -0.12887284 0.07344365 -0.13459653 0.19240697 0.27627814 0.20336382 -0.22498058 0.060246248 0.11804143 0.16001782 -0.2238057 0.19590017 -0.26982015 -0.019409245 -0.3282321 0.29193386 0.14524727 -0.00581474 0.34195197 -0.06099717 0.17286149 -0.24100463 -0.454318 0.04602926 -0.058797743 -0.15664266
который 0.26822367 0.011571507 0.78076005 -0.650355 -0.104764834 0.23805188 -0.44002858 -0.18672387 -0.32438588 0.7106562 -0.29254207 -0.24815342 -0.400852 -0.24764322 0.31991476 -0.14197741 -0.069136955 -0.44595686 0.4634143 -0.38294527 -0.33634993 -0.010126463 0.29146174 -0.41429013 0.696951 -0.43972543 -0.56247246 0.50416666 -0.2865686 -0.20047013 0.07021325 0.09035455 0.021865128 0.34955066 0.7261183 0.40416434 -0.82972866 -0.67879933 0.652954 -0.13842088 0.5064446 0.1853447 -0.23364934 0.33541557 0.8329948 0.25355282 -0.029047484 0.07772024 -1.1075076 0.48975512 -0.10100683 0.028497072 0.08064596 -0.5429224 -0.24981222 0.67959243 -0.3792943 0.12128296 0.21451022 -0.4166242 0.20106208 -0.027324751 -0.3370303 -0.21565998 0.38164794 -0.99022996 -0.29862207 -0.0072518787 -0.10516036 0.21245648 0.30373734 -0.6971806 0.059602287 0.7061121 -0.1807482 0.10252481 -0.18970127 0.26263377 0.38495094 0.2776483 -0.31011018 0.085017234 0.1629424 0.22297654 -0.31327954 0.27290648 -0.3738689 -0.028206076 -0.45681435 0.40436754 0.2034422 -0.006978572 0.4764039 -0.08744755 0.24360615 -0.33603683 -0.6322658 0.06247425 -0.082717255 -0.21853091
землетрясение 0.23273127 0.010480766 0.6850806 -0.57100165 -0.093110695 0.20924719 -0.38745466 -0.16271488 -0.28359044 0.6247701 -0.25623873 -0.2167103 -0.35141465 -0.21690516 0.28128725 -0.1241868 -0.060555026 -0.3912379 0.40740946 -0.33652467 -0.29538617 -0.00898316 0.25593722 -0.36318386 0.6121073 -0.38448524 -0.49187022 0.44184187 -0.2504303 -0.17696403 0.062025163 0.07955609 0.019046266 0.30527866 0.637472 0.35535136 -0.7265793 -0.59748787 0.573204 -0.12325701 0.44584543 0.16185972 -0.20448874 0.2939238 0.72942436 0.2220877 -0.0239182 0.0657816 -0.9706502 0.42961445 -0.08889044 0.023566851 0.068860106 -0.47875756 -0.218493 0.5954336 -0.33094904 0.10605016 0.18720292 -0.36310366 0.17728698 -0.023534087 -0.29509845 -0.1862311 0.33410448 -0.8706977 -0.26006812 -0.0048381216 -0.09241651 0.18861172 0.26662663 -0.6127705 0.05108605 0.62014574 -0.16138838 0.08938984 -0.16436811 0.23017082 0.33843765 0.246605 -0.27327478 0.072545715 0.14219044 0.19371195 -0.2750004 0.23883504 -0.32935125 -0.025567042 -0.4022774 0.3546681 0.177132 -0.00875976 0.4173435 -0.07716533 0.2119674 -0.29376212 -0.554547 0.056784466 -0.0722825 -0.18957226
это 0.12897465 -0.0010231155 0.3843278 -0.32409477 -0.052619625 0.11344956 -0.21212931 -0.09137898 -0.16011609 0.34924737 -0.1419876 -0.11815814 -0.1960424 -0.124524154 0.15438959 -0.06905524 -0.029760871 -0.21665289 0.22492221 -0.19039617 -0.16519426 -0.0044919145 0.14244631 -0.20152822 0.3424646 -0.21700634 -0.2711176 0.24841197 -0.13925031 -0.09758695 0.035545442 0.041914605 0.009744304 0.17177287 0.35948378 0.20021233 -0.40706077 -0.33256298 0.32501695 -0.07014921 0.2487715 0.08983683 -0.1164844 0.16497675 0.40909857 0.12410541 -0.009128296 0.037706982 -0.54637116 0.24346407 -0.053448908 0.01293543 0.04167948 -0.26777655 -0.12504911 0.33323053 -0.18415199 0.062079404 0.102646 -0.2067363 0.10023705 -0.013708358 -0.164348 -0.11016332 0.1852496 -0.4894313 -0.14775774 -0.0051603466 -0.049501497 0.10725873 0.14784013 -0.3412432 0.029451478 0.3474767 -0.08649733 0.045356326 -0.09267091 0.13064863 0.18993124 0.13823844 -0.1496428 0.041323934 0.07823016 0.11077184 -0.15223505 0.13538061 -0.1851 -0.0121494895 -0.22838633 0.20316653 0.10019885 -0.0029809314 0.235605 -0.04160416 0.121632434 -0.16358556 -0.31324783 0.030923452 -0.0418207 -0.106375165
тысяча 0.10631365 0.0057870112 0.31263456 -0.2585886 -0.044447552 0.09588408 -0.175545 -0.07407212 -0.12576234 0.28253546 -0.115087636 -0.09857769 -0.15824762 -0.100419655 0.12638804 -0.05706247 -0.027660405 -0.1764063 0.18609364 -0.15244007 -0.13181575 -0.004061298 0.11543146 -0.16763824 0.2778677 -0.17778462 -0.22526477 0.19985917 -0.11475159 -0.08288727 0.030458426 0.03423114 0.0065619834 0.14016268 0.29163256 0.16299999 -0.3335866 -0.27170768 0.26049244 -0.056561086 0.20283672 0.07553489 -0.09414527 0.13401885 0.33099142 0.10045808 -0.010883701 0.03204031 -0.44236287 0.19674326 -0.04081082 0.009645905 0.032071825 -0.21686652 -0.10052047 0.2705141 -0.15152617 0.04758807 0.08570819 -0.16408026 0.081736356 -0.010411927 -0.13389912 -0.08524222 0.15168883 -0.39759287 -0.12025292 -0.0019904596 -0.042924296 0.08548601 0.11992431 -0.27680072 0.02314782 0.28206167 -0.072675504 0.038234435 -0.07598028 0.10643658 0.15600479 0.1094012 -0.12454229 0.03432917 0.06392177 0.08608466 -0.1263876 0.10612444 -0.15189667 -0.011098079 -0.18379003 0.16283238 0.0812433 -0.0059054224 0.1918454 -0.035223376 0.096747644 -0.13494627 -0.25338247 0.026090512 -0.033824217 -0.0863099
происходить 0.35069746 0.012425693 1.0244974 -0.85041577 -0.14148065 0.31292436 -0.5754737 -0.24556175 -0.424683 0.9345403 -0.38176396 -0.32397908 -0.524837 -0.3250299 0.42056558 -0.1853276 -0.08813661 -0.5815867 0.6084879 -0.50306356 -0.4425535 -0.013756366 0.38354662 -0.54322404 0.91399735 -0.578693 -0.7363461 0.66125655 -0.37579 -0.26396376 0.093749516 0.119102724 0.028209614 0.45801583 0.9530766 0.53047454 -1.0860047 -0.891608 0.86010087 -0.1836415 0.6644553 0.24160556 -0.3036478 0.4405448 1.0928694 0.33343962 -0.035774 0.10111158 -1.4521556 0.6423793 -0.12987618 0.036307454 0.105183735 -0.71529037 -0.32783052 0.8912653 -0.4965764 0.15949558 0.2787431 -0.5432997 0.26545805 -0.03688811 -0.44010192 -0.28047538 0.4993094 -1.3000764 -0.3921717 -0.009842604 -0.13638888 0.2818503 0.3992728 -0.9166847 0.07693296 0.9250423 -0.24075627 0.12885955 -0.2464166 0.34896567 0.5088514 0.36753124 -0.40861893 0.11079714 0.2141196 0.29309347 -0.41215295 0.35794517 -0.491879 -0.03893366 -0.5992609 0.53049666 0.26633766 -0.014713301 0.6247491 -0.11308695 0.31674773 -0.43977487 -0.83320713 0.08512001 -0.107588686 -0.28417
сша 0.0868297 0.007621349 0.2606456 -0.21723974 -0.03537046 0.07865564 -0.15022226 -0.06382623 -0.10877811 0.23667035 -0.09731565 -0.083204195 -0.13479161 -0.08364679 0.11114706 -0.05091056 -0.024743196 -0.15140083 0.15621087 -0.12768064 -0.115039 -0.0017943832 0.095857516 -0.13764177 0.23093502 -0.14964087 -0.18762015 0.16801916 -0.098324 -0.06695903 0.022597637 0.03016467 0.005946122 0.1166228 0.24791323 0.13266511 -0.27997068 -0.23077051 0.22082779 -0.04473317 0.16822968 0.060888607 -0.080319524 0.11178329 0.27734318 0.08445765 -0.0062322556 0.024465261 -0.36847255 0.16548522 -0.0363245 0.014304283 0.028807525 -0.18710677 -0.084693976 0.22905658 -0.125414 0.041720558 0.06835059 -0.1378654 0.065087184 -0.010632713 -0.115060054 -0.07297079 0.12898818 -0.3329471 -0.098041825 -0.0035905126 -0.032268733 0.071371384 0.10402721 -0.23118894 0.020801099 0.23805544 -0.058854964 0.03285383 -0.061161615 0.08928447 0.13363698 0.09583746 -0.104238406 0.030810904 0.057506435 0.07310258 -0.10635924 0.09321313 -0.12690227 -0.011192842 -0.15401457 0.13209607 0.07002214 0.0007551936 0.1600063 -0.03268275 0.079797246 -0.11115117 -0.21380338 0.02281796 -0.024306243 -0.07296692
дом 0.17970826 0.009455697 0.5339922 -0.44702354 -0.07544108 0.16494508 -0.29923677 -0.12573157 -0.21867503 0.48807862 -0.20147586 -0.16740277 -0.27289018 -0.17214508 0.21549256 -0.10092662 -0.050263546 -0.30516002 0.31487113 -0.2673431 -0.23155962 -0.00880582 0.20400019 -0.286604 0.47574013 -0.29832655 -0.38746306 0.34127092 -0.1948123 -0.14105806 0.047464255 0.06233389 0.013248941 0.2369555 0.49959368 0.2778093 -0.5616112 -0.46646148 0.44845816 -0.09681276 0.34378523 0.1260785 -0.15861641 0.23319435 0.571325 0.17237131 -0.015033171 0.049709816 -0.7554742 0.3319754 -0.068066925 0.020891378 0.052832097 -0.37108353 -0.1711707 0.4665549 -0.26172727 0.08492081 0.14560093 -0.2814279 0.14122519 -0.019877294 -0.22906566 -0.1472403 0.2555712 -0.67678595 -0.20528162 -0.0055742073 -0.06988505 0.14550982 0.2110218 -0.47905734 0.04342412 0.47835916 -0.12359541 0.06966351 -0.13063912 0.18533169 0.26307848 0.1908608 -0.2168866 0.06038452 0.11086852 0.15370977 -0.2135292 0.18359126 -0.25506535 -0.018490767 -0.31447104 0.27875692 0.14054318 -0.006561052 0.32684228 -0.060405314 0.16675322 -0.22738613 -0.43229905 0.04347506 -0.060230363 -0.14951904
также 0.12658788 0.0041760285 0.36063954 -0.29716685 -0.049387377 0.11054497 -0.20478827 -0.08413742 -0.15083803 0.3288431 -0.13401063 -0.112636045 -0.18740092 -0.11363261 0.14732625 -0.064716466 -0.031908605 -0.2044148 0.2126365 -0.17950402 -0.15539524 -0.003135603 0.1380729 -0.1913379 0.3227084 -0.20227268 -0.260445 0.23240553 -0.13473387 -0.091794536 0.029497351 0.04251442 0.007523568 0.16349967 0.33618936 0.18577896 -0.3867896 -0.31291085 0.30277577 -0.06549999 0.23552273 0.08664627 -0.10592757 0.15489554 0.3889279 0.118883274 -0.012884078 0.036266446 -0.5149416 0.22705464 -0.047319893 0.012446612 0.037594818 -0.2541538 -0.11505805 0.31616428 -0.1743207 0.05419843 0.097927354 -0.19292466 0.09113283 -0.011108024 -0.15523414 -0.09889789 0.17716746 -0.46025264 -0.13966137 -0.0028008753 -0.04764085 0.09794971 0.14012894 -0.32372004 0.027374152 0.32607836 -0.081449166 0.044733502 -0.086226776 0.12260214 0.17973201 0.1297356 -0.14626344 0.03889606 0.07547859 0.101307765 -0.14415485 0.12665023 -0.17356187 -0.013101857 -0.2105357 0.18829793 0.09792891 -0.0040573995 0.22122952 -0.039027795 0.10957284 -0.15395793 -0.29173228 0.028003616 -0.036485728 -0.10079959
данные 0.12470091 0.004032415 0.36018097 -0.3033901 -0.050487183 0.107810006 -0.201811 -0.08690081 -0.15120198 0.32926303 -0.13583621 -0.11355536 -0.18505754 -0.1158737 0.14461605 -0.06374838 -0.0325654 -0.20392886 0.21501903 -0.1780832 -0.15628754 -0.005301571 0.13519461 -0.19447234 0.32366142 -0.20397532 -0.2596524 0.23225182 -0.13126984 -0.09385941 0.031348377 0.0424597 0.006908482 0.16018791 0.3351651 0.1861734 -0.38272882 -0.31579193 0.3041431 -0.066145055 0.2342577 0.08677358 -0.1039812 0.15460937 0.3832558 0.11884651 -0.014430631 0.03674326 -0.51316047 0.22572535 -0.047579475 0.009773913 0.03787403 -0.25287047 -0.11625143 0.31577992 -0.1739452 0.0543438 0.10011346 -0.19184315 0.094032735 -0.009959705 -0.15446834 -0.100607544 0.17663856 -0.45722786 -0.13757011 -0.003406421 -0.04638872 0.09994816 0.14350116 -0.3231674 0.02452741 0.32302174 -0.08599105 0.043764383 -0.086217344 0.1229761 0.17760353 0.12867785 -0.14415762 0.039327696 0.07510714 0.10217684 -0.14508705 0.12396417 -0.17551808 -0.013655917 -0.21182771 0.18686137 0.09412056 -0.0036107318 0.22248876 -0.039955426 0.11192777 -0.15261483 -0.29093164 0.029331565 -0.037748903 -0.10249511
результат 0.12072806 0.004638851 0.3524004 -0.29221755 -0.047658913 0.10859446 -0.19820817 -0.083453886 -0.14851929 0.3220704 -0.13265713 -0.11359392 -0.18174376 -0.11261418 0.1445204 -0.063498445 -0.029199682 -0.19814293 0.20782846 -0.17258413 -0.15144339 -0.004344619 0.13260111 -0.1859352 0.31640595 -0.19847344 -0.25248954 0.2255803 -0.12825431 -0.092449315 0.033790447 0.040153027 0.011591213 0.15709062 0.33012718 0.18101321 -0.3749678 -0.3069834 0.29658702 -0.063288 0.22793686 0.082613595 -0.103939086 0.15194409 0.3743143 0.11527142 -0.014888976 0.033829015 -0.502328 0.22054906 -0.04364267 0.01163705 0.036071334 -0.24377553 -0.11296515 0.3045946 -0.17100069 0.05363235 0.09578553 -0.18939155 0.091666244 -0.012166826 -0.15000673 -0.09745339 0.17120458 -0.44788444 -0.13370188 -0.003126067 -0.046887424 0.09492366 0.13914503 -0.31567422 0.026708528 0.31820667 -0.08373056 0.043939907 -0.0835101 0.1205925 0.17605081 0.124935396 -0.14039195 0.0389518 0.0748205 0.10153981 -0.14037535 0.12321217 -0.16923372 -0.011813155 -0.2072611 0.18229815 0.090141185 -0.0052477806 0.21545929 -0.039850183 0.10775447 -0.14982621 -0.28540173 0.027317043 -0.036772583 -0.097138464
город 0.21302472 0.010505584 0.6212583 -0.5131109 -0.085441 0.18739904 -0.34819412 -0.14689471 -0.25772607 0.5650782 -0.23192324 -0.19775996 -0.3198001 -0.19816561 0.25588045 -0.11351656 -0.05361913 -0.35489824 0.3674448 -0.30397147 -0.26668438 -0.009119258 0.23230168 -0.32630652 0.5535383 -0.34984833 -0.4439615 0.3990656 -0.22875865 -0.16152526 0.056881543 0.07032911 0.014545602 0.27826625 0.57701105 0.31796947 -0.6592415 -0.5413446 0.52022475 -0.111715816 0.4006557 0.14742073 -0.1840292 0.26676336 0.66050667 0.20393395 -0.023449808 0.061099585 -0.8770931 0.38920844 -0.08110945 0.020108556 0.06454471 -0.43099463 -0.1988952 0.53921306 -0.30019134 0.09544565 0.1677331 -0.32841116 0.16220807 -0.021032538 -0.26557207 -0.17089231 0.30222625 -0.78808945 -0.23592043 -0.00662182 -0.08488869 0.17165251 0.24450581 -0.55674493 0.046249118 0.56198853 -0.14404458 0.081513904 -0.1502455 0.21114837 0.30422735 0.22255239 -0.24588448 0.06699142 0.1285782 0.17830205 -0.24882786 0.2153402 -0.29644138 -0.025547484 -0.36203876 0.32042104 0.16257446 -0.009314557 0.37538114 -0.06996099 0.19271247 -0.26525053 -0.5014838 0.04979114 -0.065325096 -0.1722823
область 0.37511978 0.013771995 1.0949794 -0.9084364 -0.15048757 0.33311534 -0.61637586 -0.25897732 -0.4539606 0.99713707 -0.40869004 -0.34560844 -0.5601826 -0.34628782 0.4481817 -0.19968525 -0.09575511 -0.62389696 0.65138465 -0.53734636 -0.4744475 -0.013072662 0.4108416 -0.57993037 0.97454256 -0.6156251 -0.7869534 0.7052333 -0.39766926 -0.28494284 0.097564116 0.12356731 0.029414767 0.48868495 1.0195559 0.56918514 -1.1606601 -0.9505834 0.92029864 -0.19427529 0.7101099 0.25872526 -0.3241202 0.4697027 1.1663067 0.3561348 -0.04169119 0.10618813 -1.5526819 0.68478745 -0.1402852 0.037276972 0.11330197 -0.7606421 -0.34774375 0.953339 -0.53063464 0.16843157 0.29708079 -0.58234644 0.28504452 -0.037831686 -0.46952388 -0.30084217 0.5326775 -1.3906878 -0.4197629 -0.011018836 -0.1465934 0.29916817 0.42899626 -0.9794594 0.08085491 0.9882172 -0.25503537 0.13963823 -0.26302487 0.37109905 0.5438471 0.39185145 -0.43742347 0.11511925 0.22914769 0.31109282 -0.43797135 0.37842408 -0.5266392 -0.040212385 -0.64088845 0.56543547 0.28526443 -0.0147710685 0.6676513 -0.11910335 0.33949187 -0.46898457 -0.888888 0.08892473 -0.11639889 -0.30219167
находиться 0.3654769 0.015292805 1.0645589 -0.8856758 -0.14576977 0.3252252 -0.59718555 -0.25439507 -0.4414293 0.9692367 -0.39737675 -0.33768377 -0.5469173 -0.33933154 0.43604025 -0.19406314 -0.09138777 -0.60569775 0.6312255 -0.5234183 -0.45779398 -0.016916879 0.3993601 -0.56508446 0.95001656 -0.600688 -0.76660544 0.6863861 -0.39052373 -0.2753938 0.09701213 0.1234919 0.02960888 0.47530785 0.9900613 0.5514168 -1.129389 -0.9261358 0.8932413 -0.19016567 0.6920682 0.2539542 -0.31729302 0.4558782 1.1366901 0.34627756 -0.035655864 0.10775151 -1.5088648 0.66633964 -0.13660844 0.03697463 0.10868764 -0.7424729 -0.33997586 0.9265768 -0.51706207 0.16502154 0.28957632 -0.56695527 0.27612254 -0.039319377 -0.45632988 -0.2922234 0.5195235 -1.3517405 -0.4065322 -0.010020184 -0.14215794 0.29222324 0.4173966 -0.9513066 0.08126896 0.96218795 -0.2497842 0.1344491 -0.25642166 0.36301866 0.52623886 0.38082534 -0.42378125 0.11398012 0.22009476 0.3051368 -0.4260416 0.37146544 -0.51100725 -0.03979969 -0.6243722 0.55235535 0.27657944 -0.014787041 0.64899963 -0.11816394 0.33105883 -0.45599937 -0.86448824 0.08707842 -0.11179135 -0.2960269
мочь 0.12984076 0.00509172 0.37906134 -0.3176278 -0.053528238 0.11812014 -0.21072437 -0.09274487 -0.15516081 0.345181 -0.14096327 -0.1191252 -0.19456154 -0.119275354 0.15490913 -0.068632364 -0.033661604 -0.21720791 0.22683479 -0.18397297 -0.16568434 -0.0065347585 0.14143439 -0.20117083 0.33929014 -0.21660231 -0.27413806 0.24253553 -0.13896994 -0.09718769 0.033707045 0.045742534 0.010156213 0.16890882 0.35068476 0.1948495 -0.40399143 -0.33360365 0.31808126 -0.06828821 0.24463515 0.08924253 -0.11097429 0.16345352 0.40521452 0.12423758 -0.014361899 0.04018762 -0.53987396 0.23601311 -0.04776657 0.013186803 0.03977412 -0.26647368 -0.11960291 0.33129686 -0.18555301 0.058384273 0.105310224 -0.20322457 0.096531026 -0.013421927 -0.16170223 -0.10325927 0.1864255 -0.48330486 -0.14521073 -0.004786687 -0.05327368 0.10493051 0.14953773 -0.34076068 0.025534505 0.34266025 -0.0870516 0.04832072 -0.09301584 0.12777378 0.18842545 0.13393031 -0.14969434 0.03918219 0.07719272 0.108974926 -0.15282458 0.13225156 -0.18240753 -0.01387715 -0.21954536 0.19615732 0.10179018 -0.0044519706 0.2296526 -0.04216661 0.117503025 -0.16461241 -0.30840036 0.02827422 -0.04071696 -0.105514765
мчс 0.10462927 0.00502804 0.30477405 -0.2570347 -0.040953964 0.09349966 -0.17012845 -0.07348297 -0.1257879 0.27910656 -0.11481465 -0.09813456 -0.1557264 -0.09581415 0.12292917 -0.056946807 -0.023969974 -0.17503834 0.18454446 -0.15097533 -0.13432331 -0.0051829657 0.11431216 -0.1611975 0.27224997 -0.17484164 -0.2184516 0.19656618 -0.11299449 -0.07681995 0.030856779 0.036936503 0.01052611 0.13916127 0.2829261 0.16254486 -0.32212755 -0.2652581 0.26015455 -0.055459213 0.20149997 0.0714514 -0.092183076 0.13305262 0.3257156 0.10132972 -0.010336764 0.028114418 -0.43804094 0.19234858 -0.041808836 0.009595835 0.03054216 -0.21707352 -0.10094107 0.2671237 -0.15048727 0.049098663 0.085469246 -0.16244443 0.083056845 -0.010744156 -0.12912723 -0.08626567 0.14761642 -0.38716152 -0.11672134 -0.003075666 -0.03881268 0.08329845 0.11856426 -0.27652287 0.022472143 0.27844173 -0.07385801 0.03915149 -0.07452649 0.10397118 0.15591073 0.109789655 -0.12345137 0.032056835 0.060753327 0.08855911 -0.12319302 0.105630346 -0.14387955 -0.007197476 -0.18241504 0.15462829 0.080885015 -0.004678031 0.1890043 -0.036159515 0.099820815 -0.13321793 -0.24742486 0.025712991 -0.03615981 -0.084055446
время 0.12671098 0.005287821 0.37183273 -0.30954042 -0.05064422 0.11163287 -0.20642036 -0.0894984 -0.15371332 0.33770806 -0.13780454 -0.11759734 -0.18757048 -0.119826265 0.15240952 -0.06853053 -0.032303255 -0.20969918 0.22086312 -0.17862691 -0.16007014 -0.00881813 0.13903928 -0.19530869 0.32844546 -0.20922238 -0.26551905 0.23976205 -0.13693629 -0.09745834 0.03231698 0.044117983 0.009238005 0.16509342 0.34164062 0.1923976 -0.394221 -0.32485357 0.3080555 -0.06788412 0.24301142 0.086365126 -0.11054401 0.15833984 0.39255422 0.120737456 -0.015489126 0.036994934 -0.5237159 0.23369335 -0.043857522 0.009058038 0.038882352 -0.26006004 -0.11831336 0.32062522 -0.17806008 0.05926693 0.09873332 -0.1988353 0.097737804 -0.0139313545 -0.15975286 -0.09855528 0.1797139 -0.4672493 -0.14140083 -0.0039574374 -0.04946234 0.101762556 0.14538565 -0.32923058 0.02818669 0.3343843 -0.08851235 0.048803214 -0.08996241 0.123140685 0.18580268 0.13301897 -0.14429419 0.040530957 0.07493504 0.10274296 -0.15137812 0.12950706 -0.17622608 -0.012471739 -0.2177054 0.19146456 0.09609607 -0.0050894003 0.22681731 -0.040137492 0.11542822 -0.15848805 -0.29874045 0.030894913 -0.03856786 -0.10372939
штат 0.12752074 0.007435968 0.37150642 -0.30845532 -0.05015027 0.11625199 -0.20671892 -0.09122515 -0.1527182 0.3399079 -0.1374397 -0.12008581 -0.19212013 -0.120293684 0.15531744 -0.06955313 -0.03212403 -0.21054806 0.22352238 -0.18388401 -0.16284901 -0.0045524496 0.13756973 -0.19810015 0.33037636 -0.20614095 -0.26543805 0.24141254 -0.13495226 -0.094988465 0.03465216 0.042677723 0.0063725146 0.16533421 0.34497687 0.19309233 -0.39619887 -0.3226101 0.31069165 -0.06636371 0.24184576 0.08640793 -0.11102002 0.16026056 0.3965246 0.1223145 -0.017465798 0.03566927 -0.52506727 0.23113576 -0.050425746 0.010282666 0.038075425 -0.25758553 -0.11758036 0.31959888 -0.18340231 0.057195913 0.09994689 -0.19840011 0.09430142 -0.013254284 -0.15656376 -0.10426211 0.18120998 -0.4712781 -0.13975579 -0.0027904694 -0.04842389 0.098271206 0.14582652 -0.33139634 0.028316854 0.33682516 -0.08994399 0.043830175 -0.091726854 0.12364797 0.18167132 0.13320783 -0.14799568 0.041678607 0.07826748 0.10751572 -0.15100881 0.12810105 -0.17694686 -0.013126513 -0.22025561 0.19511895 0.093628794 -0.0051520783 0.22422117 -0.039658308 0.11727562 -0.16168033 -0.29892826 0.03075742 -0.038603306 -0.10073685
из-за 0.118247025 0.004771738 0.3462028 -0.28347656 -0.04642466 0.10393691 -0.19471036 -0.08177498 -0.14434668 0.31322953 -0.12778641 -0.109031945 -0.17756328 -0.11168787 0.14237289 -0.064569995 -0.030358799 -0.19798034 0.20253137 -0.16699226 -0.1488903 -0.006097635 0.12824199 -0.18181576 0.30978116 -0.1938936 -0.24698825 0.22336158 -0.12278112 -0.08926156 0.031745788 0.03830862 0.009126556 0.153483 0.3192939 0.1764186 -0.36693636 -0.29934186 0.28716025 -0.06048135 0.22471118 0.08309985 -0.10421474 0.14740591 0.3649852 0.11256855 -0.011081385 0.035333022 -0.4856476 0.21720773 -0.04325025 0.012498068 0.035857186 -0.23813795 -0.11026149 0.29948136 -0.16522782 0.051329408 0.09558367 -0.18246394 0.089166865 -0.011463758 -0.14640222 -0.09070651 0.16563836 -0.4357291 -0.1295816 -0.0020012287 -0.046933282 0.09340725 0.13407329 -0.3086055 0.028790215 0.31211248 -0.081901774 0.04284378 -0.08207743 0.11580121 0.1718747 0.122377604 -0.13684139 0.036896117 0.069494374 0.09755316 -0.13593799 0.1241696 -0.16361642 -0.014436686 -0.20326477 0.17790101 0.08870743 -0.0039762245 0.209767 -0.0390915 0.107539125 -0.14789887 -0.27659002 0.025833849 -0.036320623 -0.09220603
гаити 0.116023034 0.0019395478 0.34178358 -0.2834268 -0.04506411 0.10390671 -0.1903004 -0.07788069 -0.14500713 0.30974376 -0.12909873 -0.10803311 -0.17616224 -0.10749349 0.13985811 -0.062195998 -0.028085215 -0.19482163 0.2012399 -0.16582957 -0.14468683 -0.0038126719 0.12769635 -0.18325631 0.30190185 -0.19067019 -0.24397278 0.21645686 -0.12571484 -0.08862678 0.03451077 0.039639983 0.009136751 0.15237617 0.31703338 0.17620966 -0.36123067 -0.29503524 0.28671372 -0.060826685 0.22151396 0.079743706 -0.101144634 0.14404538 0.3639609 0.10943789 -0.0099081695 0.032189827 -0.48249307 0.21564934 -0.043502312 0.011073428 0.036904678 -0.2370902 -0.10948156 0.29443747 -0.16355275 0.052505065 0.090586394 -0.17960006 0.0864191 -0.015134361 -0.1459835 -0.09218074 0.16554125 -0.43141878 -0.13173977 -0.0015570247 -0.046792317 0.092098475 0.13283877 -0.30243927 0.025392491 0.30642936 -0.079200774 0.04470092 -0.08353419 0.113311306 0.16854008 0.12310562 -0.13642922 0.036625583 0.072823375 0.09632746 -0.13692537 0.11983946 -0.16387884 -0.011204274 -0.19831274 0.17539634 0.09142258 -0.0020846813 0.20567146 -0.03908181 0.10322736 -0.14491728 -0.27769324 0.027188662 -0.034742974 -0.09353551
сказать 0.4662922 0.017145162 1.357742 -1.1266471 -0.1871349 0.41451952 -0.7606133 -0.32454875 -0.56244886 1.2387629 -0.50613534 -0.42427066 -0.6960883 -0.42917588 0.55371505 -0.24661958 -0.117563866 -0.7725915 0.8047842 -0.66697925 -0.5873588 -0.016103594 0.5100785 -0.720051 1.2091408 -0.7643439 -0.9764402 0.87357646 -0.49380702 -0.35234836 0.12520413 0.15836859 0.034429144 0.60420984 1.2612449 0.7025219 -1.4359365 -1.1802443 1.1379809 -0.24142264 0.8804533 0.3221731 -0.40035266 0.5831602 1.444499 0.43970352 -0.047691416 0.13291745 -1.9208798 0.8478815 -0.17466922 0.048370026 0.14048004 -0.9462829 -0.43208072 1.1821847 -0.6561054 0.2116979 0.37071884 -0.72265524 0.35431162 -0.047148794 -0.58314276 -0.37474093 0.6623985 -1.7209904 -0.5174211 -0.014183633 -0.18118772 0.3713611 0.53059006 -1.2144548 0.10212279 1.2254559 -0.31767333 0.17146371 -0.32568386 0.4595835 0.66777897 0.48171496 -0.539869 0.14397289 0.28198433 0.38679644 -0.54338723 0.47210005 -0.65166426 -0.051173277 -0.7966899 0.70389813 0.35277978 -0.017285952 0.82577604 -0.14997113 0.41959208 -0.5813866 -1.1010256 0.11074771 -0.14289176 -0.37420943
ветер 0.12815936 0.0060480935 0.36924213 -0.30723554 -0.053185023 0.11318111 -0.20714447 -0.08675694 -0.15430407 0.33134502 -0.1365537 -0.11871957 -0.18935603 -0.117848895 0.15283343 -0.065669805 -0.03420661 -0.21246977 0.21835558 -0.18148437 -0.15904064 -0.004450603 0.13938457 -0.19581045 0.32650933 -0.2074023 -0.26414654 0.23808323 -0.13608368 -0.09590362 0.03602202 0.04255264 0.010252283 0.16370584 0.34300467 0.18970686 -0.38809016 -0.3205598 0.30953792 -0.068966545 0.24056762 0.089515716 -0.1091686 0.15914752 0.3914031 0.12186657 -0.014675717 0.035279058 -0.52433926 0.23102959 -0.045855116 0.012589284 0.03579889 -0.25757724 -0.11516886 0.32247058 -0.17508322 0.053991433 0.10259896 -0.19433695 0.094009764 -0.010925968 -0.15900008 -0.103752464 0.18265572 -0.46913922 -0.14071438 -0.00395382 -0.050317395 0.09916544 0.14226559 -0.3312371 0.030361505 0.33448943 -0.08891752 0.044974245 -0.08603745 0.12652148 0.1792764 0.13185361 -0.14902058 0.036920562 0.077558555 0.10177394 -0.14764713 0.13067357 -0.17861375 -0.013248337 -0.21629667 0.18977615 0.09495198 -0.0052622813 0.22374192 -0.042767946 0.11904993 -0.15967807 -0.29811803 0.027052157 -0.03769994 -0.10172379
число 0.101197116 0.0040141167 0.2916461 -0.24489288 -0.04030069 0.08888392 -0.1622979 -0.06723745 -0.12233521 0.26758614 -0.10747002 -0.09134228 -0.15060392 -0.09044268 0.11835935 -0.053684197 -0.025231747 -0.16800538 0.17461923 -0.1415844 -0.12703234 0.00013043077 0.11092239 -0.15422453 0.2611554 -0.16658528 -0.21059102 0.18738015 -0.106974654 -0.07581649 0.026077034 0.035112265 0.009323142 0.13002913 0.27359313 0.1526421 -0.31136245 -0.2565255 0.2427536 -0.051558137 0.18874934 0.06967401 -0.0846613 0.12603204 0.31132287 0.09517042 -0.010906163 0.029522954 -0.4124851 0.1808721 -0.037175577 0.010109675 0.029874379 -0.20664734 -0.095797576 0.2539478 -0.14387159 0.04436431 0.0801772 -0.15748988 0.07499325 -0.0090333475 -0.124922425 -0.078657545 0.14265324 -0.37295216 -0.112407014 -0.0037696804 -0.037164222 0.079470925 0.11321224 -0.26093018 0.020023344 0.2660267 -0.069025055 0.03473348 -0.07181761 0.10072132 0.143002 0.102456555 -0.11699305 0.033342566 0.058270503 0.082425855 -0.11733181 0.09986803 -0.14232524 -0.010685188 -0.17035432 0.15302117 0.0754399 -0.004701261 0.17910482 -0.03270625 0.088871196 -0.12305247 -0.23698892 0.024313327 -0.03262599 -0.08104973
погибать 0.46873507 0.017048309 1.3659478 -1.1355225 -0.18768103 0.4153658 -0.7661823 -0.32484505 -0.5638879 1.2430558 -0.51151067 -0.43013823 -0.6999756 -0.43391946 0.55587745 -0.2491683 -0.11988119 -0.7770183 0.81235147 -0.66809106 -0.5895816 -0.018213822 0.5154729 -0.72726476 1.2173108 -0.76958656 -0.9799736 0.8788027 -0.49683702 -0.35437825 0.12466851 0.16020347 0.036750115 0.60922235 1.2706496 0.7069447 -1.4488248 -1.1893685 1.145813 -0.2437168 0.8865767 0.32403132 -0.4024619 0.5849809 1.4550925 0.44379696 -0.049199753 0.13378389 -1.9377795 0.8545409 -0.17663437 0.045464687 0.14157762 -0.95118135 -0.43689218 1.1880336 -0.66263306 0.21129678 0.37285927 -0.7250436 0.3566705 -0.046141367 -0.58616215 -0.37597424 0.6689026 -1.7323445 -0.5216706 -0.011939426 -0.1825451 0.3760068 0.5353082 -1.2224721 0.10205056 1.2337714 -0.32074258 0.17272986 -0.32774776 0.46212977 0.67523146 0.48661092 -0.5432018 0.14476842 0.28180173 0.38945046 -0.5488542 0.47608426 -0.6547744 -0.05128756 -0.80131644 0.7051065 0.35712448 -0.016750095 0.8323646 -0.15070198 0.42360312 -0.5853223 -1.1087884 0.11239928 -0.14356686 -0.3777679
пострадать 0.48675492 0.018203152 1.4203542 -1.1795696 -0.19562697 0.43337554 -0.79620606 -0.33772272 -0.5885051 1.2941245 -0.53143036 -0.44748732 -0.7278962 -0.4510114 0.5802317 -0.25715238 -0.12397041 -0.8071405 0.84297806 -0.6968028 -0.61096174 -0.017612712 0.53306574 -0.7543182 1.2660025 -0.79884 -1.0209334 0.91286564 -0.51812094 -0.36630315 0.12809555 0.16491565 0.039525192 0.63375485 1.3202525 0.73609936 -1.5050802 -1.2345116 1.1928391 -0.25365022 0.9220898 0.3357876 -0.41886288 0.60818106 1.5112599 0.46215105 -0.05016621 0.14056665 -2.013711 0.88853055 -0.18345112 0.0489388 0.1465288 -0.987336 -0.45627314 1.2342683 -0.68873584 0.22167802 0.38758454 -0.75462615 0.36895514 -0.050414257 -0.60965025 -0.3907157 0.69231445 -1.801348 -0.5416273 -0.013208893 -0.18979655 0.38964579 0.55382156 -1.270658 0.10480091 1.2835908 -0.33456606 0.17895305 -0.34226757 0.4815295 0.70406914 0.50651425 -0.5648534 0.1520239 0.29356846 0.40579784 -0.56802684 0.49399823 -0.68187046 -0.052277833 -0.8315016 0.7346834 0.36987114 -0.017412834 0.864511 -0.15868402 0.4386061 -0.6073607 -1.1540354 0.11565699 -0.15065908 -0.3936875
ситуация 0.20990656 0.009661909 0.60856295 -0.5058751 -0.083863206 0.18520714 -0.34079194 -0.14388546 -0.25171897 0.5508562 -0.22598408 -0.19380665 -0.31078494 -0.19304153 0.24774891 -0.11087237 -0.05076809 -0.34491065 0.36049694 -0.29825208 -0.26124424 -0.007769477 0.22883098 -0.32090595 0.5406333 -0.3422422 -0.43507665 0.39244053 -0.22051361 -0.15718244 0.054685425 0.071333714 0.0152109135 0.27436882 0.56503785 0.3159122 -0.6447419 -0.52897 0.51178193 -0.10832384 0.39371648 0.14355762 -0.18094522 0.26139674 0.64686114 0.19789563 -0.023548177 0.06061587 -0.85948205 0.38044325 -0.07612844 0.020778606 0.060191423 -0.42476574 -0.1948137 0.527439 -0.29454204 0.094314784 0.16438828 -0.32441345 0.15536721 -0.02182965 -0.26014107 -0.1677831 0.29797038 -0.7697778 -0.23274538 -0.0038967612 -0.0805761 0.16516972 0.23922254 -0.5437176 0.04397609 0.5497163 -0.14246789 0.07572831 -0.1462105 0.20744504 0.30150065 0.21662568 -0.24264333 0.066629715 0.12603058 0.17460907 -0.24508506 0.21236391 -0.29344726 -0.020540377 -0.3564489 0.31593242 0.15631026 -0.0069982745 0.36872086 -0.06918877 0.19150382 -0.2586529 -0.49382958 0.048319332 -0.06490136 -0.16798192
весь 0.14434078 0.0055283625 0.42413914 -0.34905326 -0.058753476 0.12769686 -0.23587699 -0.100857146 -0.17558748 0.38448656 -0.15839034 -0.1344047 -0.21855439 -0.13360454 0.17632204 -0.07496599 -0.034358025 -0.23933028 0.25069502 -0.20691414 -0.18489467 -0.0040101465 0.16202553 -0.2265858 0.37867787 -0.24034323 -0.30315974 0.27295896 -0.1537361 -0.10783927 0.037791062 0.049601134 0.01126178 0.1903281 0.38860318 0.21924429 -0.44440165 -0.3664283 0.3544521 -0.074426204 0.27359578 0.09888608 -0.12438384 0.18235508 0.44493663 0.13685769 -0.016490236 0.043016955 -0.59802717 0.2599376 -0.053239096 0.016283145 0.045545045 -0.2906942 -0.13457659 0.36596623 -0.20608698 0.06316343 0.11541832 -0.22236556 0.11001057 -0.010956878 -0.18167046 -0.11344084 0.20979677 -0.5349032 -0.1662746 -0.004703349 -0.058026064 0.11576698 0.16227387 -0.3766445 0.030263485 0.3828278 -0.099597245 0.057375953 -0.10187253 0.14480318 0.20951682 0.15268637 -0.1680861 0.0473333 0.08691135 0.12180665 -0.1688693 0.14466648 -0.2033545 -0.015257792 -0.24903068 0.22032501 0.11108837 -0.009041397 0.25530085 -0.04633379 0.12765327 -0.1808039 -0.34140667 0.033900723 -0.04311067 -0.114204
вода 0.22759622 0.0094384635 0.6597432 -0.5481849 -0.09254146 0.20096126 -0.36968172 -0.15773372 -0.2732353 0.6054064 -0.25001857 -0.20900145 -0.34286544 -0.21140315 0.26816133 -0.12388397 -0.05636364 -0.373629 0.39358175 -0.32470754 -0.28877062 -0.010071312 0.25018486 -0.35125774 0.5896473 -0.37430093 -0.47414216 0.42391026 -0.24178182 -0.16912812 0.06180203 0.076019086 0.015948309 0.2959453 0.61331296 0.3431286 -0.696248 -0.57571465 0.556761 -0.11764648 0.43069303 0.15635997 -0.19519624 0.28585804 0.7011588 0.21711741 -0.020182503 0.06481101 -0.94030356 0.4120183 -0.0861765 0.02255526 0.06837571 -0.4589009 -0.210002 0.57537293 -0.31837457 0.1017144 0.18014807 -0.35234395 0.1741646 -0.026218355 -0.2842243 -0.18070509 0.3234724 -0.8410596 -0.250073 -0.008368229 -0.088710494 0.18176691 0.26045883 -0.5922936 0.05096922 0.59581375 -0.15609509 0.08309383 -0.15868832 0.22670078 0.32841405 0.23706803 -0.2637011 0.06734052 0.1393138 0.19179834 -0.26888084 0.22884291 -0.3175789 -0.026869677 -0.38735896 0.34236455 0.17096616 -0.007959286 0.40282524 -0.073882215 0.20258857 -0.28229454 -0.5415261 0.0557847 -0.069691725 -0.18420304
километр 0.13806774 0.0051262965 0.39887682 -0.32926357 -0.053261723 0.12292148 -0.22375697 -0.09576771 -0.16403843 0.36157334 -0.14885734 -0.12659752 -0.20131546 -0.12580872 0.16309461 -0.07379516 -0.034143988 -0.22656204 0.23395021 -0.19404945 -0.17015883 -0.0051419106 0.14696777 -0.2105317 0.35548502 -0.22280256 -0.28319547 0.25693944 -0.14401315 -0.10331392 0.036638018 0.0451699 0.0087638255 0.17775129 0.36894307 0.20511945 -0.42143807 -0.34635296 0.3337094 -0.072218604 0.25811705 0.094741 -0.11732875 0.17248137 0.42149413 0.12944014 -0.013837274 0.04053311 -0.5642185 0.24898237 -0.05119953 0.014931404 0.04196415 -0.27642015 -0.12265505 0.34618637 -0.19115487 0.062126055 0.10743157 -0.21196651 0.10437485 -0.013129067 -0.17104861 -0.10728926 0.19459632 -0.50299484 -0.14936167 -0.0023764477 -0.0548242 0.108454615 0.15334208 -0.3574 0.02967497 0.35881504 -0.09426357 0.052810613 -0.09612511 0.1336902 0.19586566 0.14362428 -0.16056128 0.043450054 0.082348555 0.11348718 -0.15897939 0.13857415 -0.19148992 -0.01313585 -0.23189108 0.20781156 0.10420583 -0.007423971 0.241071 -0.044765756 0.12340699 -0.1729223 -0.32404497 0.030683875 -0.042846445 -0.109137096
час 0.12514131 0.005957321 0.36136934 -0.29843265 -0.054461647 0.11088943 -0.20027757 -0.08275459 -0.14746687 0.33251497 -0.13462295 -0.110446766 -0.18375424 -0.113443375 0.14928757 -0.06277654 -0.03111746 -0.20402667 0.21654932 -0.1789905 -0.15766993 -0.003439626 0.13618377 -0.18994746 0.3235404 -0.20457843 -0.25784954 0.23261021 -0.13272023 -0.092993535 0.032420106 0.044238858 0.006288558 0.15864177 0.33296728 0.18418367 -0.3825126 -0.3168096 0.30551276 -0.063481286 0.22950527 0.085355826 -0.107244715 0.1571593 0.3831305 0.11840089 -0.010968884 0.037995033 -0.50951093 0.2228098 -0.04633504 0.014284515 0.03658494 -0.2558488 -0.11467605 0.31504753 -0.17030072 0.056352444 0.10014736 -0.19156756 0.09345871 -0.015057662 -0.15539405 -0.09902137 0.17470302 -0.45500487 -0.13627361 -0.002163029 -0.045942303 0.09924609 0.13690343 -0.32054195 0.026191477 0.324769 -0.0819505 0.0450768 -0.08721212 0.12313588 0.17886022 0.12752455 -0.14285453 0.03518701 0.074650355 0.1001504 -0.1497486 0.12690541 -0.17131104 -0.01532518 -0.20848556 0.18724966 0.091159336 -0.006364751 0.21882269 -0.038608927 0.114223614 -0.15283263 -0.28966755 0.025011552 -0.04006574 -0.10227375
помощь 0.20104516 0.008098838 0.5804713 -0.48438865 -0.081150465 0.17748387 -0.32735097 -0.1369224 -0.24067949 0.529236 -0.21803471 -0.18321794 -0.29888785 -0.18467207 0.23622201 -0.10427126 -0.0522166 -0.33079267 0.3471145 -0.28686658 -0.25068882 -0.0107473545 0.21827695 -0.31014064 0.518894 -0.32890132 -0.41841778 0.37484464 -0.21253192 -0.14994489 0.051811222 0.06764891 0.016116828 0.25976303 0.54180396 0.3010946 -0.618389 -0.5063345 0.49069425 -0.10229884 0.37690884 0.13760407 -0.17224653 0.24874881 0.619372 0.18933193 -0.021389704 0.05538317 -0.82939607 0.36575896 -0.07546576 0.020036835 0.05690603 -0.40345463 -0.18637514 0.50509393 -0.28287894 0.08986302 0.15917836 -0.3090521 0.14946985 -0.019589208 -0.24924745 -0.15912725 0.28483465 -0.73801947 -0.22168751 -0.005130544 -0.07612839 0.15877348 0.23003583 -0.51988065 0.044769745 0.52822185 -0.13559133 0.073220566 -0.14000826 0.19709495 0.2907344 0.20907071 -0.23119959 0.065164395 0.12153209 0.16681165 -0.23196913 0.20267455 -0.27957955 -0.021563563 -0.3408663 0.3001473 0.15257059 -0.010213611 0.35480046 -0.06486808 0.18018131 -0.24895015 -0.47411546 0.04691921 -0.060078245 -0.16131057
достигать 0.40708292 0.016383052 1.1917387 -0.9893473 -0.16509704 0.36338794 -0.6691856 -0.28342 -0.4958893 1.0844203 -0.44450074 -0.37526506 -0.61280525 -0.37778652 0.4841304 -0.2152695 -0.1034196 -0.6795695 0.7060426 -0.58516484 -0.51452434 -0.016499892 0.4466346 -0.63045746 1.0603201 -0.6691319 -0.85365593 0.766238 -0.43389896 -0.30686504 0.10558932 0.13896158 0.032424573 0.53030914 1.1073793 0.61679894 -1.2607422 -1.0359343 0.9997459 -0.21546972 0.77217484 0.2838595 -0.34901577 0.51022404 1.2660422 0.3847039 -0.04128228 0.11750765 -1.6860597 0.7444346 -0.15475981 0.04170438 0.1227199 -0.83000016 -0.38032946 1.0366849 -0.57618713 0.1859336 0.3244804 -0.6320895 0.31078318 -0.043081284 -0.5095407 -0.32827163 0.5806993 -1.5114608 -0.45510247 -0.012670826 -0.15855937 0.32727966 0.46425503 -1.0623584 0.089353696 1.0733644 -0.27586675 0.14864004 -0.28616205 0.40453058 0.5894517 0.4246701 -0.47586614 0.12637049 0.24759059 0.33834738 -0.47634703 0.41408166 -0.57208663 -0.043842807 -0.69852906 0.6170589 0.30793774 -0.016122814 0.724996 -0.13188206 0.36862156 -0.50932294 -0.9654214 0.09634833 -0.124921665 -0.3290836
япония 0.15441096 0.008390267 0.4536581 -0.3751215 -0.06417527 0.13497181 -0.25276366 -0.1069636 -0.18645784 0.4103888 -0.16792803 -0.13905954 -0.23084922 -0.1411146 0.18402128 -0.082828686 -0.041021895 -0.2566418 0.2699332 -0.22201787 -0.19466832 -0.004406346 0.1686567 -0.24161771 0.4040835 -0.25470802 -0.3264947 0.2923234 -0.164952 -0.11775171 0.04025991 0.05146538 0.0130579015 0.2034951 0.41931462 0.23292258 -0.47594047 -0.39357463 0.3793395 -0.079947405 0.29344845 0.104004785 -0.1313494 0.19440818 0.48215228 0.14587091 -0.018457552 0.04254865 -0.63974 0.28358752 -0.056259055 0.018094897 0.045486197 -0.31495506 -0.14510223 0.39395195 -0.2183473 0.06940742 0.12136001 -0.2400791 0.116585895 -0.012969854 -0.19562575 -0.124158144 0.21914424 -0.57176185 -0.1724246 -0.004245588 -0.06261709 0.12540925 0.1743252 -0.4051912 0.034293044 0.40702364 -0.10481399 0.05677271 -0.11048366 0.15327449 0.22280726 0.1610745 -0.17741898 0.048870306 0.09447486 0.12848647 -0.17985506 0.15717897 -0.21704754 -0.015138018 -0.26297876 0.23188958 0.11718415 -0.0043159644 0.27548426 -0.049683068 0.13865216 -0.1931326 -0.36586642 0.037267316 -0.04578474 -0.12605223
20 0.095892824 0.0007158241 0.29743105 -0.24338296 -0.03932401 0.08839558 -0.16382033 -0.07057432 -0.12388558 0.26843157 -0.112929165 -0.08839305 -0.14777464 -0.09712761 0.120261036 -0.05731281 -0.03234464 -0.16759121 0.17383248 -0.14867163 -0.12686981 -0.00092669984 0.11328145 -0.16232927 0.26362672 -0.16393307 -0.21143726 0.19366431 -0.10466804 -0.077606335 0.03017577 0.038289532 0.010834479 0.12941298 0.2707493 0.15410559 -0.31349573 -0.2552222 0.25318742 -0.053424112 0.19370914 0.072848834 -0.08453935 0.12532759 0.3081634 0.092657186 -0.01565263 0.03171956 -0.4168342 0.18405281 -0.03695097 0.00882521 0.02855011 -0.20314254 -0.09138469 0.2550225 -0.1402015 0.044680838 0.072918706 -0.15256862 0.07393402 -0.012157469 -0.1257382 -0.077665135 0.14550254 -0.37437955 -0.115227476 -0.0033378347 -0.037945244 0.080215424 0.110605106 -0.26534346 0.020586671 0.26219562 -0.0727826 0.03418595 -0.069723815 0.09997999 0.1503126 0.1084594 -0.11253521 0.035844527 0.05792007 0.08394067 -0.11754089 0.10324852 -0.14345796 -0.013574965 -0.16684648 0.1502402 0.07905252 -0.0037148828 0.18021494 -0.03550922 0.09808211 -0.13150878 -0.24280627 0.025412695 -0.03051536 -0.07915097
регион 0.15060133 0.006599711 0.44237748 -0.3650827 -0.05905144 0.1377641 -0.24829242 -0.106279686 -0.18247925 0.40180364 -0.16569369 -0.14035253 -0.22758745 -0.13894568 0.1784193 -0.07875859 -0.035195358 -0.2529536 0.26201648 -0.21720116 -0.1920115 -0.0034360823 0.16576718 -0.23452342 0.39503708 -0.24806118 -0.318139 0.28377756 -0.16234075 -0.11348143 0.040059492 0.05148372 0.011849608 0.1967788 0.41247147 0.22817351 -0.4693495 -0.38641566 0.37066418 -0.08017597 0.28661937 0.10351874 -0.13153091 0.18734139 0.47302523 0.14599241 -0.01613687 0.04718228 -0.62752265 0.27683926 -0.05621514 0.016622102 0.045773555 -0.3056459 -0.14080612 0.3851448 -0.21381305 0.069218814 0.12316058 -0.23532163 0.11473188 -0.014967682 -0.1889143 -0.11950451 0.21456635 -0.5621472 -0.16989361 -0.0031257663 -0.060449865 0.11789813 0.17290236 -0.39401114 0.034567744 0.3999029 -0.10403092 0.058376495 -0.10563372 0.14881594 0.21765609 0.15822412 -0.17919272 0.047218546 0.09101576 0.12466242 -0.17750694 0.15551266 -0.21265243 -0.01651857 -0.26069203 0.22910455 0.11611862 -0.00734898 0.26919946 -0.046323452 0.1373572 -0.18816446 -0.3586055 0.03504964 -0.047195125 -0.12065679
майкл 0.06693347 0.003074737 0.19480471 -0.16056056 -0.028465213 0.059620537 -0.109828666 -0.047255028 -0.07796509 0.17550969 -0.07345428 -0.06154702 -0.100230746 -0.062409524 0.07743704 -0.035262696 -0.014395249 -0.11017721 0.11545727 -0.09516545 -0.08539091 -0.005675415 0.07246427 -0.10231955 0.16998938 -0.10886707 -0.13941194 0.12804098 -0.06919101 -0.049883943 0.01941264 0.024756419 0.007222114 0.0862858 0.17922734 0.10256781 -0.20842105 -0.16621314 0.16304637 -0.034460906 0.122739755 0.0457673 -0.057456817 0.08117392 0.2049649 0.060934126 -0.006719032 0.02036545 -0.2731171 0.12138833 -0.024750806 0.007505407 0.019732838 -0.13471328 -0.06278511 0.16857323 -0.095612295 0.030105412 0.052712843 -0.10456994 0.050398957 -0.004118838 -0.08474083 -0.052226476 0.09250135 -0.24559681 -0.07477932 -0.0042894185 -0.027189914 0.054451905 0.07650611 -0.17286931 0.016448906 0.17788273 -0.043421313 0.023959804 -0.04723518 0.06262515 0.09506216 0.067695126 -0.07711469 0.021826947 0.04044382 0.052293435 -0.07538323 0.069303155 -0.08883665 -0.006124519 -0.11511314 0.097904354 0.047645018 -0.00092136965 0.11677833 -0.019886602 0.06419266 -0.08384216 -0.15858822 0.017553354 -0.021198051 -0.05542838
около 0.13384287 0.0064004892 0.40194604 -0.33429986 -0.053783793 0.12239465 -0.22538611 -0.09537254 -0.16654542 0.3658598 -0.15083565 -0.12646323 -0.20588699 -0.1285148 0.1654269 -0.07324694 -0.033834886 -0.23212703 0.23934178 -0.19643453 -0.17252 -0.004775754 0.15014145 -0.2118847 0.35441586 -0.22722057 -0.2901307 0.25790408 -0.14528066 -0.10379661 0.037849434 0.04516002 0.011047965 0.17863537 0.375906 0.20600216 -0.42740288 -0.35128334 0.3354974 -0.07231743 0.25879678 0.09441922 -0.11873048 0.17235011 0.42932332 0.13121442 -0.015387164 0.0398612 -0.56945115 0.24952959 -0.053680107 0.015059639 0.042720843 -0.27819148 -0.12874478 0.35046434 -0.19355878 0.06389714 0.107470274 -0.2137603 0.104937285 -0.012263421 -0.17264676 -0.10918962 0.19446564 -0.50959337 -0.15195975 -0.002724349 -0.051924787 0.11024352 0.15887423 -0.35749722 0.031108353 0.3628984 -0.0950911 0.054367237 -0.09671863 0.13904291 0.1996483 0.1434758 -0.15969555 0.04263244 0.082205735 0.11352331 -0.16050492 0.14361858 -0.1905945 -0.015321539 -0.2394245 0.21005878 0.101747595 -0.0046368926 0.24795489 -0.04503832 0.12816375 -0.17224535 -0.32521972 0.035207108 -0.044289783 -0.110871926
российский 0.27757406 0.010212001 0.80631506 -0.66881657 -0.11262055 0.2459792 -0.45516008 -0.19132765 -0.3333918 0.73199785 -0.30183983 -0.25497642 -0.41185197 -0.2570449 0.3299038 -0.14470944 -0.07023702 -0.4581829 0.47882357 -0.39583263 -0.348754 -0.010891097 0.29996723 -0.42689097 0.7183396 -0.45563054 -0.5788319 0.519166 -0.29567692 -0.20945612 0.07211365 0.094738506 0.022202536 0.3598446 0.74865943 0.4194968 -0.8523028 -0.70139545 0.6782617 -0.14370234 0.52262855 0.19106089 -0.23866847 0.34456497 0.85749364 0.26057786 -0.02763812 0.07986973 -1.1420757 0.5061437 -0.103033416 0.027604965 0.08174331 -0.56130385 -0.25848824 0.7013798 -0.38857365 0.12541604 0.21875216 -0.42583328 0.20985499 -0.026034545 -0.34634933 -0.21791981 0.39250913 -1.0226879 -0.30924442 -0.007954184 -0.10755859 0.21833548 0.31635603 -0.71866506 0.059468202 0.7272232 -0.18941715 0.10385661 -0.19088903 0.27288342 0.39827633 0.28640738 -0.31992108 0.085124284 0.16576417 0.23137066 -0.32367024 0.28054297 -0.3870743 -0.0280042 -0.47237733 0.4181548 0.2096479 -0.0089321695 0.49141523 -0.08901744 0.2496494 -0.34328285 -0.65693784 0.06569999 -0.08411237 -0.22276641
центр 0.15563765 0.009025848 0.4519968 -0.37822637 -0.05987205 0.13848503 -0.25388178 -0.105236515 -0.18603596 0.41249368 -0.17124113 -0.1446259 -0.23365532 -0.14591976 0.18627112 -0.08184147 -0.03921978 -0.25835136 0.27138817 -0.22274181 -0.19731146 -0.0074300994 0.17071827 -0.23977393 0.40089554 -0.2546248 -0.32546297 0.29039446 -0.16683212 -0.11559741 0.04117535 0.052789543 0.011452961 0.20115195 0.4218441 0.2359345 -0.48105928 -0.3927107 0.379847 -0.08020142 0.29445618 0.108517654 -0.13217327 0.19626029 0.48189214 0.14665775 -0.018384613 0.044932466 -0.6423126 0.2843342 -0.057691984 0.018005846 0.046894062 -0.3138847 -0.14710158 0.39714617 -0.218965 0.0699105 0.12312104 -0.24058768 0.11808144 -0.015412362 -0.19714938 -0.12676351 0.22289507 -0.57655966 -0.17036693 -0.0041097584 -0.060917947 0.12641126 0.17482114 -0.40582296 0.03451878 0.40732488 -0.10546141 0.055597562 -0.11071197 0.15447895 0.2234099 0.15972222 -0.18139264 0.047183633 0.09356343 0.13090625 -0.18460478 0.1601904 -0.21698497 -0.014663259 -0.26569456 0.23679842 0.11987433 -0.0065803644 0.27410433 -0.050885797 0.14210601 -0.19541045 -0.36781403 0.035259824 -0.046038397 -0.12714785
самолет 0.13480186 0.0077370442 0.38969356 -0.32482514 -0.05352803 0.11790951 -0.22053376 -0.091589265 -0.15870927 0.35572442 -0.14342967 -0.1229 -0.20082901 -0.1226476 0.15885182 -0.072579905 -0.03311252 -0.22046815 0.23243707 -0.19071469 -0.16911823 -0.0027633966 0.1470034 -0.20524064 0.34905943 -0.21910854 -0.28175628 0.25040326 -0.14044027 -0.10034903 0.03592231 0.043856874 0.010204736 0.17234814 0.36219233 0.20303224 -0.4138952 -0.34039867 0.32864362 -0.07134048 0.2562406 0.09367056 -0.11481904 0.16729589 0.4131189 0.12999737 -0.014392362 0.03704834 -0.55215025 0.24481307 -0.052336544 0.012868985 0.0400771 -0.26944673 -0.12537324 0.34032458 -0.18898709 0.061029073 0.107669294 -0.20688438 0.10359714 -0.014144085 -0.16804591 -0.1062123 0.1910391 -0.49429947 -0.148602 -0.0038683505 -0.05369353 0.10787852 0.15171911 -0.34837204 0.027888518 0.35079354 -0.09006324 0.048776016 -0.09308443 0.13322473 0.19321765 0.14052704 -0.15558854 0.042267013 0.079693995 0.110870026 -0.15550505 0.13682637 -0.18735962 -0.016641269 -0.22940312 0.20240933 0.10152827 -0.006408347 0.23841189 -0.043622773 0.12157867 -0.1670145 -0.31560507 0.033371493 -0.040044557 -0.10929712
побережье 0.13934898 0.0050922954 0.40417603 -0.33821487 -0.057197932 0.12338747 -0.22997908 -0.09643255 -0.16851625 0.36838835 -0.15424289 -0.12763438 -0.20913075 -0.12993184 0.16538192 -0.07198966 -0.0359462 -0.2327552 0.24009612 -0.19981466 -0.17616515 -0.005816265 0.15184231 -0.21285343 0.36380354 -0.22785947 -0.29246637 0.2611475 -0.14606008 -0.10288637 0.03721473 0.04738039 0.013231849 0.17932512 0.3792708 0.21182396 -0.43032905 -0.35140878 0.3415189 -0.07179122 0.2638719 0.09523062 -0.12184549 0.17300226 0.43218476 0.13080198 -0.016350515 0.0384365 -0.57618684 0.2537107 -0.05390714 0.014432765 0.041275807 -0.28443792 -0.13048398 0.3534392 -0.19714783 0.06253856 0.11110117 -0.21555911 0.107001886 -0.014933041 -0.17393696 -0.1125203 0.19627686 -0.5143044 -0.15462738 -0.0031308527 -0.054584965 0.110401005 0.15915027 -0.36208233 0.03043219 0.36674634 -0.09614765 0.050194476 -0.098071545 0.13704169 0.19970872 0.1465311 -0.16303454 0.043023095 0.08536794 0.11529538 -0.16301338 0.1429253 -0.19583848 -0.013196299 -0.2382057 0.20975274 0.10617788 -0.005248557 0.24583872 -0.04605191 0.12484458 -0.17375298 -0.32865214 0.031482957 -0.04298211 -0.11234174
сила 0.12913623 0.0046024807 0.37199908 -0.3103326 -0.051410332 0.11218731 -0.20747752 -0.08845041 -0.15362662 0.33686298 -0.13856 -0.11680968 -0.18854213 -0.12121575 0.15004216 -0.06966686 -0.032445982 -0.20929235 0.21851902 -0.18203248 -0.15745756 -0.003726472 0.1379609 -0.19865419 0.33260432 -0.2082963 -0.2637928 0.2405252 -0.13475055 -0.09795175 0.034372583 0.04432082 0.0097950315 0.1652577 0.34543857 0.19104943 -0.39223424 -0.32248285 0.3119565 -0.06577347 0.24305524 0.08391044 -0.11043307 0.15910009 0.396346 0.12238791 -0.013373508 0.03696874 -0.52469677 0.22816673 -0.0454862 0.013789794 0.04056245 -0.25919235 -0.11867276 0.32271603 -0.18168347 0.060387477 0.10123385 -0.19925351 0.09401295 -0.013335018 -0.15518747 -0.103059895 0.17784339 -0.4693065 -0.14240788 -0.004888616 -0.04927995 0.098602004 0.14601798 -0.3344518 0.028479517 0.33538213 -0.09005756 0.046388462 -0.08959813 0.12275164 0.18526803 0.12900081 -0.14807814 0.039788034 0.0786024 0.10847137 -0.14787492 0.1310737 -0.17917246 -0.01410583 -0.21881957 0.19747625 0.09781001 -0.0016438651 0.23018338 -0.038187545 0.11732681 -0.15978833 -0.3007445 0.032252416 -0.038648486 -0.102721095
1 0.096588776 -0.0009152501 0.28462124 -0.22942525 -0.03280528 0.08011117 -0.16356213 -0.07019354 -0.11593637 0.26091343 -0.10056125 -0.0944339 -0.15099043 -0.087433204 0.1161634 -0.045625426 -0.022928795 -0.16066104 0.16760498 -0.13931143 -0.1248978 -0.0035156661 0.104208395 -0.14777449 0.25119308 -0.15834631 -0.20652221 0.18205737 -0.09766704 -0.0784625 0.027073301 0.032278314 0.014613199 0.124579355 0.26943654 0.1458258 -0.30101132 -0.2453907 0.23557976 -0.049214255 0.18409315 0.061470926 -0.0811118 0.12529965 0.29589325 0.090810865 -0.0030757207 0.03166536 -0.39954823 0.18077877 -0.03473796 0.008920538 0.020668458 -0.1914219 -0.0882803 0.23889035 -0.13581607 0.047218174 0.08011226 -0.14872763 0.07678103 -0.00528774 -0.119395114 -0.07246593 0.13956699 -0.35848492 -0.11106349 -0.0061712237 -0.036085986 0.077488154 0.11561076 -0.25314468 0.01722333 0.25652763 -0.06662656 0.039225012 -0.07095511 0.102064535 0.13915554 0.09993054 -0.11011454 0.026375309 0.06464044 0.08060591 -0.11203619 0.102736674 -0.13111246 -0.0077321692 -0.16050315 0.14560483 0.063728 0.0040727574 0.16990481 -0.031991914 0.086133845 -0.122499436 -0.22166139 0.022208814 -0.03311343 -0.07790212
несколько 0.12104483 0.006045528 0.35228112 -0.29379466 -0.046819612 0.11027013 -0.19812138 -0.083213136 -0.14653383 0.32137308 -0.13209012 -0.11314694 -0.18131767 -0.112277225 0.14639695 -0.0625547 -0.030617213 -0.20244744 0.2086011 -0.17330876 -0.15215908 -0.0038543313 0.1335436 -0.18540868 0.31722942 -0.19735585 -0.25247234 0.22669947 -0.12956333 -0.09105693 0.033465303 0.041795827 0.009775969 0.15468884 0.32953238 0.18174922 -0.37507042 -0.3071887 0.2962931 -0.06308276 0.2290666 0.08391838 -0.10368687 0.15037587 0.3758756 0.11214621 -0.012398643 0.035234816 -0.49993 0.2198153 -0.043869577 0.010594188 0.03702452 -0.24640694 -0.11502194 0.30712464 -0.16944534 0.054138012 0.09557336 -0.18658492 0.09204851 -0.013497956 -0.15065686 -0.09759892 0.17285164 -0.44902864 -0.13426885 -0.0026845855 -0.04910211 0.09768245 0.13765015 -0.31548014 0.025951259 0.3190189 -0.082185216 0.04598271 -0.085316524 0.12029015 0.17512926 0.12517202 -0.14013527 0.03942274 0.07385477 0.10010211 -0.1426807 0.12191659 -0.16977634 -0.01160803 -0.20698741 0.18391849 0.09105081 -0.0038140612 0.21463257 -0.039160524 0.108197905 -0.15287542 -0.2856876 0.030704182 -0.036652487 -0.095497064
тыс 0.11953722 0.005624364 0.35049674 -0.29207546 -0.05364368 0.10630173 -0.19871011 -0.083089694 -0.14551136 0.31562334 -0.13004623 -0.10798929 -0.1764114 -0.11033549 0.14065124 -0.06473327 -0.035056967 -0.19784991 0.20793019 -0.16911156 -0.14817277 -0.0067348895 0.1302434 -0.18450765 0.30693963 -0.19676515 -0.25198087 0.22625935 -0.12738788 -0.09523632 0.030179879 0.03838377 0.0096324235 0.15956946 0.3244521 0.18331732 -0.3709813 -0.3025904 0.28912377 -0.061656218 0.22851118 0.08062333 -0.10222562 0.15490593 0.37039518 0.1127319 -0.009603418 0.03730383 -0.49561056 0.22016795 -0.04134193 0.009801656 0.03600603 -0.23981206 -0.11140723 0.30187163 -0.17071782 0.05327582 0.100092836 -0.1881356 0.091905005 -0.013757064 -0.15206221 -0.09425493 0.17031267 -0.44225278 -0.13181813 -0.0044678715 -0.047383625 0.097404495 0.13687305 -0.310536 0.02571824 0.31564188 -0.08452178 0.040070336 -0.08143996 0.11709111 0.17283373 0.12697618 -0.14232258 0.037781466 0.06799566 0.09806981 -0.14042734 0.1193315 -0.16623367 -0.010100424 -0.20599045 0.17969808 0.0906945 -0.005050711 0.21521154 -0.041844495 0.10823591 -0.1489212 -0.28189406 0.030239971 -0.036901917 -0.09325565
ранее 0.12737921 0.0051359828 0.37278432 -0.30796418 -0.052171465 0.1121515 -0.20960505 -0.08917572 -0.15441704 0.3408168 -0.13862999 -0.11710301 -0.18911585 -0.12133093 0.15378618 -0.068278335 -0.032751124 -0.21274114 0.22389802 -0.18349893 -0.16251713 -0.0012472158 0.13963619 -0.19498359 0.3335799 -0.2099104 -0.26565936 0.23684472 -0.13672774 -0.09240162 0.035763856 0.040093668 0.008318837 0.16510049 0.34732392 0.19210461 -0.39355162 -0.32316133 0.31327254 -0.06807453 0.2410951 0.08999082 -0.11153368 0.16081168 0.39613625 0.11817853 -0.010803852 0.036994897 -0.5292017 0.23270658 -0.049901567 0.012868135 0.037485138 -0.25917587 -0.12118562 0.32422855 -0.18002607 0.058029685 0.10302438 -0.19704573 0.09471972 -0.012398285 -0.1600563 -0.10191929 0.18381578 -0.47044668 -0.14299431 -0.0033693302 -0.04846478 0.102948874 0.1437358 -0.33515725 0.02832799 0.33875546 -0.08695602 0.04782111 -0.08729496 0.12532803 0.18517326 0.13605815 -0.14977342 0.041596707 0.07959604 0.106436126 -0.15244743 0.12761204 -0.17900449 -0.013753599 -0.21825084 0.18978585 0.095872305 -0.004373237 0.22711171 -0.04501124 0.11637526 -0.15771459 -0.29991046 0.02945867 -0.040992275 -0.10501943
власть 0.37792307 0.013820912 1.1001424 -0.91339797 -0.15335238 0.3343052 -0.61879677 -0.26230583 -0.457608 1.0015615 -0.41140944 -0.34574473 -0.56515104 -0.34849077 0.44920042 -0.19995809 -0.09565298 -0.62541693 0.65436405 -0.54078984 -0.47718012 -0.014945633 0.41139805 -0.5844212 0.98185873 -0.62034255 -0.7908914 0.7082117 -0.399712 -0.28576028 0.10003256 0.12585832 0.03166061 0.49348962 1.0241859 0.57307893 -1.1672094 -0.9581869 0.9258301 -0.19574562 0.71401197 0.2605897 -0.327242 0.47037005 1.1726327 0.35640264 -0.03926342 0.10870486 -1.5631056 0.68709385 -0.14058082 0.03839687 0.112077095 -0.76748616 -0.34904775 0.9602853 -0.5330009 0.17092694 0.2969543 -0.58396685 0.2848647 -0.037996367 -0.47347772 -0.3022566 0.53697574 -1.3983204 -0.42132846 -0.010658485 -0.14662556 0.3021324 0.43070436 -0.984766 0.08270715 0.9955547 -0.25717592 0.14163096 -0.26585555 0.36965683 0.5453521 0.39403206 -0.44052094 0.11794881 0.23096772 0.31481168 -0.4397215 0.3808862 -0.5285748 -0.040915877 -0.6455112 0.5685484 0.28655428 -0.018022507 0.66920257 -0.120209254 0.3409444 -0.4724044 -0.89195764 0.090434544 -0.11883472 -0.3050178
флорида 0.0910573 0.0050555663 0.26855248 -0.2228135 -0.03729014 0.08270086 -0.14859481 -0.06388185 -0.111938454 0.24544254 -0.10112644 -0.08683577 -0.13609849 -0.08479276 0.10712751 -0.049240712 -0.022145005 -0.15268412 0.15782192 -0.13397206 -0.11402916 -0.0050288304 0.09885574 -0.13803357 0.23858124 -0.14926966 -0.19063267 0.17548735 -0.09593825 -0.06970919 0.025035819 0.032011967 0.004758068 0.119146295 0.25011224 0.13764389 -0.2843227 -0.23212275 0.22330017 -0.048453566 0.17308843 0.06377878 -0.07907472 0.11346092 0.28388503 0.08856044 -0.009151364 0.027174372 -0.37879953 0.16596851 -0.033502854 0.0070622396 0.026672637 -0.18790129 -0.08320157 0.23369128 -0.13108316 0.04206692 0.07364391 -0.14139132 0.07021327 -0.010375516 -0.11405043 -0.073492214 0.13139376 -0.33681777 -0.10129933 -0.0024955166 -0.033701617 0.07455907 0.10265535 -0.23965831 0.019063609 0.24071975 -0.065131195 0.03370304 -0.06501134 0.09195375 0.13331436 0.09655299 -0.10873754 0.029255299 0.057465848 0.07821407 -0.10645199 0.09257237 -0.12922397 -0.010547061 -0.15591106 0.14052375 0.0692456 -0.0020071478 0.1623714 -0.03177122 0.08207684 -0.11511 -0.21848373 0.022161491 -0.027520357 -0.07429449
связь 0.07825191 0.0039536282 0.2307302 -0.18953481 -0.033035137 0.06976402 -0.13109864 -0.053399585 -0.0933758 0.21152036 -0.08725442 -0.07260193 -0.11880984 -0.071266 0.09430621 -0.042748135 -0.019368058 -0.13185173 0.13594754 -0.11155338 -0.10097912 -0.002430947 0.08436374 -0.123473495 0.20782891 -0.12896082 -0.16362692 0.15015449 -0.08486713 -0.06372256 0.022315495 0.025410865 0.0061988323 0.10230646 0.21410868 0.12059793 -0.24401732 -0.20172018 0.1940182 -0.039462447 0.1515067 0.053395946 -0.06614923 0.09630461 0.2442462 0.07476723 -0.006853575 0.024134666 -0.3265292 0.14299163 -0.031109707 0.008157428 0.02234875 -0.16189417 -0.0756161 0.20134875 -0.112935595 0.038952786 0.06139913 -0.12605615 0.060706172 -0.007180366 -0.09857981 -0.06340923 0.116569206 -0.29267094 -0.08676393 -0.0034635249 -0.029133141 0.062967405 0.09017176 -0.20772888 0.018422203 0.20928168 -0.054441247 0.030934304 -0.056033645 0.07852653 0.11376377 0.08307646 -0.09464517 0.0224551 0.048231293 0.066825576 -0.09304485 0.08058298 -0.11030035 -0.0062513878 -0.13403246 0.116593845 0.058571912 -0.0023947281 0.14241448 -0.02486447 0.07047076 -0.10115262 -0.18747535 0.017839897 -0.021953933 -0.06471048
сообщение 0.33941856 0.013547419 0.9931838 -0.82607645 -0.13633735 0.3018668 -0.5608713 -0.23682338 -0.41327065 0.90413594 -0.37152416 -0.31406394 -0.5090905 -0.3146172 0.4053017 -0.18045607 -0.085951254 -0.5660415 0.59020114 -0.48821002 -0.4297519 -0.013469618 0.37308547 -0.5264797 0.8880507 -0.55900705 -0.71349674 0.63884014 -0.36262915 -0.2561523 0.08910716 0.11585965 0.02857971 0.44559658 0.921648 0.51374334 -1.0523465 -0.8644633 0.83577967 -0.18007341 0.64429456 0.23475416 -0.29495138 0.4263393 1.0588105 0.32247117 -0.03646602 0.09772758 -1.4086148 0.62172294 -0.12689102 0.03429974 0.103088506 -0.69055986 -0.31799236 0.8636162 -0.48177752 0.15435556 0.267669 -0.526869 0.25767797 -0.03628873 -0.42673725 -0.27147448 0.48642614 -1.2611772 -0.3770332 -0.007081953 -0.13460274 0.2699773 0.38778502 -0.8870937 0.07405747 0.8970878 -0.23316304 0.12810321 -0.23671159 0.33524176 0.49101844 0.3547109 -0.39448026 0.10789924 0.20484534 0.28320634 -0.3977614 0.34285697 -0.47812006 -0.037069827 -0.58291954 0.5125777 0.25843227 -0.012902787 0.6071338 -0.11073507 0.30931032 -0.42382562 -0.8070717 0.08189099 -0.10745532 -0.2758408
заявлять 0.36687204 0.01496338 1.0632485 -0.88362366 -0.14596063 0.32352945 -0.5951565 -0.2541577 -0.44009832 0.9695243 -0.3979857 -0.33375207 -0.5454797 -0.33763427 0.43401197 -0.19258794 -0.09186606 -0.6063396 0.62946326 -0.5220589 -0.4613519 -0.012648917 0.39755753 -0.5637629 0.949562 -0.5960931 -0.7633273 0.68451947 -0.38514596 -0.27614662 0.09565634 0.123507455 0.030767106 0.47238138 0.98702776 0.5481668 -1.124509 -0.92541313 0.892158 -0.19025305 0.6888844 0.25238025 -0.31480405 0.45584127 1.1329237 0.34515953 -0.037282977 0.10239225 -1.5106483 0.6633187 -0.13731962 0.03510072 0.109284155 -0.7417515 -0.3395052 0.92639005 -0.5147607 0.16520704 0.2902926 -0.5646068 0.27313617 -0.03701034 -0.45493394 -0.29291892 0.5190922 -1.3496184 -0.40654084 -0.011820562 -0.14246137 0.29181227 0.41716412 -0.95034486 0.07981287 0.96039236 -0.24852426 0.13680418 -0.25532824 0.36092567 0.52755433 0.37938026 -0.42420155 0.11167654 0.22110616 0.30266678 -0.42602313 0.36919734 -0.51147765 -0.037495498 -0.62409174 0.55097985 0.27638766 -0.012640626 0.6486903 -0.11768228 0.32913157 -0.45624912 -0.86487156 0.08697485 -0.1135383 -0.2933058
погибший 0.20543528 0.007726004 0.59819937 -0.49564192 -0.07947367 0.18064012 -0.33614963 -0.14225112 -0.24638155 0.5436311 -0.22314356 -0.1878114 -0.3073212 -0.19044663 0.24449879 -0.110561125 -0.05328447 -0.33803734 0.3548555 -0.29241008 -0.258959 -0.007881061 0.22556359 -0.3177807 0.5324815 -0.3383104 -0.4278435 0.38519627 -0.21502253 -0.15281753 0.05321179 0.06880119 0.017307231 0.2641545 0.5532202 0.30842113 -0.63291776 -0.5192428 0.50200313 -0.105751194 0.38706306 0.14261717 -0.1750714 0.25693738 0.63635707 0.19419135 -0.023061397 0.057417218 -0.8468141 0.37190616 -0.07925724 0.019384585 0.06286575 -0.414826 -0.19295636 0.5199553 -0.29012766 0.09166184 0.1631483 -0.31795445 0.15555035 -0.020010946 -0.25591567 -0.16276963 0.29421738 -0.75667775 -0.22773397 -0.005374152 -0.08035758 0.16676857 0.23345587 -0.53481925 0.0440686 0.53847927 -0.14120558 0.07632302 -0.14245966 0.20275314 0.29426712 0.21134874 -0.23541683 0.06431517 0.121779345 0.16983183 -0.24031721 0.20816347 -0.28568268 -0.023079384 -0.35026938 0.30901235 0.15633625 -0.0081320135 0.36480445 -0.06631547 0.18541786 -0.25559935 -0.48583865 0.049716566 -0.061725117 -0.16459216
жертва 0.075050615 0.0040915427 0.22080202 -0.18328053 -0.031167185 0.06630265 -0.12168395 -0.05069539 -0.091529846 0.19936873 -0.083654426 -0.07106317 -0.114156544 -0.07046285 0.08951544 -0.03800365 -0.018356504 -0.12769572 0.13224949 -0.109521315 -0.0952349 -0.0046688975 0.083955765 -0.11606933 0.19827878 -0.12470724 -0.15804075 0.14411308 -0.07905847 -0.05838518 0.018053016 0.02561523 0.007818757 0.09877745 0.20565037 0.11413263 -0.23479798 -0.19087233 0.18478012 -0.03692345 0.14230834 0.050482746 -0.061903972 0.09370792 0.2333484 0.07019276 -0.0077713737 0.021114456 -0.31021687 0.13775425 -0.028444942 0.007415807 0.020582976 -0.15236285 -0.07192072 0.1912435 -0.1082627 0.032960404 0.06268586 -0.11525653 0.05634504 -0.0071146577 -0.09696068 -0.059645288 0.107306354 -0.2785419 -0.08238575 -0.0022872975 -0.026374921 0.060236942 0.08637402 -0.19761875 0.01645941 0.19973873 -0.053555258 0.027575675 -0.052769504 0.073712304 0.10745749 0.07798395 -0.08706798 0.023749912 0.045242332 0.06480679 -0.08710778 0.0767355 -0.10378146 -0.009439618 -0.1303594 0.11356038 0.05645255 -0.003365186 0.13406107 -0.024174144 0.06747439 -0.0939592 -0.17842111 0.019097328 -0.023558175 -0.06176117
слово 0.1641032 0.0064364914 0.47377664 -0.39452532 -0.065547444 0.14390273 -0.26258883 -0.112269 -0.19789271 0.43149424 -0.17913368 -0.1499453 -0.24516377 -0.14933707 0.19209525 -0.086804725 -0.042645037 -0.27305612 0.28131017 -0.2332492 -0.20567165 -0.005398424 0.17991683 -0.25249928 0.42378035 -0.26553127 -0.34061176 0.3035971 -0.17165487 -0.124945275 0.04240132 0.053974032 0.013873357 0.21306081 0.44138423 0.2473449 -0.5012381 -0.4123755 0.39850166 -0.08652036 0.30921707 0.110443264 -0.14055187 0.20551606 0.5038628 0.15624103 -0.015535477 0.046741225 -0.67399997 0.29617676 -0.06265061 0.013827695 0.048796248 -0.33158466 -0.15323453 0.411282 -0.23082164 0.07479766 0.12934072 -0.2508245 0.12234338 -0.018471561 -0.20296632 -0.12713246 0.23259701 -0.60372543 -0.18175918 -0.0024335044 -0.06247165 0.12792605 0.18486734 -0.4264004 0.037396323 0.43044358 -0.11107727 0.061508607 -0.115035936 0.16002263 0.2349907 0.17105582 -0.1933345 0.05342114 0.09960168 0.1372733 -0.19134156 0.164856 -0.22746055 -0.014147997 -0.27965608 0.24790782 0.12532169 -0.005074227 0.29206797 -0.054849513 0.14881553 -0.20340492 -0.38236436 0.03956189 -0.04760872 -0.1323086
скорость 0.32471046 0.0132664405 0.9548261 -0.79214233 -0.13071571 0.28878367 -0.5348416 -0.22642991 -0.39688173 0.87071186 -0.35437828 -0.30144897 -0.48874626 -0.30384997 0.3878942 -0.17211296 -0.08159911 -0.542705 0.5674926 -0.46947697 -0.41159475 -0.013135554 0.35822228 -0.5049036 0.85031706 -0.5338536 -0.68440276 0.6153398 -0.3486075 -0.24889763 0.087777 0.109608784 0.02670163 0.4262904 0.88627297 0.49491477 -1.0104197 -0.8301566 0.8002616 -0.16971399 0.61939645 0.22621748 -0.28346446 0.4087368 1.0172137 0.31043512 -0.03497078 0.095000535 -1.3521502 0.59422106 -0.12306037 0.03300651 0.09856816 -0.66508013 -0.30373085 0.8295151 -0.46114317 0.14732093 0.25915483 -0.50555617 0.24803592 -0.032759972 -0.41054437 -0.26245144 0.46430874 -1.2110487 -0.36519054 -0.010666064 -0.12922595 0.26390368 0.37441707 -0.8543456 0.071840934 0.8601523 -0.22566313 0.12083763 -0.22884467 0.3240914 0.47173437 0.34043887 -0.38039488 0.1015183 0.19971275 0.27161717 -0.38218352 0.33048922 -0.4573452 -0.03603777 -0.5591945 0.4955812 0.2511171 -0.011910952 0.5826938 -0.10317856 0.29646036 -0.40559158 -0.7739731 0.07597346 -0.10130116 -0.26569763
житель 0.24413574 0.009026097 0.7098022 -0.58841074 -0.096036546 0.21371163 -0.39841843 -0.16760643 -0.29226145 0.64575446 -0.2644078 -0.22199513 -0.36083564 -0.22298403 0.28712124 -0.1300712 -0.060385905 -0.40528765 0.42107275 -0.34900498 -0.30578145 -0.010032264 0.26527205 -0.37307835 0.6326769 -0.3964288 -0.5084865 0.45668256 -0.25733122 -0.18337256 0.06457669 0.08528964 0.01729022 0.3148642 0.65722704 0.3673578 -0.74925494 -0.6153561 0.59507436 -0.12507124 0.4594588 0.16685379 -0.20754424 0.3030062 0.7534817 0.23117189 -0.024933917 0.07023726 -1.0055475 0.44249535 -0.0919688 0.024720639 0.074173264 -0.49242568 -0.22861096 0.6148119 -0.34091377 0.111186214 0.1944098 -0.37782675 0.18321243 -0.023944462 -0.30324408 -0.19518268 0.34273472 -0.89928716 -0.26969624 -0.0036975597 -0.09500414 0.19410922 0.27792564 -0.6341407 0.05301073 0.63952446 -0.16688311 0.089319885 -0.170194 0.24006212 0.3510381 0.2533336 -0.28287902 0.07502883 0.14669733 0.19982345 -0.28286466 0.24635892 -0.3412327 -0.025917912 -0.41349947 0.36930773 0.18717495 -0.0078689875 0.4343269 -0.07736575 0.2166233 -0.30274424 -0.574221 0.057400282 -0.076143324 -0.19709875
префектура 0.1606531 0.005383122 0.4617332 -0.3834248 -0.063250124 0.13947459 -0.25947887 -0.1117159 -0.19015749 0.42196757 -0.17322542 -0.14609472 -0.2373916 -0.14662969 0.18885572 -0.081601955 -0.04072165 -0.26287207 0.27535957 -0.22973926 -0.20064634 -0.0077678715 0.17004195 -0.24427852 0.41281092 -0.25959286 -0.33204004 0.29735374 -0.16937317 -0.11987611 0.042450685 0.05261532 0.012484371 0.20646887 0.43014917 0.23966911 -0.49002063 -0.40262046 0.38832012 -0.08372458 0.30131605 0.11029579 -0.13637464 0.19807789 0.49193203 0.14863099 -0.014854605 0.04690849 -0.65739053 0.28811035 -0.059145812 0.016966682 0.04813679 -0.322621 -0.14939223 0.40219238 -0.22345313 0.07465643 0.12580708 -0.24547616 0.11949051 -0.01670819 -0.19781594 -0.128582 0.22611418 -0.58633745 -0.17493515 -0.0033046065 -0.061925832 0.12691449 0.17946899 -0.414495 0.034077715 0.41640714 -0.10767429 0.060186446 -0.11165877 0.15694347 0.2302133 0.16477337 -0.18340929 0.048301112 0.09417539 0.13143088 -0.18413281 0.16114014 -0.22314031 -0.017818272 -0.2714044 0.23901002 0.1202714 -0.005386654 0.283211 -0.051793166 0.14265779 -0.1974659 -0.3739199 0.038804937 -0.050473128 -0.12836511
россия 0.20798527 0.008986833 0.60803646 -0.50350744 -0.08260224 0.1861599 -0.34254596 -0.14476337 -0.25264123 0.55281746 -0.22609651 -0.19260304 -0.3096217 -0.19339828 0.24730876 -0.10756016 -0.053290557 -0.34500068 0.3612469 -0.29946208 -0.26044223 -0.0072642933 0.22594495 -0.32132125 0.5416971 -0.345395 -0.4385791 0.3897822 -0.22379115 -0.1573699 0.05271153 0.07161727 0.014490841 0.2707685 0.5629442 0.3169038 -0.6414734 -0.5268932 0.5115313 -0.11054532 0.39386073 0.1431596 -0.17976749 0.25977215 0.64935625 0.19633214 -0.0221409 0.057264116 -0.8622311 0.3823694 -0.07685139 0.018968457 0.061623342 -0.4240003 -0.19631666 0.5294225 -0.29198924 0.09652668 0.16558127 -0.32403862 0.15765703 -0.018459192 -0.2607998 -0.16308117 0.29742557 -0.7706264 -0.23158205 -0.005832296 -0.080340154 0.16429754 0.23654027 -0.5409688 0.048238795 0.5491916 -0.14375742 0.07691948 -0.14583254 0.20563442 0.30167785 0.21769719 -0.2412186 0.06457964 0.12483703 0.17419957 -0.24414407 0.21329224 -0.29366693 -0.02267707 -0.35487908 0.3179938 0.15889338 -0.007899558 0.36806396 -0.067263745 0.18809418 -0.259627 -0.49584103 0.050770786 -0.06450277 -0.17031832
сильный 0.47903538 0.022024248 1.394878 -1.1592232 -0.19018686 0.42386162 -0.7836849 -0.33038667 -0.5796101 1.2719725 -0.5212533 -0.43885037 -0.7144082 -0.44198054 0.56805927 -0.2531163 -0.12058876 -0.7930098 0.8313751 -0.6845671 -0.6013935 -0.018735973 0.52386373 -0.74002117 1.2450157 -0.78635806 -1.0018437 0.89852446 -0.5075149 -0.36143366 0.12583303 0.16166978 0.038448855 0.6216854 1.2982646 0.7238023 -1.4798738 -1.2135657 1.170339 -0.2524441 0.9044317 0.32961208 -0.41310605 0.59843135 1.4857141 0.4536044 -0.051262666 0.13731728 -1.9794375 0.87349105 -0.17780037 0.047885846 0.1444302 -0.9703781 -0.4463461 1.2149717 -0.67495465 0.21648273 0.37953115 -0.7429895 0.36202067 -0.05182861 -0.59691805 -0.38377357 0.68268406 -1.7740248 -0.53440946 -0.012674513 -0.18884563 0.3811621 0.54585236 -1.2472827 0.105145924 1.2618743 -0.32535434 0.17386596 -0.33748925 0.47083157 0.687607 0.49854374 -0.55703145 0.15195616 0.28930324 0.39747527 -0.55923676 0.4857126 -0.66901827 -0.05348652 -0.8183683 0.72176206 0.36410075 -0.015810441 0.8516487 -0.15300517 0.43259597 -0.5947289 -1.1322726 0.112178095 -0.14878894 -0.38584754
очаг 0.09645691 0.0055078673 0.28420714 -0.23969878 -0.041312948 0.0877453 -0.1623493 -0.07162313 -0.12259269 0.2604811 -0.107297055 -0.08679898 -0.14820962 -0.091945454 0.1190639 -0.049709428 -0.025897043 -0.16093409 0.16877812 -0.14021532 -0.121676564 -0.0038386916 0.106337935 -0.15112883 0.2554187 -0.16296338 -0.20964597 0.18564376 -0.10375149 -0.07294089 0.02548226 0.03181356 0.0066524986 0.13057798 0.2676387 0.14847976 -0.3056728 -0.24968173 0.24219841 -0.050890397 0.18505698 0.06743973 -0.08340169 0.12286461 0.308301 0.09617296 -0.006803489 0.026247757 -0.4059021 0.17893475 -0.03998135 0.010763388 0.027935045 -0.19760056 -0.09285586 0.24982478 -0.1366772 0.044272535 0.07646474 -0.1539706 0.07502121 -0.009405525 -0.1246127 -0.0789226 0.13975619 -0.3660343 -0.11352539 0.00016744494 -0.039533637 0.07799521 0.108821124 -0.25798005 0.02173506 0.26259306 -0.066134274 0.036365516 -0.0718804 0.09558317 0.1434997 0.103755094 -0.11809945 0.030240078 0.05628073 0.08375315 -0.11269861 0.09856081 -0.13776317 -0.008462674 -0.16758388 0.14967927 0.07728486 -0.0029654133 0.17110817 -0.033641018 0.08763723 -0.12176401 -0.23368177 0.024911342 -0.030615302 -0.07762938
страна 0.20324114 0.010152914 0.58628297 -0.48717177 -0.08084815 0.1777974 -0.32832137 -0.13917306 -0.24348769 0.53495705 -0.21762323 -0.18501136 -0.30218378 -0.18657519 0.24144499 -0.10754087 -0.04979001 -0.33355418 0.34565374 -0.28790683 -0.25134224 -0.008993693 0.21855234 -0.31134826 0.52398074 -0.3301865 -0.41759625 0.37394702 -0.21376525 -0.15334359 0.05288434 0.06607046 0.015362534 0.2624066 0.54500663 0.305538 -0.6202037 -0.50952643 0.4922618 -0.10317335 0.37897512 0.13533811 -0.17261143 0.2501898 0.6220151 0.19001749 -0.022416955 0.059389547 -0.8277463 0.3691465 -0.07742883 0.020860707 0.060555723 -0.40610793 -0.19008869 0.5088955 -0.28395644 0.09030801 0.15891707 -0.31061867 0.15248461 -0.019701365 -0.25173298 -0.1606332 0.28666702 -0.7429328 -0.22404909 -0.0048983144 -0.079641156 0.15984397 0.22862542 -0.5237639 0.04238726 0.52743226 -0.13799885 0.07299547 -0.14038004 0.19786756 0.28759232 0.20642848 -0.23468873 0.062745035 0.121977314 0.16690615 -0.23608203 0.20373033 -0.2806204 -0.022299804 -0.34345323 0.30438098 0.15190177 -0.007784214 0.35666826 -0.062376905 0.18294512 -0.25250778 -0.47941837 0.04836945 -0.062380385 -0.1630289
чрезвычайный 0.20826727 0.008829747 0.6126055 -0.50861055 -0.08320768 0.18713398 -0.34424767 -0.14653412 -0.2518775 0.55899566 -0.22768675 -0.19259389 -0.31516275 -0.19472708 0.24888015 -0.11216395 -0.056261286 -0.3476335 0.36362258 -0.30194196 -0.26182905 -0.0072261263 0.22793166 -0.32394198 0.54754907 -0.34358326 -0.43899983 0.3949348 -0.22376356 -0.1592577 0.056979746 0.07176899 0.01628291 0.2731699 0.56931424 0.31817356 -0.6476509 -0.5324067 0.5139633 -0.11184311 0.39775696 0.14497869 -0.17983828 0.26102063 0.6512764 0.19894077 -0.022595145 0.061241273 -0.867681 0.38144383 -0.079828665 0.020128762 0.06027727 -0.42512876 -0.19524807 0.53107184 -0.29448605 0.09482931 0.16668308 -0.327413 0.15930688 -0.02269777 -0.26277936 -0.1667578 0.3000832 -0.77697957 -0.23323591 -0.0046380353 -0.08159775 0.16962066 0.24009478 -0.54727596 0.047370266 0.55269426 -0.14238836 0.07714827 -0.14707077 0.20786327 0.30278003 0.21830778 -0.24441522 0.06593938 0.1271943 0.17402409 -0.24551183 0.21146402 -0.2929038 -0.024867887 -0.3603153 0.31553993 0.15840507 -0.0088291755 0.37332428 -0.06657258 0.19024844 -0.2606821 -0.4960613 0.049291823 -0.065232985 -0.17003345
полиция 0.25737688 0.010884295 0.74487364 -0.61795366 -0.102243766 0.2258928 -0.41781545 -0.1743009 -0.30709195 0.67850965 -0.27923432 -0.23340799 -0.38075954 -0.23602106 0.30293444 -0.13490587 -0.06540899 -0.42201212 0.44165242 -0.3648736 -0.32133052 -0.009923902 0.27709582 -0.39230385 0.664633 -0.41932008 -0.53444827 0.47817874 -0.27191234 -0.1942802 0.065840095 0.08631023 0.020625241 0.33251247 0.6915807 0.38425604 -0.7886139 -0.6495115 0.6258396 -0.13272537 0.4832967 0.17682832 -0.22065723 0.31989688 0.79275656 0.24362431 -0.028708333 0.074061364 -1.0532542 0.46321034 -0.09517445 0.02523754 0.07566284 -0.5170451 -0.23799042 0.65034014 -0.3588919 0.1180465 0.20203431 -0.39792612 0.19380714 -0.025504952 -0.32055372 -0.20502262 0.364984 -0.94492847 -0.2849966 -0.008122219 -0.100353114 0.20559497 0.29111952 -0.6668086 0.053287145 0.67165864 -0.17478105 0.09513689 -0.17833683 0.25299376 0.36927924 0.26587266 -0.2960296 0.0817823 0.15182756 0.21263982 -0.29992124 0.25766537 -0.3581708 -0.027488949 -0.43555304 0.3851618 0.19397683 -0.008819867 0.45290318 -0.08392245 0.2307938 -0.3186636 -0.60338366 0.06109448 -0.07681064 -0.20506908
режим 0.112206765 0.005392164 0.32907042 -0.26952085 -0.04459743 0.09949592 -0.18411331 -0.07724529 -0.13491145 0.29824015 -0.12249414 -0.10676329 -0.16935368 -0.108443946 0.13154651 -0.05883303 -0.02767616 -0.18892334 0.19377826 -0.16357955 -0.14243062 -0.006135391 0.12507163 -0.17304137 0.29040515 -0.18526994 -0.23729014 0.21263239 -0.11874906 -0.0840696 0.027627116 0.037124537 0.008855266 0.14538598 0.30199566 0.1694872 -0.34582093 -0.28310263 0.27738008 -0.057679996 0.21237321 0.07914693 -0.09942076 0.13935241 0.34617123 0.106204376 -0.011667282 0.035012797 -0.46391332 0.20618175 -0.042333152 0.012233629 0.03518566 -0.2284337 -0.10622319 0.28266382 -0.15739067 0.0490963 0.089468345 -0.17456673 0.08437838 -0.010254153 -0.14092176 -0.088498026 0.160635 -0.41679874 -0.12458407 -0.0047403574 -0.04347199 0.09042316 0.12897375 -0.293357 0.023344658 0.29351503 -0.07670168 0.041538104 -0.0770737 0.11031186 0.16359589 0.11582369 -0.1283579 0.03767676 0.06830166 0.09396831 -0.13281399 0.115883715 -0.15807109 -0.012241653 -0.19267787 0.1704236 0.08621232 -0.005474017 0.20070092 -0.03809746 0.10152171 -0.13952146 -0.2661726 0.023403035 -0.03380705 -0.091250435
дождь 0.08887809 0.004598178 0.26192597 -0.21870804 -0.03786752 0.079331875 -0.14617018 -0.06253451 -0.10947027 0.24093252 -0.09834741 -0.08286258 -0.13447419 -0.08509092 0.10671551 -0.04981221 -0.023451405 -0.14847568 0.15713106 -0.12629947 -0.112805195 -0.0023438693 0.09780664 -0.13991404 0.23539448 -0.1457821 -0.1916003 0.17149265 -0.09743156 -0.066027 0.021330275 0.030096637 0.0054876506 0.11593435 0.24375203 0.1388736 -0.28055564 -0.22948496 0.21754643 -0.047029838 0.1717903 0.061192553 -0.07802281 0.114112996 0.2778307 0.08437845 -0.006834096 0.026172549 -0.37339407 0.16056944 -0.03183998 0.007867171 0.025399154 -0.18194121 -0.08285489 0.23288836 -0.12732628 0.04237836 0.07120593 -0.14090137 0.0695221 -0.010316129 -0.11249877 -0.07191046 0.13016155 -0.33526933 -0.10107061 -0.003040537 -0.033392772 0.07188892 0.10082253 -0.23535372 0.02012808 0.23711969 -0.062925875 0.03206353 -0.06380613 0.08894115 0.1289531 0.09500249 -0.104837455 0.026117977 0.052985888 0.07327335 -0.10533798 0.09146644 -0.124688014 -0.008711955 -0.15252432 0.13641958 0.06812593 -0.0022219857 0.15900639 -0.030768324 0.08032163 -0.11359772 -0.21403424 0.022265436 -0.027032755 -0.07518543
глава 0.11909432 0.0043478827 0.3514964 -0.29385185 -0.049847938 0.10567388 -0.19653027 -0.083543725 -0.14665455 0.322377 -0.13063078 -0.111797474 -0.18025121 -0.11336969 0.14476766 -0.059104048 -0.02858036 -0.20254554 0.20866905 -0.1704354 -0.1526227 0.0003333445 0.13110872 -0.18457818 0.31678644 -0.19850086 -0.25209215 0.22437905 -0.12911901 -0.08895013 0.03063178 0.04004931 0.013321842 0.15633242 0.3290702 0.1815419 -0.37561417 -0.30659992 0.29598442 -0.06506724 0.2279422 0.083807126 -0.10479791 0.14959389 0.37468803 0.11117562 -0.013123402 0.034127098 -0.49933967 0.22077356 -0.045720913 0.009082656 0.03828008 -0.2474765 -0.11448705 0.3048214 -0.16886792 0.055190004 0.097930536 -0.18778211 0.09039687 -0.011374954 -0.14996944 -0.09661003 0.17114422 -0.4462105 -0.13350764 -0.0023882142 -0.044748124 0.09520341 0.1369384 -0.31592837 0.027312499 0.317875 -0.081125684 0.04750478 -0.086259626 0.12013503 0.17518446 0.12596956 -0.14065501 0.04027478 0.07165671 0.098577954 -0.13871221 0.12001489 -0.17010878 -0.017236164 -0.20747165 0.18553658 0.09192557 -0.00768673 0.21524502 -0.04087071 0.10905187 -0.15062843 -0.28795034 0.02955153 -0.03831144 -0.09573743
оставаться 0.4877316 0.01946895 1.4263294 -1.186313 -0.19743882 0.43405446 -0.8021294 -0.3404765 -0.59064007 1.3011951 -0.5346613 -0.45053735 -0.7304338 -0.45354602 0.58219546 -0.2606471 -0.12187501 -0.8147493 0.84674233 -0.7014181 -0.6156815 -0.020143919 0.5325791 -0.7559797 1.2726574 -0.8047315 -1.0272667 0.9193486 -0.52133673 -0.37035894 0.12897573 0.16349931 0.038952854 0.6384223 1.3283677 0.7386375 -1.5130239 -1.2410529 1.1992143 -0.25612003 0.9269676 0.33881068 -0.42433742 0.6121567 1.5207326 0.46461934 -0.05117888 0.13991319 -2.0241523 0.8918257 -0.18338123 0.04868539 0.14527115 -0.9953357 -0.45617968 1.2427934 -0.6944695 0.22220403 0.3870508 -0.7570351 0.37195942 -0.050633598 -0.61100733 -0.3931971 0.69612855 -1.8131342 -0.54498726 -0.014073928 -0.19073614 0.3946191 0.5583234 -1.2753149 0.10929298 1.2890698 -0.33378676 0.17905848 -0.34175572 0.48449114 0.7070563 0.50892824 -0.56829864 0.15370336 0.2956635 0.40690458 -0.57185435 0.49533573 -0.68547636 -0.052485768 -0.8383793 0.7422889 0.36991847 -0.015573697 0.8706204 -0.15867747 0.44339448 -0.6111295 -1.1582456 0.11772736 -0.15029232 -0.39520013
год 0.1483232 0.00829927 0.4387457 -0.36618406 -0.06255031 0.13220638 -0.2503341 -0.10520168 -0.18329263 0.4010911 -0.16088212 -0.14086841 -0.22525145 -0.13766335 0.18167327 -0.07856171 -0.040546644 -0.25150698 0.26140848 -0.21850307 -0.18695185 -0.004462192 0.16884916 -0.23499681 0.3926547 -0.24809384 -0.3169244 0.2809597 -0.16187726 -0.11522987 0.035517614 0.049319632 0.010396838 0.19717832 0.40929428 0.22580001 -0.46794242 -0.3876515 0.37100953 -0.07849954 0.2839182 0.105430976 -0.12827586 0.18713549 0.46658286 0.14599691 -0.017394232 0.046905197 -0.6280794 0.2740869 -0.056481037 0.0136431595 0.04448129 -0.30653936 -0.14405037 0.382847 -0.21722312 0.07070808 0.11652956 -0.23229662 0.11593517 -0.018527875 -0.18513851 -0.12299585 0.21512425 -0.56344414 -0.16661976 -0.003248345 -0.05552846 0.12507942 0.1707901 -0.3952608 0.029397318 0.3970477 -0.101663314 0.051286664 -0.10661383 0.15205558 0.2142196 0.1601621 -0.17972483 0.044112306 0.09162454 0.1263976 -0.17822613 0.15431404 -0.20933463 -0.02004823 -0.2566829 0.22750197 0.11364972 -0.008753089 0.26754016 -0.047721412 0.13531855 -0.18728472 -0.35317376 0.034193438 -0.050987434 -0.12234647
стихия 0.1527838 0.0063352752 0.45219216 -0.37211612 -0.063662015 0.13484159 -0.25042 -0.108048275 -0.18620725 0.40652564 -0.16727658 -0.14235897 -0.2309888 -0.14278537 0.18537073 -0.083337285 -0.038446847 -0.25795764 0.26613817 -0.22122094 -0.19193105 -0.0054221773 0.17102937 -0.23851891 0.40126726 -0.25215602 -0.32304105 0.28939757 -0.16461895 -0.11794783 0.039592806 0.053984303 0.011180386 0.20132011 0.416389 0.2315084 -0.47822732 -0.39491984 0.3809893 -0.082104854 0.28927374 0.104739234 -0.13102837 0.19239691 0.48255262 0.14720295 -0.016844032 0.043279298 -0.6373637 0.27978942 -0.060694996 0.015840769 0.04889427 -0.3134148 -0.14304721 0.39371586 -0.21763568 0.07134286 0.122777514 -0.24074753 0.1150894 -0.013089857 -0.19514334 -0.12501317 0.21904795 -0.5716188 -0.17264575 -0.0027919 -0.060713977 0.122836605 0.17469648 -0.4022414 0.033181842 0.40519935 -0.10467706 0.053875953 -0.10618951 0.15229174 0.22136326 0.16076615 -0.17782743 0.049531158 0.09325614 0.12799142 -0.17879882 0.15732555 -0.21808398 -0.020461293 -0.26386297 0.22986552 0.11370955 -0.0066507985 0.27481392 -0.04872552 0.14000714 -0.19265428 -0.36578062 0.036254175 -0.050153326 -0.12638795
флоренс 0.09802445 0.006049385 0.28863487 -0.23856069 -0.037830275 0.08923954 -0.16274355 -0.06794429 -0.119685866 0.2630565 -0.10797157 -0.09103735 -0.14789248 -0.09212413 0.11602847 -0.050673038 -0.024852514 -0.16359319 0.17134076 -0.1433055 -0.12454232 -0.0050582434 0.1065053 -0.14958937 0.2562482 -0.16240944 -0.20793904 0.18686332 -0.10462343 -0.073251866 0.026252229 0.033206083 0.00759004 0.12846008 0.26717624 0.14717904 -0.30611613 -0.24843206 0.24263044 -0.053250395 0.18678269 0.067638986 -0.086767636 0.12541768 0.30740765 0.09300573 -0.011412376 0.027382314 -0.4067136 0.17979822 -0.036415756 0.009680845 0.028966097 -0.20057043 -0.08941139 0.2540342 -0.13983193 0.04596008 0.08054648 -0.15172811 0.074903995 -0.011082934 -0.121829115 -0.07850933 0.13788266 -0.36468866 -0.107249975 -0.0015902715 -0.037142947 0.07726748 0.11302538 -0.25998184 0.02300281 0.26084092 -0.06586469 0.037405062 -0.07047441 0.097478606 0.1453874 0.10403043 -0.117581844 0.033726066 0.060310055 0.082486436 -0.11623269 0.100346304 -0.13940111 -0.010279027 -0.17131749 0.15040919 0.07475035 -0.0035172452 0.17484157 -0.031308137 0.0893018 -0.12416069 -0.2355051 0.022252694 -0.031125335 -0.081039906
рф 0.07716391 0.0064042276 0.2361554 -0.19774912 -0.03364745 0.07653152 -0.13069254 -0.056631453 -0.098967195 0.21394432 -0.091414794 -0.07386559 -0.12211509 -0.07615393 0.09995787 -0.045036547 -0.019671157 -0.13509133 0.13615015 -0.11593796 -0.10415209 0.0013593064 0.09287293 -0.122222334 0.20744336 -0.13184838 -0.1680924 0.14657944 -0.086082965 -0.06363532 0.017753841 0.020774238 0.0034838805 0.10688633 0.21503232 0.1205618 -0.24871027 -0.20387572 0.20136529 -0.042345546 0.15503561 0.055946782 -0.07384189 0.10191001 0.25125653 0.07541269 -0.006666654 0.02095126 -0.3304912 0.14272633 -0.03285168 0.0059363777 0.017666902 -0.16880071 -0.07523324 0.20445931 -0.110139616 0.039701425 0.069241434 -0.12091488 0.06125226 -0.0105385035 -0.09771463 -0.062884636 0.11149268 -0.29100078 -0.09419502 -0.0017948815 -0.032057185 0.063249536 0.08999362 -0.2110501 0.021527 0.20563954 -0.060945865 0.025135685 -0.056734964 0.08383887 0.117275015 0.08603954 -0.09511848 0.02341305 0.04859011 0.062965825 -0.09686305 0.08262326 -0.116020605 -0.0139096845 -0.13741708 0.12211364 0.061544955 -0.0018291099 0.14700481 -0.028033633 0.07655094 -0.10362189 -0.19066739 0.020018915 -0.027748657 -0.06161069
новость 0.36719584 0.0154835805 1.0745757 -0.8911122 -0.14799733 0.3265971 -0.6039623 -0.2575157 -0.44864222 0.9808131 -0.4010811 -0.33784366 -0.54795116 -0.34203607 0.43964538 -0.19331406 -0.09409631 -0.61185867 0.6398956 -0.5278174 -0.464967 -0.018497707 0.40286878 -0.5697444 0.95905024 -0.6034131 -0.7685475 0.692988 -0.3934999 -0.28057164 0.09495735 0.123185605 0.028930578 0.47922322 0.99912626 0.5586024 -1.1357601 -0.93399847 0.9018129 -0.19307391 0.69837505 0.25526932 -0.31767955 0.46254548 1.1467365 0.35078052 -0.039022002 0.1065837 -1.5255733 0.6695417 -0.13787213 0.038846347 0.11264125 -0.7509325 -0.34106 0.9360778 -0.52057266 0.16615164 0.29355314 -0.5704257 0.28004342 -0.03692459 -0.46041194 -0.2945444 0.524618 -1.3651137 -0.4103686 -0.007657951 -0.14347742 0.29564315 0.4175843 -0.9640069 0.079925716 0.97338164 -0.25208566 0.1388794 -0.25871682 0.3623969 0.5346549 0.38262737 -0.43162492 0.11412122 0.22230351 0.3058241 -0.4309797 0.37431335 -0.51752234 -0.04004714 -0.62912124 0.55464226 0.2790777 -0.01597004 0.656051 -0.116184175 0.3355696 -0.45845574 -0.8715619 0.088073365 -0.113506444 -0.29783955
территория 0.16132116 0.005120699 0.46607098 -0.38607576 -0.06515391 0.14183661 -0.2603737 -0.11088022 -0.19241826 0.4233337 -0.17470914 -0.14630978 -0.23820904 -0.14764808 0.18854001 -0.0843727 -0.04012075 -0.26515642 0.27542707 -0.22718601 -0.19969155 -0.0058616214 0.17604405 -0.24700546 0.41491488 -0.26317456 -0.33320716 0.2992205 -0.1699342 -0.12100077 0.04099379 0.052606143 0.012355211 0.2083988 0.43382528 0.24018975 -0.4933876 -0.40435496 0.39058116 -0.0851359 0.30373192 0.109671995 -0.1379593 0.19787389 0.49714866 0.15151376 -0.017343707 0.045543216 -0.658734 0.29210436 -0.058803618 0.014021012 0.048326258 -0.32422718 -0.14864787 0.404601 -0.22542252 0.07266075 0.12726861 -0.24670532 0.122666836 -0.017258817 -0.1994705 -0.12691909 0.22786973 -0.5906431 -0.18013479 -0.0032349166 -0.06338369 0.12642415 0.18018432 -0.4161159 0.03642302 0.42002663 -0.1100782 0.05907923 -0.109344244 0.15792024 0.23113643 0.16603746 -0.18644203 0.049816463 0.09643793 0.13066682 -0.18848902 0.16083162 -0.22502744 -0.0174056 -0.27242896 0.24083304 0.12138508 -0.006993207 0.28309572 -0.0510705 0.14485626 -0.19872531 -0.37673554 0.038628638 -0.049039714 -0.12780689
местный 0.40283996 0.015982835 1.1786999 -0.98122597 -0.16292475 0.35910788 -0.6628995 -0.27780795 -0.48933503 1.0731621 -0.43775758 -0.3727732 -0.6065792 -0.3748026 0.4806204 -0.21580261 -0.103015 -0.6734258 0.70159006 -0.58020514 -0.5097932 -0.014883898 0.44026503 -0.6253332 1.0529729 -0.6635209 -0.84844476 0.75969756 -0.4321579 -0.30303213 0.10784523 0.13571249 0.031224845 0.52555287 1.0976738 0.61189675 -1.2516857 -1.0274785 0.98953545 -0.2151386 0.76489234 0.28059146 -0.348158 0.50459474 1.2562236 0.3836073 -0.041773193 0.11819681 -1.6715597 0.7378671 -0.15184028 0.04150218 0.1227772 -0.82387084 -0.3756413 1.0248045 -0.5708735 0.18174511 0.31903714 -0.6273254 0.30810696 -0.04262167 -0.5085899 -0.3235921 0.57472646 -1.4957067 -0.45159635 -0.011344749 -0.15850058 0.32444498 0.46459964 -1.0558745 0.08870904 1.0681329 -0.27459174 0.15054402 -0.28258988 0.400651 0.58356994 0.42134082 -0.47011644 0.12683141 0.24383016 0.33684084 -0.47171837 0.41251555 -0.56815946 -0.045417048 -0.6904165 0.60955477 0.30581763 -0.011255674 0.7200635 -0.12953308 0.36586422 -0.50617933 -0.95627356 0.09677179 -0.12725024 -0.32619387
становиться 0.2958063 0.013314881 0.87109226 -0.7236254 -0.12018287 0.26413012 -0.48759118 -0.2074638 -0.36025307 0.7935128 -0.324859 -0.27392283 -0.4447612 -0.2762347 0.3569701 -0.15778075 -0.073941514 -0.49651527 0.5156458 -0.42708948 -0.3765061 -0.012464113 0.32538167 -0.46102607 0.77570206 -0.48866296 -0.6247169 0.55972344 -0.3181867 -0.22693451 0.07760625 0.099587195 0.02316082 0.38700938 0.81023747 0.45061713 -0.9215041 -0.75697803 0.72949857 -0.15464814 0.5657405 0.20742886 -0.26057887 0.371872 0.92626286 0.28227302 -0.029980898 0.0852978 -1.2320606 0.5446096 -0.11151558 0.029965233 0.08806416 -0.6051798 -0.27918336 0.758499 -0.42237115 0.13587335 0.23763251 -0.46277213 0.22733256 -0.031896044 -0.37273523 -0.23854016 0.4256321 -1.1046078 -0.3314392 -0.0066878474 -0.11554109 0.23781948 0.33986175 -0.77670884 0.06481572 0.78563833 -0.20365407 0.10919367 -0.20871808 0.2967347 0.4301448 0.312127 -0.3466669 0.09298525 0.17995463 0.24767472 -0.34806153 0.30411276 -0.4186875 -0.031720415 -0.5109023 0.45147735 0.22574067 -0.011369993 0.53036654 -0.096783854 0.2697142 -0.37300426 -0.70698726 0.07042643 -0.09184723 -0.24194169
работа 0.15663427 0.004560311 0.45419416 -0.37425688 -0.06130465 0.13638572 -0.25584197 -0.10662724 -0.18749782 0.41451618 -0.1706361 -0.14404969 -0.23089823 -0.14408945 0.18587722 -0.08187447 -0.04163395 -0.25860134 0.27099797 -0.22160003 -0.19496143 -0.0063683493 0.17217419 -0.23873422 0.40536276 -0.25585622 -0.3253584 0.2952007 -0.16443098 -0.11778621 0.03917704 0.05349493 0.011702038 0.20150451 0.4235146 0.23649587 -0.48067886 -0.39799714 0.38366464 -0.08096408 0.2934775 0.1068858 -0.13347358 0.19381317 0.4836105 0.1462938 -0.016596468 0.04213221 -0.64284223 0.28520778 -0.0603961 0.018885767 0.04735961 -0.31786227 -0.14558889 0.394423 -0.21948873 0.06972083 0.12186287 -0.24327822 0.11758871 -0.017050203 -0.19464433 -0.12501729 0.22245455 -0.5754822 -0.17292686 -0.006166005 -0.05952834 0.12331522 0.17492612 -0.40672317 0.034560677 0.4122048 -0.105680466 0.05709867 -0.10806957 0.15302628 0.22325046 0.16242976 -0.17949867 0.048776522 0.09235998 0.1304317 -0.18334085 0.15742373 -0.21885686 -0.018101806 -0.2655639 0.23614983 0.11836732 -0.00861339 0.27654815 -0.04898426 0.14297712 -0.19733976 -0.3678527 0.038804196 -0.04497392 -0.124335855
огонь 0.09828177 0.0037136013 0.28327066 -0.23366275 -0.040983137 0.086466976 -0.16064027 -0.06613003 -0.12142648 0.25752908 -0.10368797 -0.089872316 -0.14371355 -0.090902306 0.11519817 -0.051010117 -0.022568308 -0.16152023 0.17016646 -0.14108367 -0.12139263 -0.0036058659 0.107987925 -0.15385891 0.2527483 -0.15741949 -0.20405814 0.18240483 -0.10140436 -0.07787994 0.025926538 0.032487523 0.0065184087 0.124765106 0.26527208 0.1482742 -0.30175573 -0.24608527 0.2364504 -0.050627466 0.18046822 0.06675948 -0.08199583 0.12173206 0.30314082 0.09115635 -0.00845467 0.027375663 -0.40281925 0.17576876 -0.04002811 0.008929855 0.029434578 -0.19799286 -0.09098897 0.24697447 -0.1350035 0.045387816 0.07673972 -0.14903708 0.072614156 -0.008099562 -0.11996456 -0.075783305 0.13802053 -0.3608445 -0.10861151 -0.003017635 -0.038334772 0.07647018 0.110546574 -0.25526398 0.019743346 0.25492713 -0.06738423 0.03662761 -0.06989576 0.096809454 0.1413954 0.10329268 -0.11562459 0.029625949 0.06194074 0.07943155 -0.11618505 0.098470815 -0.13532016 -0.012482991 -0.16422369 0.14872022 0.07436272 -0.0022660631 0.17281312 -0.030714663 0.0885081 -0.12150891 -0.23169431 0.022746438 -0.030396003 -0.07754019
риа 0.054588187 0.0047253976 0.16082092 -0.13462244 -0.01948095 0.04679818 -0.09169136 -0.034039594 -0.06406606 0.14612834 -0.058815267 -0.051432107 -0.086208634 -0.05226573 0.06644785 -0.03202842 -0.010948904 -0.08819931 0.09291039 -0.07800826 -0.069534555 -0.0010047322 0.061562452 -0.08594786 0.14439973 -0.09147279 -0.11077428 0.10815977 -0.060966194 -0.043854803 0.011445315 0.018852578 0.003125403 0.07398454 0.15139791 0.0806178 -0.17108284 -0.13999012 0.13512383 -0.032308336 0.10440181 0.036149528 -0.051449247 0.06724943 0.17163554 0.055807717 -0.008631212 0.015372447 -0.22753966 0.10214736 -0.022949556 0.010047109 0.013753093 -0.112027645 -0.051755358 0.14350322 -0.076032326 0.025607789 0.044019613 -0.08379654 0.03865126 -0.002859849 -0.06953966 -0.04130873 0.07636107 -0.20265345 -0.058131784 -0.003563354 -0.024056932 0.043776456 0.06286413 -0.14218138 0.009871625 0.14704895 -0.038325537 0.024310172 -0.042502005 0.055042237 0.07972465 0.060121883 -0.063875325 0.01553143 0.03388016 0.045229215 -0.06359605 0.058570236 -0.07830037 -0.009717354 -0.0961445 0.08296509 0.04134497 -0.003570262 0.09626584 -0.019973103 0.048708703 -0.07001263 -0.13381092 0.013465345 -0.014625674 -0.046178874
пропадать 0.4394242 0.016510459 1.2771647 -1.0623935 -0.17538221 0.38999182 -0.7179291 -0.30319476 -0.52886415 1.1658494 -0.47803026 -0.40434086 -0.65465987 -0.40482485 0.52284276 -0.23208514 -0.112072356 -0.7289096 0.7568997 -0.6263507 -0.55074936 -0.01699343 0.4790592 -0.6767565 1.1409404 -0.72001797 -0.91569954 0.8214753 -0.4653865 -0.33385697 0.11604066 0.14628373 0.03624771 0.57240546 1.1874105 0.6648895 -1.3534459 -1.1125988 1.0719838 -0.22762606 0.8272984 0.30163226 -0.37764624 0.5460667 1.3622127 0.4143313 -0.04547861 0.12507553 -1.8123453 0.7998712 -0.16544439 0.04427989 0.13171692 -0.89032936 -0.408694 1.1122892 -0.61982626 0.19980173 0.34659752 -0.67837125 0.33154187 -0.045597553 -0.5491547 -0.35326588 0.62334025 -1.6212064 -0.48793074 -0.012331958 -0.16917591 0.35082245 0.49800584 -1.1434739 0.092290014 1.1555451 -0.29985365 0.16192964 -0.30780742 0.435008 0.6324811 0.454562 -0.5085318 0.13376659 0.2646655 0.3645121 -0.51139736 0.44229418 -0.61319846 -0.046094153 -0.74915075 0.66192186 0.33213478 -0.017986348 0.7811381 -0.14037943 0.3963713 -0.54820186 -1.0380342 0.105205595 -0.1336945 -0.3539518
отмечать 0.4082342 0.015634593 1.1885214 -0.9877895 -0.1628369 0.36170805 -0.6670201 -0.28259322 -0.49203026 1.0824751 -0.44352487 -0.37491715 -0.6090435 -0.37555492 0.48513743 -0.21470033 -0.10267721 -0.6755004 0.7043809 -0.58406025 -0.5148392 -0.01568924 0.44513163 -0.6285918 1.059886 -0.6666004 -0.8541033 0.7650352 -0.43464223 -0.3092264 0.1082187 0.13505496 0.030664777 0.5301626 1.1051652 0.6170897 -1.2599425 -1.0335944 0.99864525 -0.21240415 0.7718931 0.28182772 -0.350048 0.5084725 1.2662295 0.38776526 -0.04292889 0.11614881 -1.6844116 0.7415379 -0.15331182 0.04079745 0.12152163 -0.82873464 -0.3794143 1.0328152 -0.5772136 0.18500586 0.32416517 -0.630862 0.30926064 -0.042183775 -0.5109295 -0.32702535 0.57936543 -1.5089858 -0.45552194 -0.01177261 -0.16077974 0.32676485 0.46412912 -1.0637027 0.08940215 1.0729063 -0.27692482 0.15030326 -0.28682894 0.4027715 0.5856249 0.42347255 -0.474119 0.12683354 0.24582346 0.3389898 -0.4757959 0.41460443 -0.56992775 -0.043422475 -0.6989334 0.61445236 0.3084965 -0.01578255 0.72440237 -0.13057426 0.36699238 -0.50943726 -0.9653324 0.09724632 -0.12466175 -0.32926956
москва 0.11102051 0.0056716963 0.32184005 -0.26685897 -0.041916527 0.10048712 -0.1811387 -0.07445846 -0.13262507 0.2925936 -0.120799124 -0.09991658 -0.16496818 -0.10383009 0.13358249 -0.060549334 -0.026403004 -0.1833295 0.19293067 -0.15564167 -0.13781603 -0.0017833806 0.12134843 -0.17020395 0.28499073 -0.18303753 -0.23204048 0.20812887 -0.121178955 -0.084871665 0.027878573 0.03877573 0.009762179 0.14336021 0.3002185 0.16549246 -0.34219822 -0.27700493 0.26769075 -0.057560068 0.20953237 0.0761404 -0.09424882 0.13826996 0.343329 0.1036162 -0.013984359 0.03324493 -0.45802268 0.20167156 -0.04123652 0.011792118 0.03366161 -0.22312847 -0.101041086 0.28194243 -0.15474989 0.05107612 0.08769667 -0.17172082 0.081714734 -0.009280416 -0.13823836 -0.08703637 0.15874314 -0.4086546 -0.12213701 -0.0034900089 -0.045940828 0.08981935 0.12558831 -0.2905897 0.024198689 0.29048383 -0.07547959 0.041984636 -0.07646098 0.11015738 0.16077799 0.116257995 -0.12952924 0.033718616 0.06686666 0.094033666 -0.1275145 0.11163744 -0.15323898 -0.011572861 -0.18475935 0.16888718 0.08678751 -0.0026410858 0.19941752 -0.036997426 0.099491216 -0.13603784 -0.25933158 0.026950212 -0.03462848 -0.08668747
агентство 0.15134966 0.0065688263 0.4476899 -0.37223715 -0.060862787 0.13726814 -0.25077012 -0.10566255 -0.18560028 0.40748397 -0.1684825 -0.13970609 -0.2293124 -0.14152592 0.18197434 -0.08177796 -0.037795324 -0.25485954 0.26754266 -0.21920384 -0.19363572 -0.006091854 0.16646545 -0.23794419 0.39818773 -0.2532035 -0.32158983 0.28700617 -0.1647115 -0.11529432 0.039996848 0.050030455 0.011600231 0.20117149 0.41568142 0.23227769 -0.47495732 -0.39018884 0.37300378 -0.08176151 0.29110107 0.10606562 -0.13144325 0.19266395 0.476874 0.14504664 -0.01519219 0.04370734 -0.6338162 0.2802381 -0.056207743 0.0152105605 0.04484042 -0.31264064 -0.14173071 0.38900575 -0.21850798 0.069933176 0.121639125 -0.23773783 0.11537252 -0.016537897 -0.19349927 -0.11948453 0.21721974 -0.56795746 -0.17030728 -0.004286583 -0.05952351 0.1234641 0.17478307 -0.399769 0.03199266 0.40395835 -0.10482738 0.057088453 -0.10813975 0.15154415 0.22184095 0.15788856 -0.17969866 0.0494356 0.091509484 0.12693694 -0.18200468 0.15453406 -0.216195 -0.016130993 -0.2621519 0.23226938 0.1188757 -0.005774883 0.27130896 -0.051517684 0.13926475 -0.1931151 -0.36212438 0.03665307 -0.049263928 -0.12438747
